letters lettres 1.0000000
orange jus 1.0000000
skills virtuose 0.5000000
virtuoso virtuose 0.5000000
there là-bas 0.5000000
not là-bas 0.5000000
inevitable inévitable 1.0000000
Theoretically Théoriquement 1.0000000
for avant 0.1428571
before avant 0.7142857
until avant 0.1428571
succinct succints 1.0000000
except apparaître 1.0000000
formal écriture 1.0000000
place vivre 0.0666667
be vivre 0.0666667
it vivre 0.0666667
kind vivre 0.0666667
that vivre 0.0666667
live vivre 0.6666667
irresistible irrésistible 1.0000000
dress soirée 1.0000000
mouth bouche 0.6666667
left bouche 0.3333333
must devons 1.0000000
left quittant 0.5000000
I quittant 0.5000000
Maury émission 1.0000000
ask aux 0.0833333
cards aux 0.0833333
passengers aux 0.0833333
Sherlock aux 0.0833333
poll aux 0.0833333
to aux 0.1666667
commemorates aux 0.0833333
the aux 0.2500000
items aux 0.0833333
park garer 1.0000000
risks risques 1.0000000
Mathematicians mathématiciens 0.6666667
mathematicians mathématiciens 0.3333333
feel aise 0.5000000
uncomfortable aise 0.5000000
Europe Europe 1.0000000
Those Ceux 1.0000000
my genoux 0.5000000
knees genoux 0.5000000
one celui 0.5000000
the celui 0.5000000
at vivant 0.2500000
alive vivant 0.5000000
lifetime vivant 0.2500000
priorities priorités 1.0000000
it expliquer 0.1428571
everything expliquer 0.0714286
to expliquer 0.3571429
explain expliquer 0.4285714
Yes oui 1.0000000
while pleurer 0.5000000
cry pleurer 0.5000000
breaks vacances 0.3333333
vacation vacances 0.3333333
holiday vacances 0.3333333
prolific écrivain 1.0000000
It Personne 0.2000000
Nobody Personne 0.6000000
No Personne 0.2000000
are êtes 0.2000000
famous êtes 0.2000000
&apos;re êtes 0.4000000
aren êtes 0.2000000
numbers premiers 1.0000000
relationship relation 1.0000000
will croient 0.3333333
believe croient 0.6666667
showing montrer 1.0000000
makes produit 1.0000000
something quelque 0.9285714
somewhere quelque 0.0714286
completely tout 0.0400000
whole tout 0.0800000
sleep tout 0.0400000
everything tout 0.4000000
whatever tout 0.0400000
me tout 0.0400000
NULL tout 0.0800000
soon tout 0.0400000
too tout 0.0400000
all tout 0.2000000
soon vite 0.5000000
fast vite 0.5000000
All Tout 0.1111111
Any Tout 0.1111111
Everyone Tout 0.4444444
Anything Tout 0.2222222
It Tout 0.1111111
Innocence innocence 1.0000000
back retour 0.2500000
be retour 0.2500000
soon retour 0.5000000
pilot pilote 1.0000000
James James 1.0000000
causing causant 1.0000000
Ms. Mme 1.0000000
phrased ça 0.0285714
takes ça 0.0285714
how ça 0.0285714
that ça 0.1428571
NULL ça 0.0857143
life ça 0.0285714
this ça 0.0857143
why ça 0.0285714
it ça 0.4571429
mean ça 0.0285714
kind ça 0.0285714
do ça 0.0285714
you sûre 0.5000000
sure sûre 0.5000000
almost presque 0.5000000
all presque 0.1666667
scared presque 0.1666667
nearly presque 0.1666667
mathematical Une 0.1666667
Once Une 0.1666667
Life Une 0.1666667
Evening Une 0.1666667
A Une 0.1666667
An Une 0.1666667
family famille 0.8333333
royal famille 0.1666667
miss manqué 0.5000000
me manqué 0.5000000
getting tape 0.5000000
&apos;s tape 0.5000000
was abusait 0.5000000
abusing abusait 0.5000000
think pense 1.0000000
Bicycles bicyclettes 1.0000000
ability capacités 1.0000000
thought cru 1.0000000
tools outil 1.0000000
sources anonymes 1.0000000
police police 1.0000000
Seeing Vu 1.0000000
must professeurs 0.5000000
Professors professeurs 0.5000000
Nothing Rien 1.0000000
NULL où 0.1428571
shape où 0.1428571
where où 0.4285714
Where où 0.1428571
eggs où 0.1428571
afternoon l 0.1666667
the l 0.3333333
do l 0.3333333
which l 0.1666667
arbitrary arbitraire 0.5000000
selection arbitraire 0.5000000
analyzed analysé 1.0000000
your tes 1.0000000
none nulle 1.0000000
picture récente 1.0000000
weeks semaines 0.5000000
ago semaines 0.5000000
miss manquée 0.5000000
me manquée 0.5000000
week prochaine 1.0000000
responsible responsable 0.5000000
for responsable 0.5000000
mess totale 1.0000000
days jours-ci 1.0000000
wedding mariage 1.0000000
bored m&apos;ennuie 0.3333333
so m&apos;ennuie 0.3333333
&apos;m m&apos;ennuie 0.3333333
over partout 0.4000000
all partout 0.4000000
politicians partout 0.2000000
me Passez-moi 0.5000000
Pass Passez-moi 0.5000000
machine barbe-à-papa 1.0000000
disinclinations réticence 1.0000000
haven n 0.0909091
are n 0.0909091
child n 0.0909091
rich n 0.0909091
was n 0.0909091
gave n 0.0909091
do n 0.0909091
did n 0.0909091
’ n 0.0909091
NULL n 0.0909091
don n 0.0909091
I Puis-je 0.5000000
May Puis-je 0.5000000
sound tiré 1.0000000
tell être 0.0250000
be être 0.7500000
reprimanded être 0.0250000
being être 0.1000000
objective être 0.0250000
true être 0.0250000
defect être 0.0250000
NULL être 0.0250000
me Trang 0.1666667
, Trang 0.1666667
NULL Trang 0.1666667
Trang Trang 0.5000000
was cherchait 0.3333333
else cherchait 0.3333333
looking cherchait 0.3333333
breakthroughs scientifiques 1.0000000
in ville 0.3333333
most ville 0.3333333
city ville 0.3333333
you Avez-vous 0.5000000
have Avez-vous 0.2500000
Do Avez-vous 0.2500000
Do Fais 0.5000000
whatever Fais 0.5000000
poisoned royale 1.0000000
train train 0.2727273
looking train 0.0909091
doing train 0.2727273
stops train 0.0909091
saying train 0.2727273
think pensent 1.0000000
brought apporté 1.0000000
reader lecteur 1.0000000
life perpétuité 0.3333333
sentence perpétuité 0.3333333
a perpétuité 0.3333333
analysis superficielle 0.5000000
of superficielle 0.5000000
Let Tentons 0.3333333
try Tentons 0.3333333
&apos;s Tentons 0.3333333
taxpayers contribuables 1.0000000
saying nommant 1.0000000
wanting équivaut 0.3333333
the équivaut 0.3333333
is équivaut 0.3333333
love aiment 1.0000000
Hurry Pressez-vous 0.5000000
up Pressez-vous 0.5000000
some certaines 0.5000000
though certaines 0.5000000
keep entretenir 0.5000000
up entretenir 0.5000000
deed geste 1.0000000
lower abaisserai 0.5000000
myself abaisserai 0.5000000
the alunir 0.3333333
on alunir 0.3333333
moon alunir 0.3333333
miser avare 1.0000000
harder dure 0.3333333
hard dure 0.6666667
fixed corrigés 1.0000000
begun encore 0.1176471
rectifying encore 0.1176471
it encore 0.0588235
still encore 0.4705882
harder encore 0.1176471
sandwiches encore 0.1176471
TV télé 0.7500000
a télé 0.2500000
fantasy fantaisie 1.0000000
from sujets 0.2500000
rebellion sujets 0.2500000
subjects sujets 0.5000000
Blind aveugles 0.5000000
people aveugles 0.5000000
them appellerai 0.5000000
call appellerai 0.5000000
I J&apos; 0.9803922
Now J&apos; 0.0196078
Baffled Confus 1.0000000
details inutiles 1.0000000
Almanac Almanac 1.0000000
break déjeuner 0.5000000
lunch déjeuner 0.5000000
understood compris 0.3333333
misunderstood compris 0.3333333
anonymous compris 0.3333333
recluse reclus 1.0000000
trying essayer 1.0000000
concept abstrait 1.0000000
stories histoires 1.0000000
Nowadays jours 0.2500000
days jours 0.5000000
day jours 0.2500000
making occupé 0.5000000
busy occupé 0.5000000
am donne 0.1428571
give donne 0.2857143
&apos;s donne 0.1428571
giving donne 0.1428571
me donne 0.1428571
kicking donne 0.1428571
Church églises 1.0000000
kill suiciderais 0.5000000
myself suiciderais 0.5000000
Did T&apos; 0.1818182
Hello T&apos; 0.0909091
You T&apos; 0.7272727
disappeared disparu 0.5000000
gone disparu 0.5000000
apologized excusé 1.0000000
was eut 1.0000000
great grandes 1.0000000
belied forte 1.0000000
meant faits 1.0000000
seems semblerait 1.0000000
than voyageant 0.3333333
from voyageant 0.3333333
traveling voyageant 0.3333333
many nombreux 1.0000000
With Avec 0.6666667
You Avec 0.3333333
said viens 0.2500000
just viens 0.2500000
come viens 0.2500000
Just viens 0.2500000
proposal injuste 1.0000000
murderer fut 0.1428571
was fut 0.5714286
once fut 0.1428571
Europe fut 0.1428571
Sadly Malheureusement 1.0000000
field domaine 1.0000000
sustainability urbain 1.0000000
that deviné 0.5000000
guessed deviné 0.5000000
forest feu 0.5000000
fire feu 0.5000000
memory mémoire 1.0000000
task tâche 1.0000000
as posséder 0.3333333
having posséder 0.3333333
same posséder 0.3333333
Can Est-ce 0.0666667
Is Est-ce 0.3333333
Could Est-ce 0.0666667
Do Est-ce 0.2666667
Are Est-ce 0.2666667
Don espérez 0.5000000
expect espérez 0.5000000
air pris 0.2000000
acted pris 0.2000000
made pris 0.2000000
put pris 0.2000000
took pris 0.2000000
Face Affronte 1.0000000
brain cerveau 1.0000000
War indépendance 1.0000000
most pièce 0.5000000
room pièce 0.5000000
Democracy démocratie 1.0000000
People Ils 0.2500000
They Ils 0.7500000
Lewinsky Lewinsky 1.0000000
stay séjourné 1.0000000
slowly lentement 1.0000000
changed changé 0.4000000
&apos;ve changé 0.6000000
artists artistes 0.5000000
Pop artistes 0.5000000
bed leurs 0.1111111
NULL leurs 0.2222222
their leurs 0.6666667
Minute Minute 1.0000000
suffering souffrance 1.0000000
suffering de 0.0061728
asking de 0.0030864
get de 0.0061728
diminution de 0.0061728
kidding de 0.0030864
hostel de 0.0030864
Many de 0.0061728
joking de 0.0030864
many de 0.0339506
news de 0.0030864
table de 0.0030864
forest de 0.0030864
in de 0.0185185
altruistic de 0.0030864
actors de 0.0030864
surprised de 0.0030864
pun de 0.0030864
allow de 0.0030864
hoards de 0.0030864
new de 0.0061728
seeing de 0.0030864
leader de 0.0030864
trace de 0.0030864
somber de 0.0030864
lesser de 0.0030864
math de 0.0061728
poetry de 0.0030864
Maury de 0.0030864
your de 0.0030864
soon de 0.0061728
arrive de 0.0030864
password de 0.0061728
account de 0.0030864
any de 0.0030864
physics de 0.0030864
eaten de 0.0030864
starving de 0.0061728
stones de 0.0061728
vegetables de 0.0092593
doubt de 0.0030864
freedom de 0.0061728
houses de 0.0061728
thrive de 0.0030864
me de 0.0030864
&apos;s de 0.0092593
back de 0.0092593
laughing de 0.0030864
myself de 0.0030864
around de 0.0061728
from de 0.0246914
poor de 0.0030864
solution de 0.0030864
trying de 0.0123457
food de 0.0030864
NULL de 0.2067901
remarks de 0.0030864
criticizing de 0.0030864
&apos; de 0.0030864
much de 0.0154321
redundant de 0.0030864
for de 0.0061728
first de 0.0030864
about de 0.0061728
sustainability de 0.0030864
selling de 0.0030864
requires de 0.0030864
people de 0.0061728
wife de 0.0030864
of de 0.2006173
than de 0.0030864
reading de 0.0030864
dress de 0.0030864
to de 0.1543210
potatoes de 0.0030864
long de 0.0339506
human de 0.0030864
nothing de 0.0030864
belts de 0.0030864
difference de 0.0030864
guests de 0.0030864
red de 0.0030864
filled de 0.0030864
senseless de 0.0030864
drastically de 0.0030864
which prétendant 0.5000000
suitor prétendant 0.5000000
have courant 0.3333333
must courant 0.3333333
known courant 0.3333333
mad fou 0.2000000
beside fou 0.2000000
crazy fou 0.6000000
headache ordinateur 0.1666667
computer ordinateur 0.6666667
laptop ordinateur 0.1666667
; côtés 0.5000000
side côtés 0.5000000
pain douleur 1.0000000
balance équilibrer 1.0000000
criterion critère 1.0000000
get faut 0.1666667
to faut 0.1666667
My faut 0.1666667
requires faut 0.1666667
have faut 0.3333333
except mis 1.0000000
Denying Déniant 1.0000000
short petite 1.0000000
moss mousse 1.0000000
effort effort 1.0000000
student étudiant 1.0000000
resort faudra 1.0000000
She Elle 1.0000000
himself isoler 0.3333333
from isoler 0.3333333
isolate isoler 0.3333333
regret regrettent 1.0000000
mom maman 0.5000000
doesn maman 0.5000000
unnecessary inutile 1.0000000
for vase 0.5000000
vessel vase 0.5000000
, sexuelles 1.0000000
nails ongles 1.0000000
Close Ferme 1.0000000
irregular irréguliers 0.5000000
verbs irréguliers 0.5000000
. a. 0.3333333
is a. 0.3333333
has a. 0.3333333
explicitly explicitement 1.0000000
fire forêt 1.0000000
cold froid 1.0000000
is pleut 0.5000000
raining pleut 0.5000000
get occasion 1.0000000
intrigue intriguent 1.0000000
think crois 0.5000000
believe crois 0.5000000
finish finir 0.5000000
end finir 0.5000000
be revenir 0.2500000
retract revenir 0.2500000
to revenir 0.2500000
back revenir 0.2500000
national budget 1.0000000
witnesses Jéhovah 1.0000000
lovely endroit 1.0000000
she manquait 0.5000000
lacked manquait 0.5000000
were humains 0.3333333
Humans humains 0.3333333
humans humains 0.3333333
are allez-vous 0.3333333
Did allez-vous 0.3333333
you allez-vous 0.3333333
it photo 0.2500000
photo photo 0.2500000
recent photo 0.5000000
Look Regarde-moi 0.3333333
me Regarde-moi 0.3333333
at Regarde-moi 0.3333333
which courriel 0.5000000
email courriel 0.5000000
telegram télégramme 1.0000000
guy bizarre 0.5000000
weird bizarre 0.5000000
headache crâne 1.0000000
transmitted sexuellement 1.0000000
coercion coercition 1.0000000
is hiver 0.5000000
Winter hiver 0.5000000
2006 2006 1.0000000
bride jeunes 0.3333333
young jeunes 0.3333333
people jeunes 0.3333333
; tendu 0.5000000
lame tendu 0.5000000
slowest lent 0.5000000
one lent 0.5000000
influenced influencé 1.0000000
heirless roi 0.1250000
a roi 0.1250000
king roi 0.7500000
acted manière 0.3333333
way manière 0.3333333
drastically manière 0.3333333
week dernière 0.2500000
last dernière 0.5000000
year dernière 0.2500000
work marcher 1.0000000
no peut-être 0.5000000
may peut-être 0.5000000
Politicians politiciens 0.5000000
politicians politiciens 0.5000000
ones nouvelles 0.2500000
news nouvelles 0.2500000
new nouvelles 0.5000000
Don songe 0.2500000
think songe 0.2500000
you songe 0.2500000
of songe 0.2500000
Smile Souris 1.0000000
about oublierez 0.5000000
forget oublierez 0.5000000
much grand-chose 0.5000000
mean grand-chose 0.5000000
&apos;s web 0.5000000
layout web 0.5000000
at levais 0.3333333
6 levais 0.3333333
up levais 0.3333333
you êtes-vous 0.5000000
did êtes-vous 0.5000000
late vieux 0.6666667
dude vieux 0.1666667
old vieux 0.1666667
painting peinture 1.0000000
machine compliquée 0.3333333
; compliquée 0.3333333
complicated compliquée 0.3333333
citizen libre 1.0000000
witnesses témoins 1.0000000
something chose 0.6500000
stupidest chose 0.0500000
thing chose 0.2000000
same chose 0.1000000
corroborate corroborer 0.5000000
Gary corroborer 0.5000000
may magistral 0.5000000
lecture magistral 0.5000000
shocking choquante 0.5000000
only choquante 0.5000000
trying essayent 1.0000000
mind tête 0.5000000
headache tête 0.2500000
NULL tête 0.2500000
from fanatiques 0.5000000
religious fanatiques 0.5000000
lucky chanceux 1.0000000
surprise surprend 1.0000000
, lycée 0.2000000
school lycée 0.6000000
high lycée 0.2000000
inappropriate déplacé 1.0000000
David David 1.0000000
&apos;s est 0.2624434
apologized est 0.0045249
Is est 0.0135747
somewhat est 0.0045249
lies est 0.0045249
can est 0.0045249
&apos;re est 0.0045249
welcome est 0.0045249
impossible est 0.0045249
; est 0.0090498
came est 0.0045249
down est 0.0045249
NULL est 0.0226244
died est 0.0045249
isn est 0.0045249
because est 0.0045249
is est 0.5972851
got est 0.0045249
do est 0.0045249
built est 0.0045249
are est 0.0271493
tools un 0.0076923
somebody un 0.0153846
step un 0.0076923
ambiguous un 0.0076923
innocent un 0.0076923
a un 0.6769231
someday un 0.0307692
either un 0.0076923
send un 0.0076923
an un 0.1000000
prison un 0.0076923
one un 0.0230769
poem un 0.0076923
wasted un 0.0076923
desire un 0.0076923
wrong un 0.0076923
someone un 0.0384615
NULL un 0.0307692
Soviet Union 1.0000000
belied masquaient 1.0000000
exclaimed exclama-t-il 1.0000000
going vas 1.0000000
political débat 1.0000000
break éclatent 0.5000000
out éclatent 0.5000000
future futur 0.6666667
changed futur 0.3333333
Arc refusa 0.5000000
refused refusa 0.5000000
up Dépêche-toi 0.5000000
Hurry Dépêche-toi 0.5000000
idiot imbécile 1.0000000
like jouer 0.2500000
will jouer 0.2500000
cards jouer 0.2500000
playing jouer 0.2500000
morning matins 1.0000000
tells te 0.0232558
NULL te 0.0232558
complaining te 0.0232558
please te 0.0465116
you te 0.3953488
to te 0.0697674
yourself te 0.0465116
see te 0.0232558
give te 0.0697674
bother te 0.0232558
correct te 0.0232558
scare te 0.0232558
tell te 0.0465116
keeps te 0.0232558
meet te 0.0232558
freaking te 0.0232558
explain te 0.0232558
talk te 0.0232558
feel te 0.0465116
lovers partenaire 1.0000000
behaving comporter 1.0000000
on Attends 0.5000000
Hold Attends 0.5000000
sword magique 0.5000000
magic magique 0.5000000
transform transformer 1.0000000
friend Rachel 0.5000000
Rachel Rachel 0.5000000
discovered découvrait 1.0000000
aspect aspects 1.0000000
want veux 0.8800000
NULL veux 0.0400000
mean veux 0.0800000
decorum soir 0.5000000
Tonight soir 0.5000000
church église 0.5000000
Catholic église 0.5000000
spell épelle-t-on 0.3333333
you épelle-t-on 0.3333333
do épelle-t-on 0.3333333
study Paris 0.2000000
Paris Paris 0.6000000
in Paris 0.2000000
&apos;re plaisir 0.5000000
welcome plaisir 0.5000000
with souriant 0.3333333
a souriant 0.3333333
smile souriant 0.3333333
stay restés 1.0000000
would donnait 0.5000000
gave donnait 0.5000000
unfortunately malheureusement 1.0000000
would marier 0.2500000
marry marier 0.5000000
you marier 0.2500000
easily facilement 1.0000000
taking les 0.0091743
NULL les 0.0550459
areas les 0.0091743
eyes les 0.0091743
sources les 0.0091743
see les 0.0091743
men les 0.0091743
United les 0.0091743
were les 0.0091743
selling les 0.0091743
within les 0.0091743
hockey les 0.0091743
avoid les 0.0091743
exams les 0.0091743
women les 0.0091743
irregular les 0.0091743
words les 0.0183486
foreign les 0.0091743
mathematicians les 0.0091743
important les 0.0183486
sent les 0.0183486
skills les 0.0091743
humans les 0.0091743
characters les 0.0091743
interactions les 0.0091743
skeptical les 0.0091743
every les 0.0366972
classes les 0.0091743
lasagna les 0.0091743
over les 0.0091743
everyone les 0.0091743
&apos;ll les 0.0091743
mysterious les 0.0091743
cops les 0.0091743
bending les 0.0091743
music les 0.0091743
members les 0.0091743
shopping les 0.0091743
running les 0.0091743
summer les 0.0091743
people les 0.0458716
dreams les 0.0091743
far-fetched les 0.0091743
others les 0.0183486
the les 0.3669725
contentious les 0.0183486
blame les 0.0091743
both les 0.0183486
nerves les 0.0091743
nails les 0.0091743
buys les 0.0091743
cheating les 0.0091743
100 100 1.0000000
send envoie 1.0000000
proven prouvé 1.0000000
In Dans 0.7500000
When Dans 0.2500000
that cela 0.1666667
NULL cela 0.1666667
it cela 0.5000000
does cela 0.1666667
anyone devait 1.0000000
sensitivity intérieure 1.0000000
for demander 0.1666667
wonder demander 0.3333333
propose demander 0.1666667
to demander 0.3333333
poverty pauvreté 1.0000000
anarchist anarchiste 1.0000000
once autrefois 1.0000000
turbulence turbulences 1.0000000
want désirons 0.5000000
Nowadays désirons 0.5000000
for cherchais 0.2500000
was cherchais 0.2500000
! cherchais 0.2500000
looking cherchais 0.2500000
NULL si 0.0571429
given si 0.0285714
if si 0.5714286
whether si 0.0571429
so si 0.2857143
angel ange 1.0000000
interesting intéressant 1.0000000
selling vendre 0.3333333
them vendre 0.3333333
personal vendre 0.3333333
people étrangers 0.3333333
Foreign étrangers 0.3333333
intrigue étrangers 0.3333333
can devines 0.5000000
guess devines 0.5000000
depends dépendra 0.5000000
on dépendra 0.5000000
be ravi 0.5000000
glad ravi 0.5000000
, existe 0.5000000
existed existe 0.5000000
actually effectivement 1.0000000
keeps empêche 1.0000000
boyfriend ami 1.0000000
whether demandait 1.0000000
benevolent vieil 0.5000000
old vieil 0.5000000
eating mangeant 1.0000000
decided décida 1.0000000
Congratulations Félicitations 1.0000000
Our Notre 1.0000000
many autant 0.3333333
so autant 0.3333333
With autant 0.3333333
important important 0.6666667
anymore important 0.3333333
down calmé 1.0000000
buys films 0.5000000
them films 0.5000000
science sciences 1.0000000
majority majorité 1.0000000
capricious capricieux 1.0000000
came venait 0.6666667
from venait 0.3333333
mathematical mathématique 1.0000000
out trouille 1.0000000
den cage 0.5000000
of cage 0.5000000
very Merci 0.1052632
Thanks Merci 0.1578947
Thank Merci 0.3684211
you Merci 0.3684211
have doivent 0.4285714
to doivent 0.4285714
get doivent 0.1428571
feelings sentiments 1.0000000
pun mots 0.1111111
for mots 0.1111111
NULL mots 0.1111111
words mots 0.6666667
thousand cent 1.0000000
meter cube 1.0000000
involving impliquant 0.5000000
altar impliquant 0.5000000
about racontiez 1.0000000
NULL lui 0.0416667
perfect lui 0.0416667
to lui 0.1250000
him lui 0.5000000
tell lui 0.1666667
naturally lui 0.0416667
pranking lui 0.0416667
prank lui 0.0416667
satirical comédie 1.0000000
Jack Jack 1.0000000
there Vouloir 0.5000000
Where Vouloir 0.5000000
smart intelligente 1.0000000
table bois 1.0000000
stole volé 1.0000000
to paraît 0.3333333
seems paraît 0.6666667
reprimanded réprimandé 1.0000000
suppose suppose 1.0000000
Haven sommes-nous 1.0000000
before devant 1.0000000
pages pages 1.0000000
scrutinizes scrute 1.0000000
you faites 0.5000000
made faites 0.5000000
Justice justice 1.0000000
call téléphoner 1.0000000
only condition 0.2500000
under condition 0.2500000
condition condition 0.2500000
one condition 0.2500000
could pouvait 1.0000000
artists tirent 0.5000000
advantage tirent 0.5000000
infinite infini 1.0000000
thought pensais 1.0000000
bite mordu 0.5000000
you mordu 0.5000000
tired assez 0.1250000
sick assez 0.1250000
French assez 0.1250000
rather assez 0.1250000
quite assez 0.2500000
discerning assez 0.1250000
fast assez 0.1250000
text texte 1.0000000
tired fatigué 1.0000000
thought pensé 1.0000000
allowed droit 1.0000000
prefers préfère 1.0000000
solution solution 0.6666667
no solution 0.3333333
wrath courroux 1.0000000
Jason Jason 1.0000000
eyebrow sourcil 1.0000000
musical une 0.0114943
under une 0.0114943
soon une 0.0114943
a une 0.6321839
prank une 0.0114943
pranking une 0.0114943
reform une 0.0114943
an une 0.0804598
believable une 0.0114943
For une 0.0229885
one une 0.0114943
speech une 0.0114943
hour une 0.0114943
sculpture une 0.0114943
phrased une 0.0114943
such une 0.0344828
whole une 0.0114943
any une 0.0114943
discovery une 0.0114943
great une 0.0114943
nap une 0.0114943
NULL une 0.0344828
about sujet 0.5000000
volatile sujet 0.5000000
host hôte 1.0000000
work travail 0.2500000
job travail 0.5000000
very travail 0.2500000
a tarte 0.3333333
banana tarte 0.6666667
master maîtriser 1.0000000
self-indulgent jeune 0.2500000
, jeune 0.2500000
wealthy jeune 0.2500000
young jeune 0.2500000
useful réponses 1.0000000
him honoré 0.3333333
honored honoré 0.3333333
being honoré 0.3333333
present-day technologie 0.5000000
technology technologie 0.5000000
ability compensatoire 1.0000000
are ruinent 0.5000000
ruining ruinent 0.5000000
on crème 1.0000000
Rye seigle 1.0000000
fan fan 1.0000000
knack esprit 0.2500000
mind esprit 0.7500000
Whatever Quoique 1.0000000
throw lancer 1.0000000
Geneva Genève 1.0000000
plushy peluche 1.0000000
examination sommaire 1.0000000
shape état 1.0000000
affects affecte 1.0000000
Open Ouvrez 1.0000000
definitions définitions 1.0000000
prevalent croyance 1.0000000
because parce 1.0000000
butterfly papillon 1.0000000
Hey Eh 0.6666667
So Eh 0.3333333
seriously sérieux 1.0000000
unpleasant désagréable 1.0000000
you veux-tu 0.3333333
do veux-tu 0.3333333
want veux-tu 0.3333333
rest reposer 1.0000000
assume présumer 1.0000000
composition composition 1.0000000
will cesse 0.5000000
vilified cesse 0.5000000
conversation conversation 1.0000000
defect défaut 1.0000000
heated dispute 1.0000000
thrive prospèrent 1.0000000
cajole persuader 1.0000000
Sometimes Parfois 1.0000000
married Shanghai 0.3333333
get Shanghai 0.3333333
Shanghai Shanghai 0.3333333
living vis 1.0000000
overthrown fallait 1.0000000
Theoretically théorie 0.2500000
theory théorie 0.7500000
effects effet 1.0000000
proof fournit 1.0000000
wants veut 0.5000000
doesn veut 0.2000000
want veut 0.3000000
have programme 0.2500000
&apos;d programme 0.2500000
program programme 0.2500000
to programme 0.2500000
down apaisa 1.0000000
Have Tu 0.0238095
It Tu 0.0238095
You Tu 0.8809524
Are Tu 0.0238095
I Tu 0.0476190
come viennent 0.3333333
on viennent 0.3333333
knock viennent 0.3333333
whose côté 0.5000000
neighbor côté 0.5000000
lyrics paroles 0.5000000
chatterbox paroles 0.5000000
couples couples 1.0000000
cute mignon 1.0000000
furious colère 1.0000000
Russians Russes 1.0000000
travel voyager 1.0000000
, affamés 0.5000000
hungry affamés 0.5000000
Italy Italie 1.0000000
grain grain 1.0000000
of cause 0.5000000
because cause 0.5000000
it réalistes 0.3333333
face réalistes 0.3333333
&apos;s réalistes 0.3333333
struck frappé 1.0000000
use se 0.0243902
behaving se 0.0243902
up se 0.0243902
spread se 0.0243902
realize se 0.0487805
wake se 0.0243902
arguing se 0.0243902
yields se 0.0243902
wondered se 0.0243902
fighting se 0.0243902
may se 0.0975610
to se 0.0243902
players se 0.0243902
breed se 0.0243902
began se 0.0243902
NULL se 0.0975610
happen se 0.0243902
man se 0.0243902
delight se 0.0243902
marry se 0.0975610
err se 0.0243902
masturbate se 0.0243902
ocean se 0.0243902
meeting se 0.0243902
drift se 0.0243902
volunteered se 0.0243902
happens se 0.0731707
advocating se 0.0243902
are se 0.0243902
20 20 1.0000000
out signaler 0.3333333
point signaler 0.3333333
allow signaler 0.3333333
Freud idées 0.2500000
ideas idées 0.5000000
great idées 0.2500000
spiders elles 0.1666667
NULL elles 0.1666667
they elles 0.6666667
&apos;d aimerais 0.3333333
could aimerais 0.1111111
wish aimerais 0.2222222
like aimerais 0.2222222
I aimerais 0.1111111
of privées 0.3333333
universities privées 0.3333333
the privées 0.3333333
fatal maladie 1.0000000
worst pires 0.5000000
the pires 0.5000000
; permettez-moi 0.2500000
me permettez-moi 0.5000000
allow permettez-moi 0.2500000
do trouves-tu 0.3333333
find trouves-tu 0.3333333
you trouves-tu 0.3333333
cannot puissiez 0.5000000
can puissiez 0.5000000
ring bague 1.0000000
think que 0.0523810
regardless que 0.0047619
consider que 0.0047619
says que 0.0190476
which que 0.0047619
say que 0.0142857
suppose que 0.0095238
into que 0.0047619
beliefs que 0.0047619
thing que 0.0142857
expect que 0.0142857
anyone que 0.0047619
but que 0.0047619
than que 0.0476190
though que 0.0047619
existed que 0.0047619
endorphins que 0.0047619
letters que 0.0047619
lies que 0.0047619
what que 0.0714286
only que 0.0190476
since que 0.0142857
mean que 0.0047619
thought que 0.0095238
because que 0.0428571
just que 0.0190476
Because que 0.0047619
understanding que 0.0047619
NULL que 0.1666667
Maybe que 0.0047619
saying que 0.0190476
you que 0.1523810
want que 0.0095238
said que 0.0047619
nobody que 0.0047619
fifty que 0.0047619
thinker que 0.0047619
anything que 0.0095238
Whenever que 0.0047619
winner que 0.0047619
that que 0.1761905
antisocial que 0.0047619
discovered que 0.0047619
those que 0.0047619
That C 0.5000000
It C 0.1666667
This C 0.3333333
young complaisant 1.0000000
cry pleure 1.0000000
in sur 0.1304348
insights sur 0.0434783
skeptical sur 0.0434783
about sur 0.2173913
to sur 0.0434783
eyes sur 0.0434783
on sur 0.3913043
retract sur 0.0434783
account sur 0.0434783
tend tendance 1.0000000
put mettre 0.5000000
casting mettre 0.5000000
water eau 1.0000000
NULL même 0.0714286
same même 0.3571429
even même 0.5000000
thing même 0.0714286
name nom 1.0000000
teacher maître 1.0000000
rich riche 0.3333333
self-indulgent riche 0.3333333
He riche 0.3333333
the responsables 1.0000000
neighbors voisins 0.5000000
&apos; voisins 0.5000000
fights bagarres 1.0000000
years ans 0.7142857
20 ans 0.1428571
six ans 0.1428571
team équipe 1.0000000
weird Madrilènes 1.0000000
sure sûrs 0.5000000
you sûrs 0.5000000
Bill Bill 1.0000000
layout site 0.1666667
website site 0.6666667
&apos;s site 0.1666667
pictures images 1.0000000
Internet utilisation 1.0000000
biology biologie 1.0000000
Jimmy Jimmy 1.0000000
a fameuse 0.5000000
notorious fameuse 0.5000000
court tribunal 1.0000000
candlelight bougies 1.0000000
people personnes 0.8333333
Censorious personnes 0.1666667
approaching approchait 1.0000000
changes changements 0.6666667
any changements 0.3333333
convicted drogue 1.0000000
some quelques-uns 1.0000000
independent indépendant 1.0000000
bother déranger 1.0000000
soon minute 1.0000000
via dites 1.0000000
of statue 0.5000000
statue statue 0.5000000
public public 0.3333333
audience public 0.6666667
fighting entre 0.1428571
them entre 0.1428571
between entre 0.7142857
Passion passion 0.5000000
creates passion 0.5000000
check note 0.5000000
grade note 0.5000000
Imagination L&apos; 0.0769231
Education L&apos; 0.0769231
lonely L&apos; 0.0769231
America L&apos; 0.0769231
The L&apos; 0.4615385
Innocence L&apos; 0.0769231
Love L&apos; 0.0769231
Italy L&apos; 0.0769231
poem poème 1.0000000
no aucune 1.0000000
lawns gratuitement 0.2500000
free gratuitement 0.2500000
neighbors gratuitement 0.2500000
for gratuitement 0.2500000
My Ma 1.0000000
knock frapper 0.5000000
hit frapper 0.5000000
greedy avide 1.0000000
commissioner commissaire 1.0000000
was fur 1.0000000
answers utiles 1.0000000
&apos;re ressembler 0.2500000
beginning ressembler 0.2500000
like ressembler 0.2500000
look ressembler 0.2500000
around autour 1.0000000
gathers roule 1.0000000
lasagna lasagnes 1.0000000
ticket ticket 1.0000000
NULL nous 0.0434783
seems nous 0.0434783
Rachel nous 0.0434783
June nous 0.0434783
we nous 0.6086957
us nous 0.2173913
wind vent 1.0000000
you mangez-vous 0.5000000
eat mangez-vous 0.5000000
But Mais 0.5714286
So Mais 0.2857143
Seriously Mais 0.1428571
me confiance 0.1666667
trust confiance 0.3333333
another confiance 0.1666667
Trust confiance 0.1666667
one confiance 0.1666667
diets sains 0.3333333
healthy sains 0.3333333
in sains 0.3333333
to prendre 0.5000000
take prendre 0.5000000
altruistic joueur 1.0000000
happen arrivera 0.5000000
won arrivera 0.5000000
cards cartes 1.0000000
at Regardez-moi 0.3333333
Look Regardez-moi 0.3333333
me Regardez-moi 0.3333333
nap sieste 1.0000000
NULL comportaient 1.0000000
innocence innocent 0.3333333
innocent innocent 0.6666667
able capable 1.0000000
Salsa salsa 1.0000000
for toute 0.1666667
all toute 0.3333333
online toute 0.1666667
stand toute 0.3333333
website internet 0.3333333
Internet internet 0.3333333
the internet 0.3333333
Rome Rome 0.5000000
wasn Rome 0.5000000
Sir Monsieur 1.0000000
elected élire 1.0000000
finished finis 1.0000000
chemistry chimie 1.0000000
pronounce pronounce 1.0000000
loyal fans 1.0000000
despite malgré 1.0000000
scared peur 0.1428571
scare peur 0.1428571
fear peur 0.2857143
afraid peur 0.4285714
How Combien 1.0000000
at soit 0.1111111
NULL soit 0.1111111
may soit 0.1111111
be soit 0.1111111
regardless soit 0.1111111
anything soit 0.2222222
ready soit 0.1111111
of soit 0.1111111
questions questions 1.0000000
email via 0.5000000
via via 0.5000000
fridge réfrigérateur 0.7500000
a réfrigérateur 0.2500000
outline schéma 1.0000000
Willie répondit 1.0000000
officials gouvernementaux 1.0000000
question idiote 1.0000000
running problèmes 0.5000000
poor problèmes 0.5000000
hood capots 1.0000000
desire désir 0.5000000
the désir 0.5000000
according après 0.2500000
after après 0.5000000
From après 0.2500000
zoo zoo 1.0000000
with voulait 0.3333333
should voulait 0.3333333
wanted voulait 0.3333333
events évènements 1.0000000
sense sentir 1.0000000
the diffamé 0.2500000
time diffamé 0.2500000
all diffamé 0.2500000
vilified diffamé 0.2500000
Cold Guerre 1.0000000
feelings affection 1.0000000
intentionally intentionnellement 0.5000000
concealing intentionnellement 0.2500000
hide intentionnellement 0.2500000
things choses 1.0000000
with régulières 1.0000000
youth auberge 1.0000000
oddly étrangement 1.0000000
should devrait 0.8000000
be devrait 0.2000000
When Lorsqu&apos; 0.3333333
Then Lorsqu&apos; 0.3333333
when Lorsqu&apos; 0.3333333
showers douches 1.0000000
face-to-face face 0.4444444
face face 0.2222222
implausible face 0.2222222
Baffled face 0.1111111
early tôt 1.0000000
women femmes 1.0000000
intelligence intelligence 1.0000000
articulate clairement 0.5000000
about clairement 0.5000000
true réalité 1.0000000
time période 1.0000000
love adore 1.0000000
play Sudoku 0.3333333
Sudoku Sudoku 0.3333333
then Sudoku 0.3333333
forums forums 1.0000000
noise bruit 1.0000000
distaste aversion 1.0000000
Chinese chinois 1.0000000
am suis 0.4000000
wondered suis 0.0250000
woke suis 0.0250000
&apos;m suis 0.5000000
went suis 0.0500000
an cuire 0.5000000
cook cuire 0.5000000
a bras 0.5000000
yard bras 0.5000000
fat gros 1.0000000
some certaine 1.0000000
a appris 0.2000000
learned appris 0.4000000
from appris 0.2000000
lot appris 0.2000000
station station 1.0000000
schools écoles 0.6666667
from écoles 0.3333333
moon lune 1.0000000
Eichler Eichler 1.0000000
problem problème 0.7692308
? problème 0.0769231
matter problème 0.0769231
there problème 0.0769231
gay gay 1.0000000
danger danger 1.0000000
sleep suite 0.3333333
soon suite 0.6666667
freak ficher 1.0000000
realize rendre 1.0000000
a demi-million 0.3333333
million demi-million 0.3333333
Half demi-million 0.3333333
Wikipedia Wikipedia 1.0000000
line distinction 1.0000000
man coupable 0.2500000
convicted coupable 0.2500000
guilty coupable 0.5000000
unconvinced convaincue 0.3333333
either convaincue 0.3333333
still convaincue 0.3333333
the élèves 0.1428571
papers élèves 0.1428571
&apos; élèves 0.1428571
students élèves 0.5714286
have avons 0.4000000
walked avons 0.2000000
made avons 0.2000000
won avons 0.2000000
NULL chœur 1.0000000
criticizing critiquer 1.0000000
studying étudier 0.3333333
study étudier 0.3333333
at étudier 0.3333333
rare rare 0.5000000
at rare 0.5000000
started commença 1.0000000
about inquiéter 0.5000000
care inquiéter 0.5000000
harmless autrui 0.1666667
make autrui 0.1666667
as autrui 0.3333333
everything autrui 0.1666667
possible autrui 0.1666667
&apos;s Freud 0.5000000
insights Freud 0.5000000
meet affronter 1.0000000
tail queue 1.0000000
faith foi 1.0000000
mysterious personnages 0.6666667
characters personnages 0.3333333
translate ils 0.0588235
NULL ils 0.0588235
they ils 0.8823529
miracles miracles 1.0000000
you plais 0.2500000
anymore plais 0.2500000
&apos;t plais 0.2500000
like plais 0.2500000
Except Sauf 1.0000000
gave faisais 1.0000000
wallet portefeuille 1.0000000
to Parle-moi 0.5000000
Talk Parle-moi 0.5000000
feeling sensation 1.0000000
finds trouve 0.1111111
loss trouve 0.1111111
&apos;m trouve 0.1111111
at trouve 0.1111111
find trouve 0.4444444
a trouve 0.1111111
left gauche 1.0000000
bread pain 1.0000000
oneself soi 0.5000000
about soi 0.5000000
long longue 1.0000000
occupied occupées 1.0000000
good beauté 0.5000000
looks beauté 0.5000000
teeth dents 1.0000000
inner sensibilité 1.0000000
Povich Povich 0.5000000
show Povich 0.5000000
outrageous scandaleux 1.0000000
laughing rire 1.0000000
understand comprends 1.0000000
with uns 0.3333333
each uns 0.3333333
contentious uns 0.3333333
trying essayais 0.5000000
was essayais 0.5000000
give donner 1.0000000
belief conviction 0.3333333
conviction conviction 0.6666667
me pied 0.5000000
school pied 0.5000000
searches cherche 1.0000000
me court 1.0000000
place placer 1.0000000
three-headed à 0.0057471
idea à 0.0057471
reduced à 0.0057471
regretting à 0.0057471
except à 0.0057471
trust à 0.0057471
banana à 0.0114943
headache à 0.0114943
drink à 0.0057471
beginning à 0.0114943
on à 0.0172414
typewriter à 0.0114943
to à 0.4080460
told à 0.0114943
home à 0.0057471
believe à 0.0057471
of à 0.0229885
candy à 0.0057471
studying à 0.0057471
lottery à 0.0057471
last à 0.0114943
faithful à 0.0057471
chatting à 0.0057471
logical à 0.0057471
the à 0.0057471
useless à 0.0114943
ear à 0.0057471
term à 0.0114943
up à 0.0057471
sycophants à 0.0057471
instead à 0.0057471
drift à 0.0057471
concentrate à 0.0057471
started à 0.0114943
malnutrition à 0.0057471
about à 0.0172414
prodigal à 0.0057471
thinking à 0.0114943
against à 0.0114943
how à 0.0057471
sentenced à 0.0057471
drug à 0.0057471
making à 0.0229885
chatterbox à 0.0057471
NULL à 0.0747126
school à 0.0057471
face-to-face à 0.0114943
fifty à 0.0057471
being à 0.0114943
under à 0.0057471
around à 0.0057471
at à 0.0517241
filling à 0.0057471
neighbor à 0.0057471
as à 0.0114943
study à 0.0057471
charged à 0.0057471
unless à 0.0057471
by à 0.0114943
knock constamment 0.5000000
on constamment 0.5000000
renounce renoncer 0.3333333
her renoncer 0.3333333
refused renoncer 0.3333333
pay paie 1.0000000
mother mère 1.0000000
Spenser remarques 0.2500000
by remarques 0.2500000
Sherlock remarques 0.2500000
sarcastic remarques 0.2500000
grades notes 0.5000000
discordant notes 0.5000000
NULL dont 0.2000000
whose dont 0.2000000
of dont 0.2000000
virtuoso dont 0.2000000
with dont 0.2000000
weekend week-end 1.0000000
watched regardé 1.0000000
coward lâche 1.0000000
lovely charmant 0.5000000
place charmant 0.5000000
live habitent 0.5000000
in habitent 0.5000000
bed lit 0.7500000
NULL lit 0.2500000
London allés 0.5000000
went allés 0.5000000
&apos;ll courrai 0.5000000
run courrai 0.5000000
colleges facultés 0.5000000
private facultés 0.5000000
telling disait 0.2500000
NULL disait 0.2500000
was disait 0.2500000
side disait 0.2500000
mixture mélange 1.0000000
child enfant 1.0000000
NULL peine 0.5000000
pretending peine 0.5000000
high haut 1.0000000
piece bonbon 0.3333333
candy bonbon 0.3333333
of bonbon 0.3333333
six six 1.0000000
taking enlevant 1.0000000
all tous 0.4285714
say tous 0.0714286
every tous 0.2142857
a.m. tous 0.0714286
affects tous 0.0714286
everyone tous 0.0714286
lunch tous 0.0714286
cave grotte 1.0000000
room chambre 1.0000000
beach plage 1.0000000
have devront 1.0000000
want voulez 0.5000000
to voulez 0.5000000
answered Willie 1.0000000
our nos 0.5000000
Nowadays nos 0.5000000
close proches 0.4000000
many proches 0.4000000
do proches 0.2000000
, alors 0.1250000
praising alors 0.1250000
so alors 0.2500000
what alors 0.1250000
then alors 0.3750000
from venant 0.5000000
train venant 0.5000000
always égard 0.2500000
praising égard 0.2500000
him égard 0.2500000
sycophants égard 0.2500000
came vint 1.0000000
midnight minuit 1.0000000
Johnson Johnson 1.0000000
changes change 1.0000000
the pertinente 1.0000000
sum somme 1.0000000
was insensée 1.0000000
sunscreen solaire 1.0000000
proximity proximité 1.0000000
back reviendrai 0.5000000
come reviendrai 0.5000000
of témoignage 0.5000000
testimony témoignage 0.5000000
&quot; « 1.0000000
servile servile 1.0000000
resorted venus 1.0000000
ten dix 1.0000000
found découvrir 1.0000000
lot beaucoup 0.1904762
many beaucoup 0.1428571
very beaucoup 0.0952381
much beaucoup 0.3809524
it beaucoup 0.0952381
a beaucoup 0.0952381
performance performance 1.0000000
interesting intéressantes 1.0000000
tired fatigués 1.0000000
the gare 0.2500000
station gare 0.5000000
train gare 0.2500000
charges argent 0.1111111
money argent 0.8888889
mountains montagnes 1.0000000
done pu 0.5000000
able pu 0.5000000
Uh Euh 1.0000000
which e-mail 0.5000000
email e-mail 0.5000000
idiotic idiot 1.0000000
- - 0.5000000
— - 0.5000000
but mais 0.9642857
Just mais 0.0357143
worldwide entier 1.0000000
rabbit lapin 0.2500000
white lapin 0.5000000
bunny lapin 0.2500000
morning matin 1.0000000
laundry linge 1.0000000
their religieuses 0.3333333
as religieuses 0.3333333
beliefs religieuses 0.3333333
, ascétique 1.0000000
plane avion 1.0000000
creates crée 1.0000000
progress progrès 1.0000000
poet poète 1.0000000
off déconnecter 1.0000000
want voulais 0.0909091
tell voulais 0.0909091
didn voulais 0.0909091
to voulais 0.1818182
wanted voulais 0.5454545
Prosecutors procureurs 1.0000000
A Un 0.5294118
Someday Un 0.1176471
An Un 0.1176471
Poor Un 0.0588235
One Un 0.1176471
Half Un 0.0588235
skin peau 1.0000000
God Dieu 1.0000000
friends amis 1.0000000
real réelle 1.0000000
technology contemporaine 1.0000000
lives pendant 0.1000000
fought pendant 0.1000000
train pendant 0.1000000
while pendant 0.3000000
during pendant 0.1000000
online pendant 0.1000000
in pendant 0.2000000
another autre 0.2500000
tyrant autre 0.1250000
else autre 0.2500000
other autre 0.3750000
sow j 0.5000000
I j 0.5000000
fighting battre 1.0000000
happy heureux 1.0000000
profusion telle 0.2500000
do telle 0.2500000
such telle 0.2500000
thing telle 0.2500000
making occupée 0.5000000
busy occupée 0.5000000
bone compte 0.1250000
account compte 0.1250000
realized compte 0.1250000
realize compte 0.2500000
have compte 0.1250000
notice compte 0.1250000
an compte 0.1250000
, oreille 0.5000000
ear oreille 0.5000000
visit voir 0.1250000
have voir 0.1250000
stagnant voir 0.1250000
death voir 0.1250000
see voir 0.5000000
things importantes 1.0000000
to écouter 0.5000000
listened écouter 0.5000000
free citoyen 1.0000000
different différent 1.0000000
educated signifie 0.5000000
mean signifie 0.5000000
at expliqué 0.5000000
explained expliqué 0.5000000
health santé 1.0000000
inexperienced investisseurs 1.0000000
prove prouver 0.7500000
it prouver 0.2500000
quickly rapidement 1.0000000
near près 1.0000000
an aussi 0.1428571
I. aussi 0.2857143
contrary aussi 0.1428571
wait aussi 0.1428571
that aussi 0.1428571
also aussi 0.1428571
fearing craignant 1.0000000
miss Vous 0.0909091
Did Vous 0.0909091
You Vous 0.5454545
All Vous 0.0909091
Are Vous 0.0909091
I Vous 0.0909091
21st XXIe 0.5000000
century XXIe 0.5000000
memorization mémorisation 1.0000000
staggering nombre 1.0000000
Sven Sven 1.0000000
like , 0.0077519
he , 0.0155039
; , 0.0348837
conviction , 0.0038760
rich , 0.0038760
Rachel , 0.0038760
So , 0.0038760
math , 0.0038760
Sadly , 0.0077519
meet , 0.0077519
far-fetched , 0.0038760
inch , 0.0038760
. , 0.0503876
shopping , 0.0038760
spiders , 0.0038760
or , 0.0038760
hot , 0.0038760
sick , 0.0038760
NULL , 0.0503876
now , 0.0038760
, , 0.7674419
18th , 0.0038760
even , 0.0038760
study études 0.5000000
like études 0.5000000
; lamentable 0.5000000
lame lamentable 0.5000000
hour heure 1.0000000
produce produire 1.0000000
discovery découverte 1.0000000
comes agit 1.0000000
or ou 1.0000000
go vont 0.5000000
will vont 0.5000000
shoes chaussures 1.0000000
floor terre 0.5000000
potatoes terre 0.5000000
To Se 1.0000000
Disneyland Disneyland 1.0000000
What Quelles 1.0000000
mistake erreurs 0.2000000
mistakes erreurs 0.6000000
errors erreurs 0.2000000
began commencèrent 1.0000000
context contexte 1.0000000
names noms 0.3333333
your noms 0.3333333
are noms 0.3333333
felt sentait 1.0000000
was dissimulait 1.0000000
find trouver 1.0000000
sculpture sculpture 1.0000000
that comme 0.0500000
of comme 0.0500000
kind comme 0.0500000
as comme 0.4500000
like comme 0.4000000
educated éduqué 1.0000000
about propos 1.0000000
cool détendu 1.0000000
Bearing Supporter 1.0000000
huge énorme 1.0000000
help empêcher 1.0000000
Japanese japonais 1.0000000
undermined entamé 1.0000000
stay restée 1.0000000
called appelé 1.0000000
know connait 1.0000000
bed lits 1.0000000
cost coût 1.0000000
&apos;s anniversaire 0.4000000
birthday anniversaire 0.6000000
language ambigu 1.0000000
Don restez 0.5000000
stay restez 0.5000000
started commencé 0.1666667
begun commencé 0.3333333
even commencé 0.1666667
yet commencé 0.3333333
snore ronfle 0.3333333
&apos;s ronfle 0.3333333
snoring ronfle 0.3333333
chatting après-midi 0.3333333
whole après-midi 0.3333333
afternoon après-midi 0.3333333
owned possédait 0.5000000
&apos;s possédait 0.5000000
one on 0.0192308
tried on 0.0192308
expecting on 0.0192308
phrased on 0.0192308
say on 0.0384615
you on 0.5769231
we on 0.1730769
believable on 0.0192308
Finns on 0.0192308
NULL on 0.0576923
told on 0.0384615
First abord 1.0000000
difficult difficile 1.0000000
answer répondu 1.0000000
enough perspicace 1.0000000
are Tenez 0.5000000
Here Tenez 0.5000000
sown semé 1.0000000
doesn physique 0.3333333
&apos;t physique 0.3333333
physics physique 0.3333333
loss pas 0.0043860
step pas 0.0043860
face-to-face pas 0.0087719
arguing pas 0.0043860
late pas 0.0043860
as pas 0.0043860
matter pas 0.0043860
&apos;t pas 0.6359649
’ pas 0.0043860
not pas 0.2368421
appear pas 0.0043860
wanting pas 0.0043860
no pas 0.0307018
unconvinced pas 0.0043860
prodigal pas 0.0043860
cannot pas 0.0087719
NULL pas 0.0307018
sure sûr 0.5555556
you sûr 0.4444444
naturally devint 1.0000000
unless moins 0.1428571
at moins 0.2857143
least moins 0.5714286
is est-elle 1.0000000
personal intérêt 0.3333333
interest intérêt 0.3333333
purpose intérêt 0.3333333
involved impliquées 1.0000000
a partir 0.3333333
go partir 0.3333333
on partir 0.3333333
nor ni 0.5000000
neither ni 0.5000000
call appeler 0.3333333
calling appeler 0.3333333
him appeler 0.3333333
thought imaginé 0.5000000
have imaginé 0.5000000
together ensemble 1.0000000
light allumer 1.0000000
join rejoins 1.0000000
unless sauf 0.2000000
except sauf 0.4000000
trust sauf 0.2000000
is sauf 0.2000000
Doing Faire 1.0000000
dedicated consacrés 1.0000000
to conviennent 0.3333333
please conviennent 0.3333333
us conviennent 0.3333333
do quoi 0.0666667
NULL quoi 0.0666667
anything quoi 0.0666667
what quoi 0.4666667
whatever quoi 0.0666667
are quoi 0.2666667
go allons 0.2000000
&apos;re allons 0.2000000
going allons 0.4000000
will allons 0.2000000
calm calme 1.0000000
principal proviseur 1.0000000
will coûtera 0.5000000
cost coûtera 0.5000000
Mathematics Les 0.0789474
I Les 0.0263158
Food Les 0.0263158
Foreign Les 0.0263158
Bicycles Les 0.0263158
Mathematicians Les 0.0526316
People Les 0.0789474
Classes Les 0.0263158
Professors Les 0.0263158
Robots Les 0.0263158
Blind Les 0.0263158
Pop Les 0.0263158
Computers Les 0.0263158
Politicians Les 0.0263158
Prime Les 0.0263158
Humans Les 0.0263158
Prosecutors Les 0.0263158
Math Les 0.0263158
Freud Les 0.0263158
Teachers Les 0.0263158
Censorious Les 0.0263158
The Les 0.2631579
Con Les 0.0263158
Spenser Les 0.0263158
laundry lessive 1.0000000
at plafond 0.5000000
ceiling plafond 0.5000000
essay rédaction 1.0000000
feelings envers 0.5000000
for envers 0.5000000
only attendre 0.1666667
expect attendre 0.3333333
wait attendre 0.5000000
disturb perturber 1.0000000
blind aveugle 1.0000000
investors inexpérimentés 1.0000000
away fuir 0.5000000
running fuir 0.5000000
do prononces 0.5000000
pronounce prononces 0.5000000
feel sens 0.5000000
pointless sens 0.2500000
senseless sens 0.2500000
him toutes 0.2000000
scrutinizes toutes 0.2000000
all toutes 0.2000000
except toutes 0.2000000
every toutes 0.2000000
level niveau 1.0000000
better mieux 0.5000000
best mieux 0.2500000
than mieux 0.1250000
Better mieux 0.1250000
murderer déclaré 0.5000000
convicted déclaré 0.5000000
baby bébé 1.0000000
speechless bée 1.0000000
complicated compliqué 1.0000000
So Trop 0.5000000
Too Trop 0.5000000
should faudrait 0.3333333
be faudrait 0.6666667
designed conçues 1.0000000
opposed opposés 1.0000000
Call Appelez 1.0000000
depends dépend 0.4444444
all dépend 0.2222222
on dépend 0.3333333
all Ca 0.2500000
depends Ca 0.2500000
It Ca 0.2500000
This Ca 0.2500000
spiders araignées 0.3333333
&apos;re araignées 0.3333333
They araignées 0.3333333
writer prolifique 1.0000000
As mesure 1.0000000
regretting regretter 1.0000000
take avantage 0.5000000
advantage avantage 0.5000000
like impression 1.0000000
that aujourd&apos; 0.1428571
today aujourd&apos; 0.5714286
up aujourd&apos; 0.1428571
else aujourd&apos; 0.1428571
quality qualité 1.0000000
about racontes 0.7500000
talking racontes 0.2500000
adversity adversité 1.0000000
come viens-tu 0.1666667
aren viens-tu 0.1666667
going viens-tu 0.1666667
visit viens-tu 0.1666667
you viens-tu 0.3333333
comedy satirique 1.0000000
adulation adulation 1.0000000
question clé 0.5000000
key clé 0.5000000
over fil 1.0000000
&apos;ll le 0.0078740
dial le 0.0078740
breakfast le 0.0078740
destroy le 0.0078740
sentences le 0.0078740
cleaning le 0.0078740
nevertheless le 0.0078740
they le 0.0078740
voting le 0.0078740
lunch le 0.0078740
known le 0.0157480
decorum le 0.0078740
sycophants le 0.0078740
binary le 0.0157480
surely le 0.0078740
see le 0.0078740
everybody le 0.0078740
mess le 0.0078740
NULL le 0.0787402
Everyone le 0.0314961
scrutinizes le 0.0078740
high le 0.0078740
June le 0.0157480
misunderstood le 0.0078740
laundry le 0.0078740
&apos;m le 0.0078740
demonstrate le 0.0078740
the le 0.4488189
most le 0.0078740
allowed le 0.0078740
scared le 0.0157480
done le 0.0078740
Japanese le 0.0078740
it le 0.0551181
time le 0.0157480
master le 0.0078740
turn le 0.0078740
movement le 0.0078740
Chinese le 0.0078740
price le 0.0078740
understand le 0.0078740
kill le 0.0078740
into le 0.0236220
would le 0.0236220
consider Réfléchissons 0.3333333
Let Réfléchissons 0.3333333
&apos;s Réfléchissons 0.3333333
interesting intéressante 1.0000000
tissue mouchoir 1.0000000
Communism communisme 1.0000000
their soutirent 0.3333333
swindle soutirent 0.3333333
out soutirent 0.3333333
nerves nerfs 0.5000000
my nerfs 0.5000000
has ainsi 0.2500000
it ainsi 0.2500000
been ainsi 0.2500000
way ainsi 0.2500000
into transforment 0.3333333
it transforment 0.3333333
turn transforment 0.3333333
those ceux 1.0000000
you manges-tu 0.5000000
eat manges-tu 0.5000000
&apos;s dort 0.5000000
sleeping dort 0.5000000
same mêmes 1.0000000
study étude 1.0000000
experts musicaux 1.0000000
get venger 0.3333333
back venger 0.3333333
at venger 0.3333333
Yes Oui 1.0000000
Where Où 1.0000000
one peut-on 0.2000000
can peut-on 0.2000000
make peut-on 0.2000000
phone peut-on 0.2000000
a peut-on 0.2000000
are es 0.2222222
sure es 0.0370370
&apos;re es 0.6666667
never es 0.0370370
NULL es 0.0370370
NULL dans 0.0465116
into dans 0.0232558
on dans 0.0697674
ocean dans 0.0232558
in dans 0.6744186
check dans 0.0232558
over dans 0.0697674
intend dans 0.0232558
soon dans 0.0232558
drift dans 0.0232558
term pensez 1.0000000
like voudrais 0.5000000
would voudrais 0.5000000
winner gagnant 0.5000000
the gagnant 0.5000000
identity carte 0.3333333
card carte 0.3333333
credit carte 0.3333333
moment Depuis 0.3333333
the Depuis 0.3333333
From Depuis 0.3333333
new nouveau 1.0000000
drink boire 0.6666667
a boire 0.3333333
first premier 1.0000000
surely sûrement 1.0000000
crazy dingue 0.3333333
driving dingue 0.3333333
me dingue 0.3333333
stay resté 1.0000000
NULL Au 0.3333333
On Au 0.6666667
now maintenant 0.8000000
NULL maintenant 0.2000000
live vivent 1.0000000
NULL portait 0.3333333
wearing portait 0.3333333
was portait 0.3333333
minutes minutes 1.0000000
only seul 0.2500000
alone seul 0.5000000
defect seul 0.2500000
For Pour 0.2857143
In Pour 0.1428571
To Pour 0.5714286
easiest simples 1.0000000
Maybe Peut-être 0.5000000
it Peut-être 0.5000000
long longtemps 1.0000000
heard entendait 0.5000000
from entendait 0.5000000
do sens-tu 0.5000000
feel sens-tu 0.5000000
NULL classe 0.2500000
class classe 0.7500000
like aimé 0.2500000
it aimé 0.2500000
NULL aimé 0.2500000
biology aimé 0.2500000
austere austère 1.0000000
Could Pourriez-vous 1.0000000
Because Parce 1.0000000
&apos;m excuse 0.5000000
sorry excuse 0.5000000
won gagné 1.0000000
Take Prends 1.0000000
deaf sourd 1.0000000
30 30 1.0000000
NULL trop 0.0270270
redundant trop 0.0270270
too trop 0.7567568
bored trop 0.0270270
much trop 0.0540541
so trop 0.0810811
lot trop 0.0270270
character obligatoire 1.0000000
practice pratique 0.6666667
practical pratique 0.3333333
really as 0.0740741
have as 0.3703704
letters as 0.0370370
look as 0.0370370
made as 0.0370370
met as 0.0370370
anything as 0.0370370
&apos;ve as 0.0370370
did as 0.0740741
NULL as 0.0370370
opened as 0.0370370
found as 0.0370370
you as 0.0370370
done as 0.0370370
this as 0.0370370
do as 0.0370370
corruption corruption 1.0000000
condemned condamnèrent 1.0000000
ate prenais 1.0000000
going venir 0.5000000
to venir 0.5000000
; ; 1.0000000
never jamais 0.8846154
try jamais 0.0384615
ever jamais 0.0769231
shows montre 1.0000000
game jeu 0.2000000
new jeu 0.2000000
deck jeu 0.2000000
pun jeu 0.2000000
online jeu 0.2000000
expect voulons 1.0000000
Ray Ray 1.0000000
I. . 0.0025445
! . 0.0050891
Eichler . 0.0012723
. . 0.9910941
coward trouillard 1.0000000
Japan Japon 1.0000000
individual taciturne 1.0000000
long longues 1.0000000
your ton 0.6666667
stern ton 0.3333333
it lis-le 0.5000000
read lis-le 0.5000000
Someday jour 0.1333333
someday jour 0.2666667
nevertheless jour 0.0666667
out jour 0.1333333
day jour 0.4000000
don aie 1.0000000
sycophants courtisans 1.0000000
terrorists terroristes 1.0000000
refute réfuter 0.5000000
to réfuter 0.5000000
pretty pretty 1.0000000
formation formation 1.0000000
politician politicien 1.0000000
Then Alors 1.0000000
is voilà 1.0000000
NULL Il 0.0483871
may Il 0.0322581
He Il 0.2741935
Sometimes Il 0.0161290
There Il 0.2580645
I Il 0.0322581
Better Il 0.0161290
mention Il 0.0161290
It Il 0.2419355
To Il 0.0322581
This Il 0.0161290
pants Il 0.0161290
soon bientôt 1.0000000
Peter Peter 1.0000000
Brown Brown 1.0000000
you manquez 0.5000000
miss manquez 0.5000000
sad triste 1.0000000
will saura 0.5000000
know saura 0.5000000
poisoned empoisonnée 1.0000000
might sembler 1.0000000
better meilleure 0.3333333
best meilleure 0.3333333
highest meilleure 0.3333333
The Le 0.8823529
Wine Le 0.0294118
Creationism Le 0.0294118
Rye Le 0.0294118
Communism Le 0.0294118
up accorde 0.5000000
tuning accorde 0.5000000
a laisser 0.2000000
into laisser 0.2000000
him laisser 0.2000000
letting laisser 0.2000000
drive laisser 0.2000000
we ferons-nous 0.2500000
do ferons-nous 0.2500000
going ferons-nous 0.2500000
are ferons-nous 0.2500000
idea moindre 1.0000000
them Dis-leur 0.5000000
Tell Dis-leur 0.5000000
prudent prudent 1.0000000
United États-Unis 0.4000000
States États-Unis 0.6000000
roommate colocataire 1.0000000
various divers 1.0000000
cursory examen 1.0000000
own propres 1.0000000
Don Ne 0.7000000
Unsure Ne 0.1000000
Haven Ne 0.1000000
Not Ne 0.1000000
you en 0.0379747
doing en 0.0253165
NULL en 0.1139241
going en 0.0126582
saying en 0.0126582
smile en 0.0253165
especially en 0.0126582
in en 0.2405063
take en 0.0126582
leave en 0.0126582
furious en 0.0126582
by en 0.0253165
&apos;t en 0.0126582
at en 0.0379747
while en 0.0126582
as en 0.0253165
been en 0.0126582
late en 0.0126582
from en 0.0126582
face-to-face en 0.0253165
to en 0.0506329
country en 0.0126582
needed en 0.0126582
resorted en 0.0126582
into en 0.0253165
on en 0.0126582
oaken en 0.0126582
adopt en 0.0126582
care en 0.0253165
looking en 0.0126582
king en 0.0126582
holiday en 0.0126582
the en 0.0126582
elected en 0.0126582
talk en 0.0126582
won en 0.0126582
blame en 0.0126582
did en 0.0126582
game en 0.0126582
Viagra viagra 1.0000000
fifty cinquante 0.5000000
and cinquante 0.5000000
will volonté 1.0000000
parents parents 1.0000000
served servies 0.5000000
in servies 0.5000000
abstract concept 1.0000000
Smith Smith 1.0000000
knew sais 0.0833333
cannot sais 0.0833333
&apos;t sais 0.0833333
know sais 0.7500000
dictionary dictionnaire 1.0000000
wishes effacer 0.5000000
to effacer 0.5000000
drift vagabondent 1.0000000
autonomous autonomes 1.0000000
don reproduisent 0.5000000
breed reproduisent 0.5000000
taken prises 1.0000000
would achète 0.3333333
buys achète 0.3333333
buy achète 0.3333333
ascendancy L 0.3333333
The L 0.3333333
Winter L 0.3333333
told dirent 0.5000000
girls dirent 0.5000000
famous célèbre 1.0000000
music musique 1.0000000
sleep manque 1.0000000
stupid stupides 1.0000000
venerate vénèrent 1.0000000
lower m&apos; 0.0238095
intrigue m&apos; 0.0238095
&apos;ll m&apos; 0.0476190
almost m&apos; 0.0238095
made m&apos; 0.0476190
helping m&apos; 0.0238095
me m&apos; 0.4047619
letters m&apos; 0.0238095
took m&apos; 0.0238095
Jack m&apos; 0.0238095
abandon m&apos; 0.0238095
caught m&apos; 0.0238095
boat m&apos; 0.0476190
care m&apos; 0.0476190
NULL m&apos; 0.0238095
told m&apos; 0.0238095
listened m&apos; 0.0238095
having m&apos; 0.0238095
found m&apos; 0.0238095
opened m&apos; 0.0238095
sorry m&apos; 0.0238095
help m&apos; 0.0238095
know connaissez 1.0000000
those celles 1.0000000
fun marrant 0.5000000
be marrant 0.5000000
definitions sont 0.0285714
mine sont 0.0285714
Mathematics sont 0.0285714
resorted sont 0.0285714
NULL sont 0.0285714
Math sont 0.0285714
are sont 0.6285714
is sont 0.1142857
vacation sont 0.0285714
fell sont 0.0285714
spiders sont 0.0285714
said disaient 1.0000000
side duquel 0.5000000
whose duquel 0.5000000
migraines migraine 1.0000000
three trois 0.6666667
three-headed trois 0.3333333
from vient 0.5000000
comes vient 0.5000000
&apos;ve étais 0.0909091
must étais 0.0909091
spent étais 0.0909091
nuts étais 0.0909091
was étais 0.6363636
week semaine 1.0000000
indicates indique 1.0000000
type type 0.4000000
guy type 0.2000000
fellow type 0.4000000
acclaimed acclamé 1.0000000
pants était 0.0357143
gone était 0.0357143
weren était 0.0357143
was était 0.7500000
unconvinced était 0.0357143
NULL était 0.0357143
wasn était 0.0714286
change changent 1.0000000
jealous jaloux 1.0000000
One On 0.1764706
You On 0.0588235
They On 0.0588235
It On 0.2352941
Being On 0.0588235
past On 0.0588235
We On 0.2352941
bone On 0.0588235
NULL On 0.0588235
died mort 0.5000000
dealer mort 0.5000000
medical médicaux 1.0000000
eat légumes 0.2500000
vegetables légumes 0.7500000
delight délectent 0.5000000
in délectent 0.5000000
Thanks Grâce 1.0000000
depends complètement 0.5000000
completely complètement 0.5000000
ideals communs 1.0000000
I pourrais-je 0.5000000
could pourrais-je 0.5000000
first porter 1.0000000
video vidéo 0.5000000
game vidéo 0.5000000
a promettre 0.3333333
promise promettre 0.3333333
make promettre 0.3333333
told raconté 1.0000000
proverb proverbe 1.0000000
far emmènera 0.5000000
away emmènera 0.5000000
answer réponse 1.0000000
involve implique 1.0000000
cleaning ménage 1.0000000
give objets 0.3333333
objects objets 0.3333333
items objets 0.3333333
Silence Qui 0.1666667
Who Qui 0.8333333
found l&apos; 0.0100000
episode l&apos; 0.0100000
German l&apos; 0.0100000
aspirin l&apos; 0.0100000
year l&apos; 0.0100000
behavior l&apos; 0.0100000
calling l&apos; 0.0100000
Internet l&apos; 0.0100000
changed l&apos; 0.0100000
Gary l&apos; 0.0100000
ear l&apos; 0.0100000
education l&apos; 0.0100000
birthday l&apos; 0.0200000
money l&apos; 0.0500000
the l&apos; 0.3300000
adversity l&apos; 0.0100000
shoot l&apos; 0.0100000
did l&apos; 0.0100000
learning l&apos; 0.0100000
endorphins l&apos; 0.0100000
still l&apos; 0.0100000
met l&apos; 0.0100000
guessed l&apos; 0.0100000
stupid l&apos; 0.0100000
school l&apos; 0.0300000
NULL l&apos; 0.0900000
forever l&apos; 0.0100000
abortions l&apos; 0.0100000
formal l&apos; 0.0100000
feelings l&apos; 0.0100000
interest l&apos; 0.0100000
eternity l&apos; 0.0100000
church l&apos; 0.0100000
loved l&apos; 0.0100000
love l&apos; 0.0400000
sustainability l&apos; 0.0100000
&apos;s l&apos; 0.0100000
looks l&apos; 0.0100000
explain l&apos; 0.0200000
college l&apos; 0.0100000
uncomfortable l&apos; 0.0100000
either l&apos; 0.0100000
get l&apos; 0.0100000
information l&apos; 0.0100000
outer l&apos; 0.0100000
Back l&apos; 0.0100000
like l&apos; 0.0200000
tried l&apos; 0.0100000
reached atteint 0.5000000
in atteint 0.5000000
boys religieux 0.2500000
zealots religieux 0.2500000
religious religieux 0.5000000
share partageait 1.0000000
found trouvé 1.0000000
impatient impatiente 1.0000000
door porte 1.0000000
yard cour 1.0000000
What Quelle 1.0000000
way moyen 1.0000000
somber sombres 1.0000000
it c 0.2500000
this c 0.2500000
that c 0.2500000
far-fetched c 0.2500000
faithful fidèle 0.5000000
one fidèle 0.5000000
egg des 0.0101010
NULL des 0.0202020
fools des 0.0101010
kicking des 0.0101010
some des 0.0202020
definitions des 0.0101010
feelings des 0.0101010
using des 0.0101010
many des 0.0101010
faith des 0.0101010
risks des 0.0101010
universities des 0.0101010
be des 0.0101010
showing des 0.0101010
siblings des 0.0101010
years des 0.0202020
poets des 0.0101010
fights des 0.0101010
politicians des 0.0101010
friends des 0.0202020
involving des 0.0101010
brothers des 0.0101010
selection des 0.0101010
from des 0.0202020
stared des 0.0101010
palms des 0.0101010
pancakes des 0.0101010
various des 0.0101010
ideas des 0.0101010
receptors des 0.0101010
potatoes des 0.0101010
months des 0.0101010
messages des 0.0101010
sunburn des 0.0101010
credulity des 0.0101010
translating des 0.0101010
items des 0.0101010
make des 0.0101010
tired des 0.0101010
things des 0.0606061
religious des 0.0101010
glass des 0.0202020
buy des 0.0101010
changes des 0.0202020
government des 0.0101010
difficulties des 0.0101010
days des 0.0101010
stories des 0.0101010
Most des 0.0606061
part des 0.0101010
people des 0.0202020
flawed des 0.0101010
mistakes des 0.0101010
the des 0.0101010
math des 0.0303030
taxes des 0.0101010
stagnant des 0.0101010
affirmations des 0.0101010
candlelight des 0.0303030
ideals des 0.0202020
of des 0.1414141
discordant des 0.0101010
proximity des 0.0101010
ways moyens 1.0000000
up ouvert 0.3333333
my ouvert 0.3333333
opened ouvert 0.3333333
French français 0.6666667
enough français 0.3333333
brevity brièveté 1.0000000
So Moi 0.3333333
sow Moi 0.1666667
candlelight Moi 0.1666667
do Moi 0.3333333
pity dommage 0.3333333
too dommage 0.1666667
a dommage 0.3333333
bad dommage 0.1666667
over finies 0.5000000
vacation finies 0.5000000
&apos;ll reviens 0.0833333
be reviens 0.3333333
will reviens 0.2500000
back reviens 0.3333333
arguing disputer 1.0000000
great grande 0.6000000
greatest grande 0.4000000
consider considère 1.0000000
hallway couloir 1.0000000
obvious évident 1.0000000
plenty plein 0.3333333
full plein 0.3333333
ran plein 0.3333333
now là 0.1111111
here là 0.2222222
stand là 0.2222222
lies là 0.1111111
there là 0.3333333
teacher prof 0.5000000
physics prof 0.5000000
schooling scolarité 1.0000000
only seulement 0.5714286
but seulement 0.1428571
shows seulement 0.1428571
one-way seulement 0.1428571
can savent 0.2500000
express savent 0.2500000
do savent 0.2500000
know savent 0.2500000
substantiate étayer 1.0000000
were eux 0.1428571
fighting eux 0.1428571
them eux 0.4285714
house eux 0.1428571
books eux 0.1428571
plans plans 1.0000000
is hui 0.1111111
today hui 0.6666667
Today hui 0.2222222
rhetorical rhétoriques 0.5000000
techniques rhétoriques 0.5000000
forever éternité 0.5000000
eternity éternité 0.5000000
superfluous passages 0.5000000
much passages 0.5000000
email courriels 1.0000000
mosquitoes afin 1.0000000
already déjà 0.4000000
light déjà 0.2000000
ever déjà 0.4000000
aware conscient 1.0000000
across traverser 1.0000000
get arriver 0.1428571
though arriver 0.1428571
make arriver 0.1428571
happen arriver 0.1428571
it arriver 0.4285714
body corps 1.0000000
speak Parlez-vous 0.5000000
Do Parlez-vous 0.5000000
fall tomber 1.0000000
demonstrate vu 0.3333333
saw vu 0.6666667
essential essentielle 1.0000000
touched touché 1.0000000
worst pire 1.0000000
Prime nombres 0.5000000
numbers nombres 0.5000000
to aimerait 0.3333333
would aimerait 0.3333333
like aimerait 0.3333333
diminution diminution 1.0000000
&quot; &quot; 0.9658120
means &quot; 0.0170940
harvest &quot; 0.0085470
sow &quot; 0.0085470
remember retenir 1.0000000
home livres 1.0000000
pools mares 1.0000000
what vos 0.5000000
names vos 0.5000000
woke réveillé 0.3333333
, réveillé 0.3333333
up réveillé 0.3333333
pitted opposé 0.5000000
against opposé 0.5000000
said quoique 1.0000000
old vieille 1.0000000
spell épelles-tu 0.3333333
do épelles-tu 0.3333333
you épelles-tu 0.3333333
mad devenu 0.3333333
had devenu 0.3333333
gone devenu 0.3333333
challenges défie 1.0000000
palms paume 1.0000000
come rêves 0.2500000
true rêves 0.2500000
dreams rêves 0.5000000
see vois 0.7500000
it vois 0.2500000
multitude multitude 1.0000000
fail louper 0.5000000
to louper 0.5000000
&apos;s Essayons 0.3333333
try Essayons 0.3333333
Let Essayons 0.3333333
rain pleuvoir 1.0000000
die mourir 1.0000000
describe décrire 1.0000000
expected marient 1.0000000
late retard 1.0000000
traveller voyageur 1.0000000
lose perdrai 1.0000000
discrepancy différences 1.0000000
Creationism créationnisme 1.0000000
card identité 0.5000000
for identité 0.5000000
him Donnez-lui 0.5000000
Give Donnez-lui 0.5000000
sleep sommeil 0.6666667
loss sommeil 0.3333333
reduced réduite 1.0000000
understand comprenez 1.0000000
far-fetched cheveux 1.0000000
reprehensible acte 1.0000000
houses verre 1.0000000
Speak Parlez 1.0000000
did es-tu 0.3750000
you es-tu 0.5000000
are es-tu 0.1250000
NULL rébellion 1.0000000
land atterrir 1.0000000
Are Allez-vous 0.5000000
you Allez-vous 0.5000000
annoying agaçante 1.0000000
Round Aller-retour 0.5000000
trip Aller-retour 0.5000000
concentrate concentrer 1.0000000
see voyons 1.0000000
skeptical sceptiques 1.0000000
beginning commence 0.1666667
starts commence 0.1666667
begins commence 0.5000000
begin commence 0.1666667
gingivitis gingivite 1.0000000
pleasing agréable 1.0000000
I options 0.5000000
options options 0.5000000
home maison 1.0000000
came ne 0.0114286
would ne 0.0171429
perfect ne 0.0057143
cannot ne 0.0342857
breakthroughs ne 0.0057143
wasn ne 0.0057143
doubt ne 0.0057143
houses ne 0.0114286
technology ne 0.0057143
wouldn ne 0.0057143
useless ne 0.0114286
didn ne 0.0457143
only ne 0.0228571
&apos;m ne 0.0285714
matter ne 0.0057143
past ne 0.0057143
can ne 0.1028571
did ne 0.0114286
won ne 0.0228571
am ne 0.0228571
understands ne 0.0057143
don ne 0.3600000
NULL ne 0.0457143
snoring ne 0.0057143
gives ne 0.0057143
just ne 0.0057143
roommate ne 0.0057143
quandary ne 0.0057143
never ne 0.0285714
leave ne 0.0057143
one ne 0.0114286
know ne 0.0057143
not ne 0.0400000
doesn ne 0.0571429
best ne 0.0114286
aren ne 0.0114286
unnecessary détails 0.5000000
out détails 0.5000000
NULL manges 0.5000000
eat manges 0.5000000
Shocked Choqués 1.0000000
says Hiroshi 0.3333333
Hiroshi Hiroshi 0.6666667
aren tu 0.0151515
do tu 0.0151515
sick tu 0.0151515
freaking tu 0.0151515
you tu 0.9242424
living tu 0.0151515
foolish point 1.0000000
1950 années 0.3333333
years années 0.6666667
evil méchant 1.0000000
budget national 0.3333333
in national 0.3333333
poll national 0.3333333
so stagnantes 1.0000000
spend passer 0.5000000
happen passer 0.5000000
on draguer 0.5000000
hit draguer 0.5000000
whole vaut 0.5000000
Better vaut 0.5000000
present cadeau 1.0000000
Clinton Clinton 1.0000000
Though Bien 1.0000000
crafty ingénieux 1.0000000
then corrige-la 1.0000000
mow tondre 1.0000000
profusion profusion 0.5000000
at profusion 0.5000000
men hommes 1.0000000
explanation explication 1.0000000
telling dise 0.5000000
were dise 0.5000000
relax détendre 1.0000000
welcome De 0.1428571
What De 0.7142857
Nowadays De 0.1428571
dream rêver 0.3333333
make rêver 0.3333333
me rêver 0.3333333
Joan Jeanne 1.0000000
delight critiques 1.0000000
driving rend 0.3333333
realize rend 0.1666667
Man rend 0.1666667
&apos;s rend 0.3333333
at regarder 0.5000000
look regarder 0.5000000
emotions émotions 1.0000000
them renvoya 0.5000000
away renvoya 0.5000000
fools ’ 0.0156250
NULL ’ 0.3281250
just ’ 0.0156250
sow ’ 0.0156250
&apos;d ’ 0.0156250
orange ’ 0.0156250
length ’ 0.0156250
child ’ 0.0156250
spent ’ 0.0312500
brought ’ 0.0156250
ascendancy ’ 0.0156250
tyrant ’ 0.0468750
That ’ 0.0468750
gave ’ 0.0156250
possible ’ 0.0156250
Winter ’ 0.0156250
learned ’ 0.0156250
reputation ’ 0.0156250
night ’ 0.0156250
t ’ 0.0156250
breaks ’ 0.0156250
speaker ’ 0.0156250
had ’ 0.0156250
techniques ’ 0.0156250
far-fetched ’ 0.0156250
allowed ’ 0.0156250
what ’ 0.0312500
chatting ’ 0.0156250
money ’ 0.0156250
adding ’ 0.0156250
expecting ’ 0.0312500
candlelight ’ 0.0156250
rich ’ 0.0156250
tend ’ 0.0156250
reprimanded ’ 0.0156250
This ’ 0.0312500
Oh Oh 1.0000000
beat battra 1.0000000
fine bien 0.0454545
even bien 0.0909091
NULL bien 0.1363636
safe bien 0.0454545
wish bien 0.0454545
though bien 0.1363636
So bien 0.0454545
lonely bien 0.0454545
candlelight bien 0.0909091
well bien 0.1363636
right bien 0.0454545
Well bien 0.0454545
good bien 0.0909091
Ask Demandez 1.0000000
it comprendre 0.2000000
understand comprendre 0.6000000
NULL comprendre 0.2000000
person personne 0.4000000
flawed personne 0.1000000
anyone personne 0.1000000
whom personne 0.1000000
no personne 0.2000000
nobody personne 0.1000000
monastic ordres 1.0000000
suspect suspect 1.0000000
wishes souhaite 1.0000000
Sherlock obscures 0.5000000
Holmes obscures 0.5000000
throne trône 1.0000000
fun amusant 0.5000000
be amusant 0.5000000
weigh considérer 0.5000000
seeing considérer 0.5000000
became naturellement 1.0000000
make prépare 1.0000000
word parole 1.0000000
at yeux 0.2500000
stared yeux 0.2500000
eyes yeux 0.5000000
Damn Putain 1.0000000
&apos;re essayez 0.5000000
trying essayez 0.5000000
desired souhaitée 1.0000000
Sarah Sarah 1.0000000
written écrit 1.0000000
broken cassé 1.0000000
line réplique 1.0000000
your réaliser 0.5000000
make réaliser 0.5000000
Pope Pape 1.0000000
Muslims musulmans 1.0000000
loss perte 1.0000000
other autres 0.5384615
blame autres 0.0769231
else autres 0.0769231
others autres 0.3076923
silly question 0.1666667
key question 0.1666667
question question 0.6666667
such proposition 0.5000000
unfair proposition 0.5000000
Even Même 1.0000000
sea mer 1.0000000
gracefully avec 0.0277778
with avec 0.6111111
austere avec 0.0277778
which avec 0.0833333
to avec 0.1111111
engagement avec 0.0277778
served avec 0.0277778
marry avec 0.0833333
elected utilisé 0.5000000
use utilisé 0.5000000
decision décision 1.0000000
players hockey 1.0000000
knew savais 0.2000000
know savais 0.4000000
didn savais 0.4000000
space espace 1.0000000
Computers ordinateurs 1.0000000
you italien 0.3333333
Italian italien 0.6666667
nearly répondent 1.0000000
plays extrêmement 1.0000000
&apos;s marche 0.3333333
that marche 0.3333333
working marche 0.3333333
Only Aller 1.0000000
areas régions 1.0000000
abridge abréger 1.0000000
religious croyances 1.0000000
play ait 1.0000000
little peu 0.5000000
bit peu 0.5000000
proposed proposée 1.0000000
by écrire 0.2000000
typewriter écrire 0.4000000
hand écrire 0.2000000
write écrire 0.2000000
asked demanda 1.0000000
lucky chiffres 1.0000000
don fiche 0.2500000
&apos;t fiche 0.2500000
care fiche 0.5000000
rereading relisais 0.5000000
was relisais 0.5000000
salt sel 1.0000000
formulas formules 1.0000000
did faisaient 1.0000000
ideals idéaux 1.0000000
marshmallow guimauve 1.0000000
someone quelqu&apos; 0.4000000
Someone quelqu&apos; 0.2000000
NULL quelqu&apos; 0.2000000
somebody quelqu&apos; 0.2000000
general général 1.0000000
ascendancy ascendant 1.0000000
&apos;re mets 1.0000000
sneeze éternuer 1.0000000
skills au 0.0256410
at au 0.1025641
the au 0.2564103
bed au 0.0256410
zoo au 0.0256410
must au 0.0256410
dared au 0.0256410
Japan au 0.0256410
change au 0.0256410
linked au 0.0256410
consider au 0.0256410
messages au 0.0256410
to au 0.1025641
NULL au 0.0256410
instead au 0.0512821
21st au 0.0256410
seriously au 0.0256410
in au 0.1282051
headache au 0.0256410
nature attentionnée 1.0000000
up chercher 0.3333333
for chercher 0.3333333
! chercher 0.3333333
NULL vie 0.0238095
Life vie 0.2857143
lives vie 0.0952381
life vie 0.5714286
problems vie 0.0238095
logical logiques 1.0000000
joking plaisanterie 0.5000000
remarks plaisanterie 0.5000000
stand planté 1.0000000
essay essai 0.5000000
elected essai 0.5000000
no visions 0.5000000
real visions 0.5000000
went sommes 0.3333333
are sommes 0.3333333
We sommes 0.1666667
18th sommes 0.1666667
starting reprennent 0.5000000
again reprennent 0.5000000
transient éphémère 1.0000000
Why Pourquoi 1.0000000
likes aime 0.0666667
like aime 0.6666667
love aime 0.2666667
birth naissance 1.0000000
discordant lorsqu&apos; 0.3333333
when lorsqu&apos; 0.6666667
new nouvelle 1.0000000
heirless héritier 1.0000000
no différents 0.5000000
different différents 0.5000000
while y 0.0289855
There y 0.2028986
long y 0.0579710
NULL y 0.0289855
going y 0.0289855
&apos;s y 0.2028986
there y 0.2318841
gonna y 0.0144928
are y 0.1159420
about y 0.0289855
do y 0.0289855
mention y 0.0144928
including y 0.0144928
morning Bonjour 0.3333333
Good Bonjour 0.5000000
day Bonjour 0.1666667
him offrir 0.3333333
to offrir 0.3333333
give offrir 0.3333333
I Je 0.9871795
Jack Je 0.0064103
Did Je 0.0064103
no n&apos; 0.0531915
haven n&apos; 0.0212766
were n&apos; 0.0106383
never n&apos; 0.1489362
weren n&apos; 0.0106383
happen n&apos; 0.0106383
just n&apos; 0.0212766
question n&apos; 0.0106383
don n&apos; 0.1063830
NULL n&apos; 0.1063830
totally n&apos; 0.0106383
opinion n&apos; 0.0106383
Nothing n&apos; 0.0212766
mention n&apos; 0.0106383
couldn n&apos; 0.0106383
aren n&apos; 0.0212766
shouldn n&apos; 0.0106383
have n&apos; 0.0425532
not n&apos; 0.0531915
doesn n&apos; 0.0319149
Poor n&apos; 0.0106383
then n&apos; 0.0106383
trust n&apos; 0.0106383
is n&apos; 0.0212766
wasn n&apos; 0.0106383
music n&apos; 0.0106383
isn n&apos; 0.0319149
came n&apos; 0.0106383
brain n&apos; 0.0106383
This n&apos; 0.0212766
&apos;re n&apos; 0.0425532
anyone n&apos; 0.0106383
truth n&apos; 0.0106383
can n&apos; 0.0425532
keep n&apos; 0.0106383
didn n&apos; 0.0106383
lightning foudre 1.0000000
defendant accusé 1.0000000
engagement fiançailles 1.0000000
walked marché 1.0000000
got obtint 1.0000000
corresponds correspond 1.0000000
class cours 0.2857143
classes cours 0.1428571
starting cours 0.1428571
lecture cours 0.1428571
are cours 0.1428571
communication cours 0.1428571
glasses lunettes 1.0000000
famous célèbres 1.0000000
doctor sinistre 0.3333333
&apos;s sinistre 0.3333333
grim sinistre 0.3333333
teacher qu 0.0769231
expecting qu 0.0769231
what qu 0.1538462
tyrant qu 0.1538462
NULL qu 0.2307692
that qu 0.1538462
John qu 0.0769231
techniques qu 0.0769231
possibility possibilité 1.0000000
sow sème 1.0000000
make prennent 1.0000000
pointless a 0.0114943
audience a 0.0114943
archer a 0.0114943
told a 0.0114943
influenced a 0.0114943
are a 0.0919540
increased a 0.0229885
speaker a 0.0114943
stole a 0.0229885
disappeared a 0.0114943
bought a 0.0114943
is a 0.1034483
bite a 0.0229885
ran a 0.0114943
took a 0.0114943
almost a 0.0229885
flawed a 0.0114943
few a 0.0114943
has a 0.1149425
NULL a 0.0919540
off a 0.0114943
sent a 0.0114943
water a 0.0114943
doesn a 0.0459770
bone a 0.0114943
looks a 0.0114943
&apos;s a 0.1264368
tried a 0.0114943
there a 0.0459770
asked a 0.0344828
mention a 0.0114943
a a 0.0229885
change a 0.0114943
among experts 1.0000000
dies meurt 0.5000000
die meurt 0.5000000
mad furieux 1.0000000
though sérieusement 0.5000000
have sérieusement 0.5000000
black chapeau 1.0000000
remarks Holmes 0.5000000
Holmes Holmes 0.5000000
expression docteur 1.0000000
who détesté 0.5000000
hated détesté 0.5000000
The changer 0.3333333
NULL changer 0.3333333
change changer 0.3333333
aspirin aspirine 1.0000000
led menée 0.3333333
ascetic menée 0.3333333
life menée 0.3333333
chair chaise 1.0000000
eating mange 0.5000000
eat mange 0.5000000
plan destinées 1.0000000
depravity dépravation 0.5000000
of dépravation 0.5000000
into contre 0.3333333
crashed contre 0.3333333
against contre 0.3333333
nationwide vote 0.5000000
voting vote 0.5000000
he dit-il 0.5000000
said dit-il 0.5000000
do feras 1.0000000
floor sol 1.0000000
both filles 1.0000000
asked demandé 0.7500000
wondered demandé 0.2500000
; : 0.2000000
: : 0.8000000
Union Soviétique 1.0000000
My Mes 1.0000000
ready prête 1.0000000
strength force 1.0000000
guests convives 1.0000000
speak pouvais 0.2500000
could pouvais 0.7500000
over terminé 0.3333333
job terminé 0.3333333
&apos;s terminé 0.3333333
right bonnes 1.0000000
will croiront 0.5000000
believe croiront 0.5000000
dignity dignité 1.0000000
keeps retient 1.0000000
Germans Allemands 1.0000000
officer sous-officier 1.0000000
opinion opinion 1.0000000
Education éducation 0.5000000
education éducation 0.5000000
laptop portable 1.0000000
prove démontrer 0.3333333
to démontrer 0.3333333
demonstrate démontrer 0.3333333
skills talents 1.0000000
idea idée 0.9090909
which idée 0.0909091
Warcraft Warcraft 1.0000000
resort recours 0.5000000
resorted recours 0.5000000
When Quand 0.9333333
NULL Quand 0.0666667
leader symbolique 1.0000000
They Comme 1.0000000
video jeux 1.0000000
ironing repassage 0.5000000
at repassage 0.5000000
get servir 0.3333333
age servir 0.3333333
yourself servir 0.3333333
London Londres 1.0000000
day journée 1.0000000
types sortes 1.0000000
dial numéro 1.0000000
read lu 1.0000000
wondering demandais 0.5000000
was demandais 0.5000000
society société 1.0000000
want envie 0.8333333
NULL envie 0.1666667
ready prêt 0.5000000
willing prêt 0.5000000
could pourrait 0.8000000
might pourrait 0.2000000
understands comprend 1.0000000
new nouvel 1.0000000
going rester 0.2500000
stay rester 0.5000000
stand rester 0.2500000
&apos;re sortie 0.3333333
they sortie 0.3333333
released sortie 0.3333333
consent mot 0.1428571
word mot 0.4285714
password mot 0.2857143
fridge mot 0.1428571
The flics 0.5000000
cops flics 0.5000000
constraint retenue 1.0000000
pancakes crêpes 1.0000000
verbose bavard 1.0000000
Man hommage 0.5000000
commemorates hommage 0.5000000
myself moi-même 1.0000000
purpose précis 1.0000000
idea folle 1.0000000
enough rapide 1.0000000
inspiration inspiration 1.0000000
way façon 0.6000000
NULL façon 0.4000000
century siècle 1.0000000
subject explosif 1.0000000
about tiens 0.5000000
care tiens 0.5000000
writing superficiels 1.0000000
go lire 0.5000000
reading lire 0.5000000
ears oreilles 1.0000000
known connu 1.0000000
mere simple 0.1428571
simple simple 0.7142857
Only simple 0.1428571
cotton machine 0.2500000
complicated machine 0.2500000
typewriter machine 0.5000000
censured sanctionnés 1.0000000
filled poésie 1.0000000
signs signes 1.0000000
Arc Arc 1.0000000
statement précédente 1.0000000
works ouvrages 1.0000000
buy avaler 0.5000000
into avaler 0.5000000
beautiful belles 0.5000000
form belles 0.5000000
messages messages 1.0000000
apologized s&apos; 0.0277778
pools s&apos; 0.0277778
though s&apos; 0.0277778
if s&apos; 0.1111111
getting s&apos; 0.0277778
express s&apos; 0.0277778
crashed s&apos; 0.0277778
exclaimed s&apos; 0.0555556
, s&apos; 0.0833333
to s&apos; 0.0833333
please s&apos; 0.1388889
breed s&apos; 0.0277778
NULL s&apos; 0.0555556
noises s&apos; 0.0277778
speech s&apos; 0.0277778
happened s&apos; 0.0277778
calmed s&apos; 0.0555556
surprised s&apos; 0.0277778
common s&apos; 0.0277778
hundred s&apos; 0.0277778
teacher s&apos; 0.0277778
built s&apos; 0.0277778
at frappe 0.3333333
knocking frappe 0.3333333
is frappe 0.3333333
email emails 1.0000000
debate politique 0.5000000
politics politique 0.5000000
mine mes 0.0769231
loss mes 0.0769231
study mes 0.0769231
grades mes 0.0769231
for mes 0.0769231
my mes 0.6153846
friends disent 0.5000000
say disent 0.5000000
Christmas Noël 1.0000000
June 18 0.5000000
18th 18 0.5000000
trying essayaient 0.5000000
were essayaient 0.5000000
from loin 0.4285714
far loin 0.1428571
away loin 0.2857143
it loin 0.1428571
as choisir 0.5000000
quandary choisir 0.5000000
outside dehors 1.0000000
waste gâchis 1.0000000
die meurs 0.5000000
&apos;m meurs 0.5000000
Mike Mike 1.0000000
leave partent 1.0000000
contributors contributeurs 1.0000000
beautiful beau 0.5000000
but beau 0.2500000
best beau 0.2500000
mandatory caractère 1.0000000
doesn continue 0.5000000
keep continue 0.5000000
up demain 0.3333333
tomorrow demain 0.6666667
only veulent 0.3333333
to veulent 0.3333333
want veulent 0.3333333
secret passage 1.0000000
Go Va 1.0000000
scientific avancées 1.0000000
out tire 0.3333333
&apos;re tire 0.3333333
getting tire 0.3333333
again retéléphoner 1.0000000
oaken table 1.0000000
&apos;s sarcastiques 0.5000000
sarcastic sarcastiques 0.5000000
surreptitious manigances 1.0000000
condom préservatif 1.0000000
make rendent 1.0000000
live habite 1.0000000
won demanderai 0.5000000
ask demanderai 0.5000000
check addition 1.0000000
stones pierres 1.0000000
killed tua 1.0000000
18th juin 1.0000000
Hamlet Hamlet 1.0000000
Robots robots 1.0000000
speech discours 1.0000000
siblings sœurs 1.0000000
monarchs monarques 1.0000000
do exiges-tu 0.3333333
you exiges-tu 0.3333333
want exiges-tu 0.3333333
decisions décisions 1.0000000
detail détail 1.0000000
princess princesse 1.0000000
brewery brasserie 1.0000000
strengths forces 1.0000000
finally enfin 1.0000000
60 60 1.0000000
bottles bouteille 1.0000000
real réel 1.0000000
hockey joueurs 1.0000000
&apos;t rien 0.1764706
NULL rien 0.1176471
welcome rien 0.0588235
useless rien 0.1176471
nothing rien 0.3529412
anything rien 0.1764706
groom mariés 0.5000000
and mariés 0.5000000
arrive arrivons-nous 0.5000000
we arrivons-nous 0.5000000
thirsty soif 1.0000000
prom fin 0.3333333
end fin 0.3333333
astute fin 0.3333333
come venu 0.5000000
came venu 0.5000000
phone téléphone 0.6666667
telephone téléphone 0.3333333
window fenêtre 1.0000000
yourself toi-même 0.5000000
it toi-même 0.5000000
would ferais 1.0000000
thought pensions 1.0000000
wasted perdu 0.1666667
lost perdu 0.8333333
bought acheté 1.0000000
Tom Tom 1.0000000
appetite appétit 1.0000000
deer cerf 1.0000000
fans fidèles 1.0000000
food nourriture 0.5000000
drink nourriture 0.5000000
Theoretically En 0.2500000
In En 0.2500000
Despite En 0.2500000
When En 0.2500000
war guerre 0.7500000
Revolutionary guerre 0.2500000
When Lorsque 1.0000000
get auras 0.5000000
a auras 0.5000000
malnutrition malnutrition 1.0000000
No Non 1.0000000
heights vertige 0.2500000
am vertige 0.2500000
scared vertige 0.2500000
of vertige 0.2500000
John John 1.0000000
solution bonne 0.3333333
good bonne 0.3333333
right bonne 0.3333333
helps aide 1.0000000
phrased formuler 0.5000000
in formuler 0.5000000
Excuse Excusez-moi 1.0000000
friend amie 1.0000000
telling divulguer 0.5000000
everybody divulguer 0.5000000
breakfast petit-déjeuner 1.0000000
lose perdre 1.0000000
who bienveillant 1.0000000
long long 0.4000000
term long 0.4000000
about long 0.2000000
rules règles 0.5000000
for règles 0.5000000
students étudiants 1.0000000
rather plutôt 0.3333333
, plutôt 0.3333333
pretty plutôt 0.3333333
take pourquoi 0.2500000
why pourquoi 0.7500000
person normal 0.5000000
normal normal 0.5000000
learning verbes 0.5000000
verbs verbes 0.5000000
by réforme 0.5000000
reform réforme 0.5000000
abandon abandonner 0.5000000
to abandonner 0.5000000
did as-tu 0.4000000
you as-tu 0.6000000
card crédit 1.0000000
my ma 0.9583333
MY ma 0.0416667
about parlez-vous 0.3333333
talking parlez-vous 0.3333333
you parlez-vous 0.3333333
Sorry Désolée 1.0000000
their ont 0.1000000
boys ont 0.1000000
earned ont 0.0500000
an ont 0.0500000
have ont 0.2000000
men ont 0.0500000
authorities ont 0.0500000
million ont 0.1000000
wasted ont 0.0500000
behavior ont 0.0500000
were ont 0.1500000
fought ont 0.0500000
continuing continuer 0.1666667
strength continuer 0.1666667
keep continuer 0.3333333
on continuer 0.1666667
continue continuer 0.1666667
Poor pauvre 1.0000000
for substitut 0.5000000
substitute substitut 0.5000000
Mathematics mathématiques 1.0000000
when lorsqu 1.0000000
lovely pour 0.0128205
for pour 0.4743590
why pour 0.0128205
grades pour 0.0128205
wearing pour 0.0128205
else pour 0.0128205
to pour 0.3974359
defect pour 0.0128205
enough pour 0.0128205
best pour 0.0128205
elected pour 0.0128205
interest pour 0.0128205
impolite impoli 1.0000000
movies cinéma 1.0000000
adding ajouter 1.0000000
rarely rarement 1.0000000
an astrophysicien 0.5000000
astrophysicist astrophysicien 0.5000000
like Veux-tu 0.3333333
Would Veux-tu 0.3333333
you Veux-tu 0.3333333
behind derrière 1.0000000
rancor rancoeur 1.0000000
Japanese Japonais 1.0000000
why vas-tu 0.1000000
are vas-tu 0.2000000
will vas-tu 0.1000000
Did vas-tu 0.2000000
you vas-tu 0.4000000
data données 1.0000000
intentionally exprès 1.0000000
drawn attiré 1.0000000
lonely écurie 0.5000000
It écurie 0.5000000
Maury Maury 0.5000000
Povich Maury 0.5000000
do demandes-tu 0.3333333
ask demandes-tu 0.3333333
you demandes-tu 0.3333333
love amour 0.8571429
Love amour 0.1428571
ambiguous langage 1.0000000
Let Faites-moi 1.0000000
relegated relégua 1.0000000
archer archer 1.0000000
Though séjour 0.5000000
stay séjour 0.5000000
audience audience 1.0000000
table chêne 1.0000000
really saurais 1.0000000
notice aucun 0.5000000
pointless aucun 0.5000000
interjection interjection 1.0000000
eye oeil 0.5000000
ear oeil 0.5000000
path secret 0.5000000
on secret 0.2500000
secret secret 0.2500000
disease transmissible 1.0000000
at entrer 0.3333333
arrive entrer 0.3333333
Geneva entrer 0.3333333
married j&apos; 0.0227273
living j&apos; 0.0227273
I j&apos; 0.9318182
so j&apos; 0.0227273
happiness bonheur 0.6666667
awaiting bonheur 0.3333333
dream rêvent 1.0000000
learn âge 1.0000000
optimum optimale 0.5000000
length optimale 0.5000000
you franc 0.3333333
truth franc 0.3333333
the franc 0.3333333
1000 1000 1.0000000
Every Toute 1.0000000
absolute pure 1.0000000
tired flatteries 0.5000000
of flatteries 0.5000000
it traduisent 0.3333333
translate traduisent 0.3333333
into traduisent 0.3333333
papers journaux 1.0000000
leader guilde 0.5000000
relegated guilde 0.5000000
give abandonne 0.5000000
up abandonne 0.5000000
would prendrait 0.5000000
take prendrait 0.5000000
land va 0.0476190
how va 0.0476190
the va 0.0476190
matter va 0.0476190
NULL va 0.0476190
going va 0.1904762
&apos;s va 0.1428571
are va 0.0476190
will va 0.2380952
&apos;re va 0.0476190
is va 0.0952381
of alimentaires 1.0000000
easier facile 1.0000000
testimony du 0.0166667
NULL du 0.0166667
time du 0.0500000
himself du 0.0166667
noise du 0.0166667
card du 0.0166667
effects du 0.0166667
depravity du 0.0166667
analysis du 0.0166667
orange du 0.0166667
sunny du 0.0333333
importance du 0.0166667
schedule du 0.0333333
city du 0.0333333
five du 0.0333333
grim du 0.0166667
sunset du 0.0166667
at du 0.0333333
sleep du 0.0166667
the du 0.3333333
decorum du 0.0166667
of du 0.0500000
Back du 0.0166667
depends du 0.0666667
piano du 0.0333333
diets du 0.0166667
statue du 0.0166667
subjects du 0.0166667
doubt doutent 1.0000000
by par 0.3684211
to par 0.0526316
the par 0.0526316
dentist par 0.0526316
times par 0.0526316
sound par 0.0526316
fell par 0.0526316
a par 0.1052632
for par 0.1052632
100 par 0.0526316
drawn par 0.0526316
keep arrêtent 1.0000000
Let Soyons 1.0000000
democrat démocrate 1.0000000
severely réprouvait 1.0000000
in belle 0.1666667
city belle 0.1666667
beautiful belle 0.6666667
admit avouer 1.0000000
invited inviter 1.0000000
essential facturé 1.0000000
you manques 0.5000000
miss manques 0.5000000
need besoin 0.8461538
NULL besoin 0.0769231
want besoin 0.0769231
because car 0.5000000
essential car 0.5000000
harvest récolte 1.0000000
ocean océan 1.0000000
world monde 0.7727273
NULL monde 0.0454545
Everyone monde 0.1818182
brother frère 1.0000000
next gèle 0.5000000
freeze gèle 0.5000000
look irais 0.5000000
would irais 0.5000000
look regarde 0.2857143
is regarde 0.2857143
watching regarde 0.1428571
roommate regarde 0.1428571
, regarde 0.1428571
Blindness cécité 1.0000000
memories souvenirs 0.5000000
bad souvenirs 0.5000000
toll sidérant 1.0000000
probably probablement 1.0000000
sources sources 1.0000000
massage massage 1.0000000
will aura 0.3333333
via aura 0.6666667
girl fille 1.0000000
allowed avez 0.1250000
do avez 0.1250000
’ avez 0.1250000
NULL avez 0.1250000
have avez 0.3750000
t avez 0.1250000
face-to-face plausibles 1.0000000
written écrite 1.0000000
Tomorrow Demain 1.0000000
leaders enfants 0.1666667
children enfants 0.8333333
him flattant 0.2500000
sycophants flattant 0.2500000
, flattant 0.2500000
praising flattant 0.2500000
love vous 0.0270270
tell vous 0.0270270
trust vous 0.0270270
talk vous 0.0270270
NULL vous 0.0270270
meet vous 0.0270270
admit vous 0.0270270
you vous 0.6486486
please vous 0.1621622
trace trace 1.0000000
maintained soutenait 1.0000000
My Mon 1.0000000
&quot; » 1.0000000
themselves exprimer 0.2500000
speech exprimer 0.5000000
articulate exprimer 0.2500000
rest reste 0.4000000
for reste 0.2000000
stay reste 0.2000000
will reste 0.2000000
be ferait 0.2500000
like ferait 0.2500000
would ferait 0.2500000
&apos;d ferait 0.2500000
believable preuve 1.0000000
left sandwiches 0.3333333
there sandwiches 0.3333333
are sandwiches 0.3333333
asking demande 0.2222222
curious demande 0.1111111
NULL demande 0.1111111
for demande 0.1111111
&apos;s demande 0.2222222
wonder demande 0.2222222
taxes impôts 1.0000000
nice gentil 1.0000000
go aille 1.0000000
out levé 1.0000000
favorite saison 1.0000000
despise absolument 0.2500000
pointless absolument 0.2500000
totally absolument 0.2500000
just absolument 0.2500000
unexpected inattendu 1.0000000
crime crime 1.0000000
tried essayées 0.3333333
been essayées 0.3333333
have essayées 0.3333333
own propre 1.0000000
brothers frères 0.5000000
siblings frères 0.5000000
check vérifier 1.0000000
up grand 0.1666667
traveller grand 0.1666667
great grand 0.3333333
big grand 0.1666667
grow grand 0.1666667
letters envoyées 1.0000000
up Grouille 0.5000000
Hurry Grouille 0.5000000
surprised surprise 0.1666667
surprise surprise 0.8333333
in 5h 0.5000000
five 5h 0.5000000
Whenever Chaque 0.3333333
Every Chaque 0.6666667
built faite 0.5000000
made faite 0.5000000
any signe 0.3333333
sign signe 0.6666667
people finalement 0.2000000
last finalement 0.2000000
wouldn finalement 0.2000000
be finalement 0.2000000
explained finalement 0.2000000
backpack sac 0.5000000
at sac 0.5000000
had avais 0.2000000
swore avais 0.2000000
brought avais 0.2000000
gave avais 0.2000000
was avais 0.2000000
valiant vaillants 1.0000000
quandary savait 0.2000000
a savait 0.2000000
in savait 0.2000000
was savait 0.2000000
as savait 0.2000000
bad mal 0.1250000
a mal 0.3750000
headache mal 0.1250000
misunderstood mal 0.1250000
NULL mal 0.1250000
misinterpreted mal 0.1250000
at regardes 0.5000000
look regardes 0.5000000
you Voudrais-tu 0.3333333
Would Voudrais-tu 0.3333333
like Voudrais-tu 0.3333333
college université 0.3333333
university université 0.6666667
denouncing dénonçant 1.0000000
options ai-je 0.1666667
have ai-je 0.1666667
you ai-je 0.5000000
do ai-je 0.1666667
21 épisode 0.5000000
episode épisode 0.5000000
should devrais 1.0000000
good bon 0.8750000
NULL bon 0.1250000
Next Avant 1.0000000
NULL nuit 0.2500000
night nuit 0.7500000
blame accusation 1.0000000
studying révisions 1.0000000
err tromper 1.0000000
Merry Joyeux 1.0000000
useful serve 0.2000000
has serve 0.2000000
be serve 0.2000000
got serve 0.2000000
for serve 0.2000000
At À 0.5000000
Back À 0.5000000
Do Parles-tu 0.5000000
speak Parles-tu 0.5000000
having ayant 0.3333333
concise ayant 0.3333333
with ayant 0.3333333
deed répréhensible 1.0000000
disappoints déçoit 1.0000000
friends copains 1.0000000
hate déteste 0.7500000
utterly déteste 0.2500000
tired las 1.0000000
get utiliser 1.0000000
voice voix 1.0000000
write écrivent 1.0000000
just simplement 1.0000000
as vrai 0.1111111
true vrai 0.5555556
real vrai 0.1111111
well vrai 0.1111111
truth vrai 0.1111111
mind avis 0.5000000
your avis 0.5000000
tomorrow réveillait 0.5000000
woke réveillait 0.5000000
girls annoncèrent 1.0000000
price prix 1.0000000
NULL prend 0.3333333
requires prend 0.3333333
takes prend 0.3333333
take prend-il 1.0000000
nervous nerveux 1.0000000
This Cette 1.0000000
ever venaient 1.0000000
there moment 0.2000000
then moment 0.2000000
certain moment 0.2000000
point moment 0.2000000
moment moment 0.2000000
birthday Muiriel 0.4000000
Muiriel Muiriel 0.6000000
made mettaient 1.0000000
about parles-tu 0.3333333
talking parles-tu 0.3333333
you parles-tu 0.3333333
bullets balles 1.0000000
chemicals produits 1.0000000
it Arrête 0.1666667
Stop Arrête 0.6666667
asking Arrête 0.1666667
daily leur 0.0500000
their leur 0.4000000
Their leur 0.0500000
outrageous leur 0.0500000
them leur 0.3500000
released leur 0.0500000
proof leur 0.0500000
thinking réfléchir 0.3333333
think réfléchir 0.1666667
it réfléchir 0.1666667
any réfléchir 0.1666667
more réfléchir 0.1666667
painted décrivait 1.0000000
sex relations 1.0000000
person qui 0.0289855
that qui 0.1304348
made qui 0.0144928
matter qui 0.0144928
who qui 0.3768116
stone qui 0.0144928
awaiting qui 0.0144928
anyone qui 0.0289855
play qui 0.0144928
selected qui 0.0144928
keeps qui 0.0289855
explained qui 0.0144928
influenced qui 0.0144928
which qui 0.0434783
NULL qui 0.0869565
taxpayers qui 0.0144928
boat qui 0.0289855
— qui 0.0144928
happens qui 0.0579710
are qui 0.0144928
changes qui 0.0144928
Who qui 0.0144928
thoughts vues 1.0000000
Many Beaucoup 1.0000000
Man Man 1.0000000
know savez 1.0000000
were allais 0.5000000
show allais 0.5000000
street rue 1.0000000
If Si 1.0000000
weather fera 0.6666667
will fera 0.3333333
dentist dentiste 1.0000000
learning apprentissage 1.0000000
&apos;re eu 0.2500000
speaker eu 0.2500000
had eu 0.5000000
to rencontrer 0.3333333
meet rencontrer 0.3333333
You rencontrer 0.3333333
penguin pingouin 1.0000000
selected seront 1.0000000
stupidest stupide 0.2500000
thing stupide 0.2500000
stupid stupide 0.5000000
be possible 0.5000000
possible possible 0.5000000
scandals scandales 0.5000000
involving scandales 0.5000000
&apos;re voit 0.5000000
meeting voit 0.5000000
NULL donc 0.1428571
sea donc 0.1428571
therefore donc 0.1428571
what donc 0.1428571
so donc 0.4285714
wonder étonner 1.0000000
is NULL 0.0096154
this NULL 0.0096154
good NULL 0.0048077
it NULL 0.0336538
spending NULL 0.0048077
then NULL 0.0048077
are NULL 0.0096154
, NULL 0.0144231
point NULL 0.0096154
to NULL 0.2644231
There NULL 0.0048077
time NULL 0.0096154
lot NULL 0.0048077
machines NULL 0.0048077
of NULL 0.0048077
go NULL 0.0048077
ask NULL 0.0048077
than NULL 0.0048077
anyone NULL 0.0048077
You NULL 0.0096154
use NULL 0.0048077
read NULL 0.0048077
only NULL 0.0096154
what NULL 0.0048077
with NULL 0.0048077
the NULL 0.0144231
money NULL 0.0048077
who NULL 0.0048077
for NULL 0.0048077
will NULL 0.0096154
about NULL 0.0048077
you NULL 0.0673077
and NULL 0.0144231
don NULL 0.0048077
need NULL 0.0048077
much NULL 0.0048077
a NULL 0.0048077
That NULL 0.0048077
was NULL 0.0048077
The NULL 0.0048077
there NULL 0.0048077
over NULL 0.0048077
me NULL 0.0192308
wanted NULL 0.0048077
&apos;s NULL 0.0192308
been NULL 0.0048077
have NULL 0.0144231
things NULL 0.0048077
behavior NULL 0.0048077
here NULL 0.0048077
all NULL 0.0048077
when NULL 0.0048077
changed NULL 0.0048077
think NULL 0.0096154
care NULL 0.0048077
I NULL 0.0240385
on NULL 0.0096154
Muiriel NULL 0.0096154
&apos;re NULL 0.0096154
computer NULL 0.0048077
more NULL 0.0048077
. NULL 0.0192308
find NULL 0.0096154
up NULL 0.0096154
fall NULL 0.0048077
in NULL 0.0048077
single NULL 0.0048077
It NULL 0.0096154
never NULL 0.0048077
take NULL 0.0048077
way NULL 0.0048077
be NULL 0.0432692
one NULL 0.0048077
out NULL 0.0048077
them NULL 0.0048077
get NULL 0.0096154
hard NULL 0.0048077
anything NULL 0.0048077
tell NULL 0.0096154
&apos;ve NULL 0.0048077
Don NULL 0.0048077
&quot; NULL 0.0096154
know NULL 0.0048077
&apos;t NULL 0.0096154
at NULL 0.0048077
her NULL 0.0048077
sent NULL 0.0048077
nevertheless pourtant 0.2500000
yet pourtant 0.2500000
light pourtant 0.2500000
but pourtant 0.2500000
nuts cinglé 1.0000000
spend consacre 1.0000000
seat ceintures 1.0000000
importance importance 1.0000000
more plaindre 0.1666667
any plaindre 0.1666667
your plaindre 0.1666667
complaining plaindre 0.3333333
of plaindre 0.1666667
gay homo 1.0000000
NULL fait 0.1034483
has fait 0.0344828
hot fait 0.0344828
do fait 0.0344828
for fait 0.0344828
is fait 0.0689655
done fait 0.0344828
made fait 0.0344828
light fait 0.0344828
almost fait 0.0689655
&apos;s fait 0.1379310
logical fait 0.0344828
pranking fait 0.0344828
Did fait 0.0689655
a fait 0.0689655
did fait 0.0689655
pancakes fait 0.0344828
intentionally fait 0.0344828
three fait 0.0344828
NULL vais 0.1052632
going vais 0.1578947
go vais 0.0526316
out vais 0.0526316
gonna vais 0.2105263
&apos;m vais 0.4210526
curious curieux 1.0000000
ambivalence ambivalence 1.0000000
stupid air 0.2500000
innocent air 0.2500000
looks air 0.2500000
of air 0.2500000
eaten mangé 1.0000000
unbearable insupportable 1.0000000
instead place 1.0000000
If S&apos; 0.3333333
Where S&apos; 0.3333333
Please S&apos; 0.3333333
Farmers Farmers 1.0000000
&apos;s amena 0.3333333
lead amena 0.3333333
deeds amena 0.3333333
renounce sa 0.0833333
his sa 0.6666667
beliefs sa 0.0833333
loud sa 0.0833333
caring sa 0.0833333
whenever chaque 0.3333333
each chaque 0.3333333
every chaque 0.3333333
poets poètes 1.0000000
phrase phrase 1.0000000
Wine vin 1.0000000
be sois 0.5000000
worry sois 0.2500000
antisocial sois 0.2500000
Pull Remettre 0.5000000
into Remettre 0.5000000
told raconta 0.5000000
me raconta 0.5000000
Don demandez 0.5000000
ask demandez 0.5000000
instead lieu 1.0000000
sorry désolée 1.0000000
repudiate renieraient 0.5000000
would renieraient 0.5000000
bottles bouteilles 1.0000000
from d&apos; 0.0384615
difficult d&apos; 0.0384615
close d&apos; 0.0256410
have d&apos; 0.0128205
usage d&apos; 0.0128205
planning d&apos; 0.0128205
intend d&apos; 0.0128205
practical d&apos; 0.0128205
juice d&apos; 0.0128205
according d&apos; 0.0128205
card d&apos; 0.0128205
discovery d&apos; 0.0128205
near d&apos; 0.0128205
educated d&apos; 0.0128205
phrased d&apos; 0.0128205
NULL d&apos; 0.0256410
making d&apos; 0.0384615
your d&apos; 0.0128205
equality d&apos; 0.0128205
ideals d&apos; 0.0128205
of d&apos; 0.2435897
fasten d&apos; 0.0128205
where d&apos; 0.0128205
money d&apos; 0.0256410
glad d&apos; 0.0128205
mistakes d&apos; 0.0128205
door d&apos; 0.0128205
responsible d&apos; 0.0128205
children d&apos; 0.0256410
Revolutionary d&apos; 0.0128205
balance d&apos; 0.0128205
else d&apos; 0.0256410
to d&apos; 0.2179487
impossible impossible 1.0000000
learned apprises 1.0000000
in esthétique 0.5000000
aesthetics esthétique 0.5000000
pie banane 1.0000000
forever éternellement 1.0000000
useful seules 0.3333333
alone seules 0.3333333
only seules 0.3333333
generation génération 1.0000000
shoot descendre 0.5000000
him descendre 0.5000000
juice orange 1.0000000
in dilemme 1.0000000
decided décidé 0.5000000
they décidé 0.5000000
conflagration incendie 1.0000000
with terrorisme 0.5000000
terrorism terrorisme 0.5000000
recent récents 1.0000000
Vince Vince 1.0000000
boys chefs 0.5000000
altar chefs 0.5000000
consensus consensus 1.0000000
laundry tant 0.3333333
while tant 0.3333333
as tant 0.3333333
game ligne 0.5000000
challenges ligne 0.5000000
article journal 1.0000000
small petit 0.3333333
little petit 0.5000000
boyfriend petit 0.1666667
year année 0.5000000
night année 0.5000000
a profond 0.5000000
profound profond 0.5000000
mystery mystère 1.0000000
Iraq Irak 1.0000000
After Après 1.0000000
were citait 0.5000000
Finns citait 0.5000000
smile sourire 1.0000000
win conquérir 1.0000000
totally totalement 1.0000000
bear supporte 0.3333333
stand supporte 0.3333333
abide supporte 0.3333333
seems semble 0.5000000
looks semble 0.5000000
met rencontrés 1.0000000
prodigal dépense 1.0000000
about rêvé 0.5000000
dreamt rêvé 0.5000000
&apos;s conciliants 0.5000000
conciliatory conciliants 0.5000000
A Pierre 0.3333333
rolling Pierre 0.3333333
stone Pierre 0.3333333
convicted vendeur 1.0000000
Where Là 1.0000000
says dit 0.2857143
Hiroshi dit 0.0357143
gives dit 0.0357143
told dit 0.1071429
say dit 0.1785714
tells dit 0.0357143
said dit 0.1785714
anything dit 0.0357143
about dit 0.0357143
is dit 0.0357143
spoken dit 0.0357143
be reviendras-tu 0.3333333
will reviendras-tu 0.3333333
back reviendras-tu 0.3333333
Allen Allen 1.0000000
heart cœur 1.0000000
million million 1.0000000
back rends-moi 0.3333333
me rends-moi 0.3333333
Give rends-moi 0.3333333
are douée 0.5000000
really douée 0.5000000
tried essaya 1.0000000
news article 0.5000000
above article 0.5000000
Hi Salut 1.0000000
source source 1.0000000
universe univers 1.0000000
especially particulier 1.0000000
it plaît 0.0909091
like plaît 0.0909091
NULL plaît 0.0909091
please plaît 0.7272727
point but 0.2500000
a but 0.5000000
purpose but 0.2500000
liked préféré 0.5000000
mysterious préféré 0.5000000
mistake faute 0.5000000
fault faute 0.5000000
cited Finnois 1.0000000
bending plier 1.0000000
chemicals chimiques 0.5000000
such chimiques 0.5000000
doing faire 0.0140845
making faire 0.0563380
to faire 0.2253521
NULL faire 0.0845070
cook faire 0.0140845
trust faire 0.0281690
do faire 0.3661972
make faire 0.0281690
able faire 0.0140845
shopping faire 0.0140845
it faire 0.0563380
done faire 0.0140845
order faire 0.0140845
math faire 0.0281690
study faire 0.0140845
prank faire 0.0140845
scare faire 0.0140845
helping aider 1.0000000
ringing sonne 0.5000000
is sonne 0.5000000
selection machines 0.5000000
the machines 0.5000000
cops arrivent 0.3333333
are arrivent 0.3333333
coming arrivent 0.3333333
Call Appelle 1.0000000
Watson Watson 1.0000000
languages étrangères 1.0000000
you avez-vous 0.4444444
did avez-vous 0.3333333
close avez-vous 0.1111111
have avez-vous 0.1111111
often souvent 1.0000000
suck crains 0.5000000
dude crains 0.5000000
