lettres letters 0.2000000
jus orange 0.5000000
virtuose skills 0.2500000
virtuose virtuoso 0.5000000
là-bas there 0.0204082
là-bas not 0.0140845
inévitable inevitable 1.0000000
Théoriquement Theoretically 0.3333333
avant for 0.0156250
avant before 0.8333333
avant until 0.5000000
succints succinct 1.0000000
apparaître except 0.1428571
écriture formal 0.5000000
vivre place 0.3333333
vivre be 0.0125000
vivre it 0.0096154
vivre kind 0.3333333
vivre that 0.0119048
vivre live 0.7692308
irrésistible irresistible 1.0000000
soirée dress 0.3333333
bouche mouth 1.0000000
bouche left 0.1111111
devons must 0.2857143
quittant left 0.1111111
quittant I 0.0027100
émission Maury 0.3333333
aux ask 0.0909091
aux cards 0.2500000
aux passengers 0.5000000
aux Sherlock 0.3333333
aux poll 0.5000000
aux to 0.0061162
aux commemorates 0.5000000
aux the 0.0105263
aux items 0.3333333
garer park 1.0000000
risques risks 0.5000000
mathématiciens Mathematicians 0.5000000
mathématiciens mathematicians 0.5000000
aise feel 0.0909091
aise uncomfortable 0.5000000
Europe Europe 0.5000000
Ceux Those 1.0000000
genoux my 0.0151515
genoux knees 1.0000000
celui one 0.0869565
celui the 0.0070175
vivant at 0.0217391
vivant alive 1.0000000
vivant lifetime 1.0000000
priorités priorities 1.0000000
expliquer it 0.0192308
expliquer everything 0.0769231
expliquer to 0.0152905
expliquer explain 0.5454545
oui Yes 0.5000000
pleurer while 0.0909091
pleurer cry 0.2500000
vacances breaks 0.2500000
vacances vacation 0.3333333
vacances holiday 0.5000000
écrivain prolific 1.0000000
Personne It 0.0119048
Personne Nobody 1.0000000
Personne No 0.1666667
êtes are 0.0116279
êtes famous 0.3333333
êtes &apos;re 0.0500000
êtes aren 0.1428571
premiers numbers 0.3333333
relation relationship 1.0000000
croient will 0.0227273
croient believe 0.1666667
montrer showing 0.5000000
produit makes 0.5000000
quelque something 0.5000000
quelque somewhere 0.5000000
tout completely 0.5000000
tout whole 0.4000000
tout sleep 0.0769231
tout everything 0.7692308
tout whatever 0.2500000
tout me 0.0125000
tout NULL 0.0049140
tout soon 0.0714286
tout too 0.0333333
tout all 0.2272727
vite soon 0.0714286
vite fast 0.5000000
Tout All 0.3333333
Tout Any 1.0000000
Tout Everyone 0.3333333
Tout Anything 0.5000000
Tout It 0.0119048
innocence Innocence 0.5000000
retour back 0.0666667
retour be 0.0125000
retour soon 0.1428571
pilote pilot 1.0000000
James James 1.0000000
causant causing 1.0000000
Mme Ms. 0.5000000
ça phrased 0.1666667
ça takes 0.5000000
ça how 0.1000000
ça that 0.0595238
ça NULL 0.0073710
ça life 0.0303030
ça this 0.1500000
ça why 0.1666667
ça it 0.1538462
ça mean 0.0909091
ça kind 0.3333333
ça do 0.0149254
sûre you 0.0066890
sûre sure 0.1666667
presque almost 0.3750000
presque all 0.0454545
presque scared 0.1250000
presque nearly 0.5000000
Une mathematical 0.3333333
Une Once 0.5000000
Une Life 0.0370370
Une Evening 1.0000000
Une A 0.0909091
Une An 0.3333333
famille family 1.0000000
famille royal 0.5000000
manqué miss 0.3000000
manqué me 0.0375000
tape getting 0.2500000
tape &apos;s 0.0075758
abusait was 0.0181818
abusait abusing 1.0000000
pense think 0.2812500
bicyclettes Bicycles 0.5000000
capacités ability 0.5000000
cru thought 0.1428571
outil tools 0.5000000
anonymes sources 0.3333333
police police 1.0000000
Vu Seeing 1.0000000
professeurs must 0.1428571
professeurs Professors 0.5000000
Rien Nothing 0.5000000
où NULL 0.0024570
où shape 0.2500000
où where 0.7500000
où Where 0.1111111
où eggs 0.5000000
l afternoon 0.5000000
l the 0.0070175
l do 0.0298507
l which 0.0588235
arbitraire arbitrary 0.5000000
arbitraire selection 0.2500000
analysé analyzed 1.0000000
tes your 0.1153846
nulle none 1.0000000
récente picture 1.0000000
semaines weeks 1.0000000
semaines ago 1.0000000
manquée miss 0.1000000
manquée me 0.0125000
prochaine week 0.2000000
responsable responsible 0.5000000
responsable for 0.0156250
totale mess 0.3333333
jours-ci days 0.2500000
mariage wedding 1.0000000
m&apos;ennuie bored 0.5000000
m&apos;ennuie so 0.0344828
m&apos;ennuie &apos;m 0.0185185
partout over 0.1333333
partout all 0.0909091
partout politicians 0.3333333
Passez-moi me 0.0125000
Passez-moi Pass 1.0000000
barbe-à-papa machine 0.5000000
réticence disinclinations 1.0000000
n haven 0.3333333
n are 0.0116279
n child 0.3333333
n rich 0.2000000
n was 0.0181818
n gave 0.1666667
n do 0.0149254
n did 0.0434783
n ’ 0.3333333
n NULL 0.0024570
n don 0.0125000
Puis-je I 0.0054201
Puis-je May 1.0000000
tiré sound 0.5000000
être tell 0.0625000
être be 0.3750000
être reprimanded 0.3333333
être being 0.3636364
être objective 0.3333333
être true 0.1250000
être defect 0.2000000
être NULL 0.0024570
Trang me 0.0125000
Trang , 0.0044843
Trang NULL 0.0024570
Trang Trang 0.7500000
cherchait was 0.0181818
cherchait else 0.1250000
cherchait looking 0.2500000
scientifiques breakthroughs 0.5000000
ville in 0.0114943
ville most 0.1000000
ville city 0.2500000
Avez-vous you 0.0066890
Avez-vous have 0.0100000
Avez-vous Do 0.0833333
Fais Do 0.0833333
Fais whatever 0.2500000
royale poisoned 0.5000000
train train 0.4285714
train looking 0.2500000
train doing 0.4285714
train stops 0.5000000
train saying 0.2307692
pensent think 0.1250000
apporté brought 0.3333333
lecteur reader 1.0000000
perpétuité life 0.0303030
perpétuité sentence 0.5000000
perpétuité a 0.0053191
superficielle analysis 0.3333333
superficielle of 0.0076923
Tentons Let 0.1250000
Tentons try 0.2500000
Tentons &apos;s 0.0075758
contribuables taxpayers 0.5000000
nommant saying 0.0769231
équivaut wanting 0.3333333
équivaut the 0.0035088
équivaut is 0.0056818
aiment love 0.0476190
Pressez-vous Hurry 0.2000000
Pressez-vous up 0.0400000
certaines some 0.1250000
certaines though 0.1250000
entretenir keep 0.2857143
entretenir up 0.0800000
geste deed 0.5000000
abaisserai lower 0.5000000
abaisserai myself 0.2500000
alunir the 0.0035088
alunir on 0.0243902
alunir moon 0.5000000
avare miser 1.0000000
dure harder 0.1250000
dure hard 0.6666667
corrigés fixed 1.0000000
encore begun 0.5000000
encore rectifying 0.5000000
encore it 0.0096154
encore still 0.6153846
encore harder 0.2500000
encore sandwiches 0.6666667
télé TV 0.6000000
télé a 0.0053191
fantaisie fantasy 1.0000000
sujets from 0.0312500
sujets rebellion 1.0000000
sujets subjects 0.6666667
aveugles Blind 0.5000000
aveugles people 0.0243902
appellerai them 0.0476190
appellerai call 0.2500000
J&apos; I 0.1355014
J&apos; Now 0.5000000
Confus Baffled 0.5000000
inutiles details 1.0000000
Almanac Almanac 1.0000000
déjeuner break 0.5000000
déjeuner lunch 0.2500000
compris understood 1.0000000
compris misunderstood 0.3333333
compris anonymous 1.0000000
reclus recluse 1.0000000
essayer trying 0.1000000
abstrait concept 1.0000000
histoires stories 0.5000000
jours Nowadays 0.2500000
jours days 0.5000000
jours day 0.0833333
occupé making 0.1333333
occupé busy 0.5000000
donne am 0.0400000
donne give 0.2222222
donne &apos;s 0.0075758
donne giving 1.0000000
donne me 0.0125000
donne kicking 0.2500000
églises Church 1.0000000
suiciderais kill 0.2500000
suiciderais myself 0.2500000
T&apos; Did 0.1538462
T&apos; Hello 0.5000000
T&apos; You 0.1355932
disparu disappeared 0.5000000
disparu gone 0.3333333
excusé apologized 0.3333333
eut was 0.0181818
grandes great 0.1250000
forte belied 0.5000000
faits meant 0.5000000
semblerait seems 0.1666667
voyageant than 0.0625000
voyageant from 0.0312500
voyageant traveling 1.0000000
nombreux many 0.0476190
Avec With 0.6666667
Avec You 0.0169492
viens said 0.0769231
viens just 0.0400000
viens come 0.1428571
viens Just 0.5000000
injuste proposal 1.0000000
fut murderer 0.3333333
fut was 0.0727273
fut once 0.3333333
fut Europe 0.5000000
Malheureusement Sadly 0.5000000
domaine field 1.0000000
urbain sustainability 0.2000000
deviné that 0.0119048
deviné guessed 0.5000000
feu forest 0.5000000
feu fire 0.5000000
mémoire memory 0.5000000
tâche task 1.0000000
posséder as 0.0416667
posséder having 0.2500000
posséder same 0.0833333
Est-ce Can 0.5000000
Est-ce Is 0.5000000
Est-ce Could 0.5000000
Est-ce Do 0.3333333
Est-ce Are 0.1739130
espérez Don 0.0666667
espérez expect 0.1250000
pris air 1.0000000
pris acted 0.5000000
pris made 0.0769231
pris put 0.3333333
pris took 0.3333333
Affronte Face 1.0000000
cerveau brain 0.7500000
indépendance War 0.5000000
pièce most 0.1000000
pièce room 0.5000000
démocratie Democracy 0.5000000
Ils People 0.1428571
Ils They 0.5000000
Lewinsky Lewinsky 1.0000000
séjourné stay 0.1538462
lentement slowly 1.0000000
changé changed 0.2000000
changé &apos;ve 0.2500000
artistes artists 0.2500000
artistes Pop 0.5000000
leurs bed 0.1428571
leurs NULL 0.0049140
leurs their 0.2857143
Minute Minute 1.0000000
souffrance suffering 0.5000000
de suffering 0.3333333
de asking 0.2500000
de get 0.1176471
de diminution 0.6666667
de kidding 0.5000000
de hostel 0.5000000
de Many 0.5000000
de joking 0.5000000
de many 0.5238095
de news 0.3333333
de table 0.3333333
de forest 0.5000000
de in 0.0689655
de altruistic 0.5000000
de actors 0.5000000
de surprised 0.2000000
de pun 0.3333333
de allow 0.3333333
de hoards 0.3333333
de new 0.1818182
de seeing 0.5000000
de leader 0.2500000
de trace 0.5000000
de somber 0.5000000
de lesser 0.5000000
de math 0.1666667
de poetry 0.5000000
de Maury 0.3333333
de your 0.0384615
de soon 0.1428571
de arrive 0.2500000
de password 0.3333333
de account 0.3333333
de any 0.1428571
de physics 0.3333333
de eaten 0.3333333
de starving 0.5000000
de stones 0.5000000
de vegetables 0.5000000
de doubt 0.2500000
de freedom 0.5000000
de houses 0.3333333
de thrive 0.3333333
de me 0.0125000
de &apos;s 0.0227273
de back 0.2000000
de laughing 0.5000000
de myself 0.2500000
de around 0.2857143
de from 0.2500000
de poor 0.5000000
de solution 0.2500000
de trying 0.4000000
de food 0.3333333
de NULL 0.1646192
de remarks 0.2500000
de criticizing 0.5000000
de &apos; 0.3333333
de much 0.2272727
de redundant 0.3333333
de for 0.0312500
de first 0.3333333
de about 0.0540541
de sustainability 0.2000000
de selling 0.3333333
de requires 0.3333333
de people 0.0487805
de wife 0.5000000
de of 0.5000000
de than 0.0625000
de reading 0.5000000
de dress 0.3333333
de to 0.1529052
de potatoes 0.2500000
de long 0.3333333
de human 0.3333333
de nothing 0.1428571
de belts 0.5000000
de difference 0.5000000
de guests 0.5000000
de red 0.5000000
de filled 0.3333333
de senseless 0.3333333
de drastically 0.2500000
prétendant which 0.0588235
prétendant suitor 0.5000000
courant have 0.0100000
courant must 0.1428571
courant known 0.1250000
fou mad 0.3333333
fou beside 1.0000000
fou crazy 0.6000000
ordinateur headache 0.1250000
ordinateur computer 0.8000000
ordinateur laptop 0.5000000
côtés ; 0.0384615
côtés side 0.3333333
douleur pain 1.0000000
équilibrer balance 0.5000000
critère criterion 1.0000000
faut get 0.0588235
faut to 0.0030581
faut My 0.0500000
faut requires 0.3333333
faut have 0.0200000
mis except 0.1428571
Déniant Denying 1.0000000
petite short 1.0000000
mousse moss 1.0000000
effort effort 1.0000000
étudiant student 1.0000000
faudra resort 0.3333333
Elle She 1.0000000
isoler himself 0.5000000
isoler from 0.0312500
isoler isolate 1.0000000
regrettent regret 1.0000000
maman mom 1.0000000
maman doesn 0.0454545
inutile unnecessary 0.5000000
vase for 0.0156250
vase vessel 1.0000000
sexuelles , 0.0044843
ongles nails 0.5000000
Ferme Close 1.0000000
irréguliers irregular 0.5000000
irréguliers verbs 0.5000000
a. . 0.0012285
a. is 0.0056818
a. has 0.0714286
explicitement explicitly 1.0000000
forêt fire 0.5000000
froid cold 1.0000000
pleut is 0.0056818
pleut raining 1.0000000
occasion get 0.0588235
intriguent intrigue 0.3333333
crois think 0.0625000
crois believe 0.1666667
finir finish 1.0000000
finir end 0.3333333
revenir be 0.0125000
revenir retract 0.5000000
revenir to 0.0030581
revenir back 0.0666667
budget national 1.0000000
Jéhovah witnesses 0.5000000
endroit lovely 0.3333333
manquait she 0.0666667
manquait lacked 1.0000000
humains were 0.0588235
humains Humans 0.5000000
humains humans 0.5000000
allez-vous are 0.0116279
allez-vous Did 0.0769231
allez-vous you 0.0033445
photo it 0.0096154
photo photo 1.0000000
photo recent 0.6666667
Regarde-moi Look 0.5000000
Regarde-moi me 0.0125000
Regarde-moi at 0.0217391
courriel which 0.0588235
courriel email 0.1250000
télégramme telegram 1.0000000
bizarre guy 0.5000000
bizarre weird 0.5000000
crâne headache 0.1250000
sexuellement transmitted 1.0000000
coercition coercion 0.5000000
hiver is 0.0056818
hiver Winter 0.3333333
2006 2006 1.0000000
jeunes bride 1.0000000
jeunes young 0.3333333
jeunes people 0.0243902
tendu ; 0.0384615
tendu lame 0.5000000
lent slowest 0.5000000
lent one 0.0434783
influencé influenced 0.5000000
roi heirless 0.2500000
roi a 0.0053191
roi king 0.7500000
manière acted 0.5000000
manière way 0.0833333
manière drastically 0.2500000
dernière week 0.2000000
dernière last 0.2857143
dernière year 0.3333333
marcher work 0.5000000
peut-être no 0.0454545
peut-être may 0.0769231
politiciens Politicians 0.5000000
politiciens politicians 0.3333333
nouvelles ones 1.0000000
nouvelles news 0.3333333
nouvelles new 0.1818182
songe Don 0.0666667
songe think 0.0312500
songe you 0.0033445
songe of 0.0076923
Souris Smile 1.0000000
oublierez about 0.0270270
oublierez forget 0.5000000
grand-chose much 0.0454545
grand-chose mean 0.0909091
web &apos;s 0.0151515
web layout 0.6666667
levais at 0.0217391
levais 6 0.5000000
levais up 0.0400000
êtes-vous you 0.0133779
êtes-vous did 0.1739130
vieux late 0.3636364
vieux dude 0.3333333
vieux old 0.3333333
peinture painting 1.0000000
compliquée machine 0.5000000
compliquée ; 0.0384615
compliquée complicated 0.3333333
libre citizen 1.0000000
témoins witnesses 0.5000000
chose something 0.5000000
chose stupidest 0.2500000
chose thing 0.4000000
chose same 0.1666667
corroborer corroborate 1.0000000
corroborer Gary 0.5000000
magistral may 0.0769231
magistral lecture 0.3333333
choquante shocking 0.5000000
choquante only 0.0500000
essayent trying 0.1000000
tête mind 0.3333333
tête headache 0.1250000
tête NULL 0.0024570
fanatiques from 0.0312500
fanatiques religious 0.2000000
chanceux lucky 0.2500000
surprend surprise 0.1428571
lycée , 0.0044843
lycée school 0.2727273
lycée high 0.2000000
déplacé inappropriate 1.0000000
David David 1.0000000
est &apos;s 0.4393939
est apologized 0.3333333
est Is 0.3000000
est somewhat 0.5000000
est lies 0.2500000
est can 0.0133333
est &apos;re 0.0250000
est welcome 0.2000000
est impossible 0.1666667
est ; 0.0769231
est came 0.1250000
est down 0.3333333
est NULL 0.0122850
est died 0.5000000
est isn 0.1666667
est because 0.0312500
est is 0.7500000
est got 0.1428571
est do 0.0149254
est built 0.3333333
est are 0.0697674
un tools 0.5000000
un somebody 0.5000000
un step 0.5000000
un ambiguous 0.5000000
un innocent 0.2500000
un a 0.4680851
un someday 0.4444444
un either 0.2000000
un send 0.1250000
un an 0.5000000
un prison 1.0000000
un one 0.1304348
un poem 0.5000000
un wasted 0.2500000
un desire 0.5000000
un wrong 1.0000000
un someone 0.5000000
un NULL 0.0098280
Union Soviet 1.0000000
masquaient belied 0.5000000
exclama-t-il exclaimed 0.2500000
vas going 0.0869565
débat political 1.0000000
éclatent break 0.5000000
éclatent out 0.0833333
futur future 1.0000000
futur changed 0.1000000
refusa Arc 0.5000000
refusa refused 0.3333333
Dépêche-toi up 0.0800000
Dépêche-toi Hurry 0.4000000
imbécile idiot 1.0000000
jouer like 0.0238095
jouer will 0.0227273
jouer cards 0.2500000
jouer playing 1.0000000
matins morning 0.1666667
te tells 0.5000000
te NULL 0.0024570
te complaining 0.3333333
te please 0.0625000
te you 0.0568562
te to 0.0091743
te yourself 0.4000000
te see 0.0833333
te give 0.3333333
te bother 0.5000000
te correct 0.3333333
te scare 0.3333333
te tell 0.1250000
te keeps 0.1666667
te meet 0.1428571
te freaking 0.5000000
te explain 0.0909091
te talk 0.1250000
te feel 0.1818182
partenaire lovers 1.0000000
comporter behaving 0.5000000
Attends on 0.0243902
Attends Hold 1.0000000
magique sword 1.0000000
magique magic 0.5000000
transformer transform 0.5000000
Rachel friend 0.5000000
Rachel Rachel 0.3333333
découvrait discovered 0.5000000
aspects aspect 1.0000000
veux want 0.5000000
veux NULL 0.0024570
veux mean 0.1818182
soir decorum 0.2500000
soir Tonight 0.5000000
église church 0.3333333
église Catholic 1.0000000
épelle-t-on spell 0.5000000
épelle-t-on you 0.0033445
épelle-t-on do 0.0149254
Paris study 0.1428571
Paris Paris 1.0000000
Paris in 0.0114943
plaisir &apos;re 0.0250000
plaisir welcome 0.2000000
souriant with 0.0540541
souriant a 0.0106383
souriant smile 0.4000000
restés stay 0.0769231
donnait would 0.0277778
donnait gave 0.1666667
malheureusement unfortunately 1.0000000
marier would 0.0277778
marier marry 0.1818182
marier you 0.0033445
facilement easily 0.6666667
les taking 0.5000000
les NULL 0.0147420
les areas 0.5000000
les eyes 0.2500000
les sources 0.3333333
les see 0.0833333
les men 0.2500000
les United 0.3333333
les were 0.0588235
les selling 0.3333333
les within 0.5000000
les hockey 0.5000000
les avoid 0.5000000
les exams 0.3333333
les women 0.5000000
les irregular 0.5000000
les words 0.2222222
les foreign 0.5000000
les mathematicians 0.5000000
les important 0.5000000
les sent 0.5000000
les skills 0.2500000
les humans 0.5000000
les characters 0.2500000
les interactions 0.5000000
les skeptical 0.3333333
les every 0.4444444
les classes 0.5000000
les lasagna 0.5000000
les over 0.0666667
les everyone 0.5000000
les &apos;ll 0.0833333
les mysterious 0.2000000
les cops 0.3333333
les bending 0.5000000
les music 0.2000000
les members 0.5000000
les shopping 0.2500000
les running 0.3333333
les summer 1.0000000
les people 0.1219512
les dreams 0.2000000
les far-fetched 0.2000000
les others 0.3333333
les the 0.1403509
les contentious 0.6666667
les blame 0.2500000
les both 0.3333333
les nerves 0.5000000
les nails 0.5000000
les buys 0.3333333
les cheating 0.5000000
100 100 0.5000000
envoie send 0.1250000
prouvé proven 1.0000000
Dans In 0.6000000
Dans When 0.0526316
cela that 0.0119048
cela NULL 0.0024570
cela it 0.0288462
cela does 0.2500000
devait anyone 0.1111111
intérieure sensitivity 1.0000000
demander for 0.0156250
demander wonder 0.2222222
demander propose 0.3333333
demander to 0.0061162
pauvreté poverty 0.5000000
anarchiste anarchist 1.0000000
autrefois once 0.3333333
turbulences turbulence 1.0000000
désirons want 0.0227273
désirons Nowadays 0.2500000
cherchais for 0.0156250
cherchais was 0.0181818
cherchais ! 0.0103093
cherchais looking 0.2500000
si NULL 0.0049140
si given 0.5000000
si if 0.7692308
si whether 0.5000000
si so 0.3448276
ange angel 1.0000000
intéressant interesting 0.6000000
vendre selling 0.3333333
vendre them 0.0476190
vendre personal 0.5000000
étrangers people 0.0243902
étrangers Foreign 0.5000000
étrangers intrigue 0.3333333
devines can 0.0133333
devines guess 1.0000000
dépendra depends 0.0909091
dépendra on 0.0243902
ravi be 0.0125000
ravi glad 0.5000000
existe , 0.0044843
existe existed 0.5000000
effectivement actually 1.0000000
empêche keeps 0.1666667
ami boyfriend 0.5000000
demandait whether 0.2500000
vieil benevolent 1.0000000
vieil old 0.3333333
mangeant eating 0.2500000
décida decided 0.3333333
Félicitations Congratulations 1.0000000
Notre Our 1.0000000
autant many 0.0476190
autant so 0.0344828
autant With 0.3333333
important important 0.5000000
important anymore 0.1250000
calmé down 0.3333333
films buys 0.3333333
films them 0.0476190
sciences science 0.5000000
majorité majority 1.0000000
capricieux capricious 1.0000000
venait came 0.2500000
venait from 0.0312500
mathématique mathematical 0.3333333
trouille out 0.0833333
cage den 1.0000000
cage of 0.0076923
Merci very 0.1250000
Merci Thanks 0.7500000
Merci Thank 1.0000000
Merci you 0.0234114
doivent have 0.0300000
doivent to 0.0091743
doivent get 0.0588235
sentiments feelings 0.1666667
mots pun 0.3333333
mots for 0.0156250
mots NULL 0.0024570
mots words 0.6666667
cent thousand 0.5000000
cube meter 1.0000000
impliquant involving 0.3333333
impliquant altar 0.5000000
racontiez about 0.0270270
lui NULL 0.0024570
lui perfect 0.5000000
lui to 0.0091743
lui him 0.4444444
lui tell 0.2500000
lui naturally 0.5000000
lui pranking 0.2000000
lui prank 0.2500000
comédie satirical 1.0000000
Jack Jack 0.4000000
Vouloir there 0.0204082
Vouloir Where 0.1111111
intelligente smart 1.0000000
bois table 0.3333333
volé stole 0.5000000
paraît to 0.0030581
paraît seems 0.3333333
réprimandé reprimanded 0.3333333
suppose suppose 0.6000000
sommes-nous Haven 0.5000000
devant before 0.1666667
pages pages 1.0000000
scrute scrutinizes 0.3333333
faites you 0.0033445
faites made 0.0769231
justice Justice 0.3333333
téléphoner call 0.2500000
condition only 0.0500000
condition under 0.3333333
condition condition 1.0000000
condition one 0.0434783
pouvait could 0.0714286
tirent artists 0.2500000
tirent advantage 0.5000000
infini infinite 1.0000000
pensais thought 0.1428571
mordu bite 0.5000000
mordu you 0.0066890
assez tired 0.1000000
assez sick 0.2000000
assez French 0.2500000
assez rather 0.5000000
assez quite 0.5000000
assez discerning 1.0000000
assez fast 0.5000000
texte text 1.0000000
fatigué tired 0.4000000
pensé thought 0.1428571
droit allowed 0.2500000
préfère prefers 1.0000000
solution solution 0.5000000
solution no 0.0454545
courroux wrath 1.0000000
Jason Jason 1.0000000
sourcil eyebrow 1.0000000
une musical 1.0000000
une under 0.3333333
une soon 0.0714286
une a 0.2925532
une prank 0.2500000
une pranking 0.2000000
une reform 0.5000000
une an 0.2692308
une believable 0.3333333
une For 0.4000000
une one 0.0434783
une speech 0.2000000
une hour 0.3333333
une sculpture 0.5000000
une phrased 0.1666667
une such 0.4285714
une whole 0.2000000
une any 0.1428571
une discovery 0.3333333
une great 0.1250000
une nap 0.5000000
une NULL 0.0073710
sujet about 0.0270270
sujet volatile 1.0000000
hôte host 0.5000000
travail work 0.5000000
travail job 0.6666667
travail very 0.0625000
tarte a 0.0053191
tarte banana 0.2857143
maîtriser master 0.5000000
jeune self-indulgent 0.3333333
jeune , 0.0044843
jeune wealthy 0.5000000
jeune young 0.3333333
réponses useful 0.3333333
honoré him 0.0370370
honoré honored 1.0000000
honoré being 0.0909091
technologie present-day 1.0000000
technologie technology 0.3333333
compensatoire ability 0.5000000
ruinent are 0.0116279
ruinent ruining 1.0000000
crème on 0.0243902
seigle Rye 0.5000000
fan fan 1.0000000
esprit knack 1.0000000
esprit mind 0.5000000
Quoique Whatever 0.5000000
lancer throw 1.0000000
Genève Geneva 0.5000000
peluche plushy 1.0000000
sommaire examination 1.0000000
état shape 0.2500000
affecte affects 0.3333333
Ouvrez Open 0.5000000
définitions definitions 0.2500000
croyance prevalent 1.0000000
parce because 0.4687500
papillon butterfly 1.0000000
Eh Hey 1.0000000
Eh So 0.1000000
sérieux seriously 0.5000000
désagréable unpleasant 1.0000000
veux-tu you 0.0066890
veux-tu do 0.0298507
veux-tu want 0.0454545
reposer rest 0.3333333
présumer assume 1.0000000
composition composition 0.5000000
cesse will 0.0227273
cesse vilified 0.3333333
conversation conversation 1.0000000
défaut defect 0.2000000
dispute heated 1.0000000
prospèrent thrive 0.3333333
persuader cajole 1.0000000
Parfois Sometimes 0.7500000
Shanghai married 0.3333333
Shanghai get 0.0588235
Shanghai Shanghai 1.0000000
vis living 0.2000000
fallait overthrown 0.5000000
théorie Theoretically 0.3333333
théorie theory 0.7500000
effet effects 0.5000000
fournit proof 0.3333333
veut wants 1.0000000
veut doesn 0.0909091
veut want 0.0681818
programme have 0.0100000
programme &apos;d 0.1111111
programme program 0.5000000
programme to 0.0030581
apaisa down 0.3333333
Tu Have 0.2500000
Tu It 0.0119048
Tu You 0.6271186
Tu Are 0.0434783
Tu I 0.0054201
viennent come 0.1428571
viennent on 0.0243902
viennent knock 0.3333333
côté whose 0.3333333
côté neighbor 0.5000000
paroles lyrics 1.0000000
paroles chatterbox 0.3333333
couples couples 1.0000000
mignon cute 1.0000000
colère furious 0.5000000
Russes Russians 1.0000000
voyager travel 1.0000000
affamés , 0.0044843
affamés hungry 0.5000000
Italie Italy 0.5000000
grain grain 1.0000000
cause of 0.0076923
cause because 0.0312500
réalistes it 0.0096154
réalistes face 0.3333333
réalistes &apos;s 0.0075758
frappé struck 0.5000000
se use 0.2500000
se behaving 0.5000000
se up 0.0400000
se spread 0.5000000
se realize 0.3333333
se wake 0.2500000
se arguing 0.3333333
se yields 0.5000000
se wondered 0.3333333
se fighting 0.2000000
se may 0.3076923
se to 0.0030581
se players 0.3333333
se breed 0.3333333
se began 0.5000000
se NULL 0.0098280
se happen 0.1666667
se man 0.1666667
se delight 0.3333333
se marry 0.3636364
se err 0.5000000
se masturbate 0.2500000
se ocean 0.2500000
se meeting 0.5000000
se drift 0.1428571
se volunteered 1.0000000
se happens 0.2727273
se advocating 0.5000000
se are 0.0116279
20 20 0.5000000
signaler out 0.0833333
signaler point 0.2000000
signaler allow 0.3333333
idées Freud 0.5000000
idées ideas 0.5000000
idées great 0.1250000
elles spiders 0.2500000
elles NULL 0.0024570
elles they 0.1176471
aimerais &apos;d 0.3333333
aimerais could 0.0714286
aimerais wish 0.5000000
aimerais like 0.0476190
aimerais I 0.0027100
privées of 0.0076923
privées universities 0.3333333
privées the 0.0035088
maladie fatal 1.0000000
pires worst 0.3333333
pires the 0.0035088
permettez-moi ; 0.0384615
permettez-moi me 0.0250000
permettez-moi allow 0.3333333
trouves-tu do 0.0149254
trouves-tu find 0.0909091
trouves-tu you 0.0033445
puissiez cannot 0.0714286
puissiez can 0.0133333
bague ring 1.0000000
que think 0.3437500
que regardless 0.3333333
que consider 0.2500000
que says 0.3076923
que which 0.0588235
que say 0.1578947
que suppose 0.4000000
que into 0.0714286
que beliefs 0.2500000
que thing 0.3000000
que expect 0.3750000
que anyone 0.1111111
que but 0.0322581
que than 0.6250000
que though 0.1250000
que existed 0.5000000
que endorphins 0.3333333
que letters 0.2000000
que lies 0.2500000
que what 0.2343750
que only 0.2000000
que since 0.6000000
que mean 0.0909091
que thought 0.2857143
que because 0.2812500
que just 0.1600000
que Because 0.2500000
que understanding 1.0000000
que NULL 0.0859951
que Maybe 0.3333333
que saying 0.3076923
que you 0.1070234
que want 0.0454545
que said 0.0769231
que nobody 0.5000000
que fifty 0.2500000
que thinker 0.5000000
que anything 0.1428571
que Whenever 0.3333333
que winner 0.5000000
que that 0.4404762
que antisocial 0.2500000
que discovered 0.5000000
que those 0.1428571
C That 0.1578947
C It 0.0119048
C This 0.0909091
complaisant young 0.3333333
pleure cry 0.7500000
sur in 0.0344828
sur insights 0.5000000
sur skeptical 0.3333333
sur about 0.1351351
sur to 0.0030581
sur eyes 0.2500000
sur on 0.2195122
sur retract 0.5000000
sur account 0.3333333
tendance tend 0.3333333
mettre put 0.3333333
mettre casting 1.0000000
eau water 0.6666667
même NULL 0.0024570
même same 0.4166667
même even 0.6363636
même thing 0.1000000
nom name 0.6666667
maître teacher 0.2500000
riche rich 0.2000000
riche self-indulgent 0.3333333
riche He 0.0500000
responsables the 0.0035088
voisins neighbors 0.5000000
voisins &apos; 0.3333333
bagarres fights 0.5000000
ans years 0.5555556
ans 20 0.5000000
ans six 0.5000000
équipe team 1.0000000
Madrilènes weird 0.5000000
sûrs sure 0.1666667
sûrs you 0.0066890
Bill Bill 1.0000000
site layout 0.3333333
site website 0.8000000
site &apos;s 0.0075758
images pictures 1.0000000
utilisation Internet 0.3333333
biologie biology 0.3333333
Jimmy Jimmy 1.0000000
fameuse a 0.0053191
fameuse notorious 0.3333333
tribunal court 1.0000000
bougies candlelight 0.1875000
personnes people 0.1219512
personnes Censorious 0.5000000
approchait approaching 1.0000000
changements changes 0.3333333
changements any 0.1428571
drogue convicted 0.2000000
quelques-uns some 0.1250000
indépendant independent 1.0000000
déranger bother 0.5000000
minute soon 0.0714286
dites via 0.3333333
statue of 0.0076923
statue statue 0.5000000
public public 1.0000000
public audience 0.5000000
entre fighting 0.2000000
entre them 0.0476190
entre between 1.0000000
passion Passion 0.5000000
passion creates 0.3333333
note check 0.1428571
note grade 1.0000000
L&apos; Imagination 0.5000000
L&apos; Education 0.5000000
L&apos; lonely 0.2500000
L&apos; America 0.5000000
L&apos; The 0.0967742
L&apos; Innocence 0.5000000
L&apos; Love 0.5000000
L&apos; Italy 0.5000000
poème poem 0.5000000
aucune no 0.0909091
gratuitement lawns 1.0000000
gratuitement free 0.5000000
gratuitement neighbors 0.5000000
gratuitement for 0.0156250
Ma My 0.2000000
frapper knock 0.3333333
frapper hit 0.5000000
avide greedy 1.0000000
commissaire commissioner 1.0000000
fur was 0.0181818
utiles answers 1.0000000
ressembler &apos;re 0.0250000
ressembler beginning 0.2500000
ressembler like 0.0238095
ressembler look 0.1250000
autour around 0.4285714
roule gathers 1.0000000
lasagnes lasagna 0.5000000
ticket ticket 1.0000000
nous NULL 0.0024570
nous seems 0.1666667
nous Rachel 0.3333333
nous June 0.2500000
nous we 0.5600000
nous us 0.7142857
vent wind 1.0000000
mangez-vous you 0.0033445
mangez-vous eat 0.1428571
Mais But 1.0000000
Mais So 0.2000000
Mais Seriously 1.0000000
confiance me 0.0125000
confiance trust 0.2500000
confiance another 0.3333333
confiance Trust 0.5000000
confiance one 0.0434783
sains diets 0.5000000
sains healthy 1.0000000
sains in 0.0114943
prendre to 0.0061162
prendre take 0.1250000
joueur altruistic 0.5000000
arrivera happen 0.1666667
arrivera won 0.1000000
cartes cards 0.5000000
Regardez-moi at 0.0217391
Regardez-moi Look 0.5000000
Regardez-moi me 0.0125000
sieste nap 0.5000000
comportaient NULL 0.0024570
innocent innocence 1.0000000
innocent innocent 0.5000000
capable able 0.2000000
salsa Salsa 1.0000000
toute for 0.0156250
toute all 0.0909091
toute online 0.2500000
toute stand 0.2000000
internet website 0.2000000
internet Internet 0.3333333
internet the 0.0035088
Rome Rome 1.0000000
Rome wasn 0.2000000
Monsieur Sir 1.0000000
élire elected 0.1666667
finis finished 0.5000000
chimie chemistry 0.5000000
pronounce pronounce 0.5000000
fans loyal 1.0000000
malgré despite 1.0000000
peur scared 0.1250000
peur scare 0.3333333
peur fear 1.0000000
peur afraid 1.0000000
Combien How 0.5357143
soit at 0.0217391
soit NULL 0.0024570
soit may 0.0769231
soit be 0.0125000
soit regardless 0.3333333
soit anything 0.1428571
soit ready 0.2500000
soit of 0.0076923
questions questions 1.0000000
via email 0.2500000
via via 0.3333333
réfrigérateur fridge 0.6000000
réfrigérateur a 0.0053191
schéma outline 1.0000000
répondit Willie 1.0000000
gouvernementaux officials 1.0000000
idiote question 0.1428571
problèmes running 0.3333333
problèmes poor 0.5000000
capots hood 1.0000000
désir desire 0.5000000
désir the 0.0035088
après according 0.5000000
après after 1.0000000
après From 0.3333333
zoo zoo 0.5000000
voulait with 0.0270270
voulait should 0.0588235
voulait wanted 0.1250000
évènements events 1.0000000
sentir sense 1.0000000
diffamé the 0.0035088
diffamé time 0.0370370
diffamé all 0.0454545
diffamé vilified 0.3333333
Guerre Cold 1.0000000
affection feelings 0.1666667
intentionnellement intentionally 0.4000000
intentionnellement concealing 1.0000000
intentionnellement hide 1.0000000
choses things 0.6000000
régulières with 0.0270270
auberge youth 1.0000000
étrangement oddly 1.0000000
devrait should 0.2352941
devrait be 0.0125000
Lorsqu&apos; When 0.0526316
Lorsqu&apos; Then 0.5000000
Lorsqu&apos; when 0.0400000
douches showers 1.0000000
face face-to-face 0.3333333
face face 0.6666667
face implausible 1.0000000
face Baffled 0.5000000
tôt early 1.0000000
femmes women 0.5000000
intelligence intelligence 1.0000000
clairement articulate 0.5000000
clairement about 0.0270270
réalité true 0.1250000
période time 0.0370370
adore love 0.0952381
Sudoku play 0.2500000
Sudoku Sudoku 1.0000000
Sudoku then 0.0909091
forums forums 1.0000000
bruit noise 0.7500000
aversion distaste 1.0000000
chinois Chinese 0.5000000
suis am 0.6400000
suis wondered 0.3333333
suis woke 0.2500000
suis &apos;m 0.3703704
suis went 0.2222222
cuire an 0.0384615
cuire cook 0.5000000
bras a 0.0053191
bras yard 0.5000000
gros fat 1.0000000
certaine some 0.1250000
appris a 0.0106383
appris learned 0.4000000
appris from 0.0625000
appris lot 0.2500000
station station 0.3333333
écoles schools 1.0000000
écoles from 0.0312500
lune moon 0.5000000
Eichler Eichler 0.5000000
problème problem 1.0000000
problème ? 0.0058824
problème matter 0.2000000
problème there 0.0204082
gay gay 0.6666667
danger danger 1.0000000
suite sleep 0.0769231
suite soon 0.1428571
ficher freak 0.5000000
rendre realize 0.1666667
demi-million a 0.0053191
demi-million million 0.2000000
demi-million Half 0.5000000
Wikipedia Wikipedia 1.0000000
distinction line 0.5000000
coupable man 0.1666667
coupable convicted 0.2000000
coupable guilty 1.0000000
convaincue unconvinced 0.3333333
convaincue either 0.2000000
convaincue still 0.0769231
élèves the 0.0035088
élèves papers 0.5000000
élèves &apos; 0.3333333
élèves students 0.6666667
avons have 0.0200000
avons walked 0.5000000
avons made 0.0769231
avons won 0.1000000
chœur NULL 0.0024570
critiquer criticizing 0.5000000
étudier studying 0.3333333
étudier study 0.1428571
étudier at 0.0217391
rare rare 1.0000000
rare at 0.0217391
commença started 0.2000000
inquiéter about 0.0270270
inquiéter care 0.1111111
autrui harmless 1.0000000
autrui make 0.0555556
autrui as 0.0833333
autrui everything 0.0769231
autrui possible 0.3333333
Freud &apos;s 0.0075758
Freud insights 0.5000000
affronter meet 0.1428571
queue tail 1.0000000
foi faith 0.5000000
personnages mysterious 0.4000000
personnages characters 0.2500000
ils translate 0.3333333
ils NULL 0.0024570
ils they 0.4411765
miracles miracles 1.0000000
plais you 0.0033445
plais anymore 0.1250000
plais &apos;t 0.0062893
plais like 0.0238095
Sauf Except 1.0000000
faisais gave 0.1666667
portefeuille wallet 1.0000000
Parle-moi to 0.0030581
Parle-moi Talk 1.0000000
sensation feeling 1.0000000
trouve finds 1.0000000
trouve loss 0.1428571
trouve &apos;m 0.0185185
trouve at 0.0217391
trouve find 0.3636364
trouve a 0.0053191
gauche left 0.2222222
pain bread 1.0000000
soi oneself 1.0000000
soi about 0.0270270
longue long 0.0606061
occupées occupied 1.0000000
beauté good 0.0833333
beauté looks 0.2000000
dents teeth 1.0000000
sensibilité inner 1.0000000
Povich Povich 0.5000000
Povich show 0.3333333
scandaleux outrageous 0.3333333
rire laughing 0.5000000
comprends understand 0.4000000
uns with 0.0270270
uns each 0.3333333
uns contentious 0.3333333
essayais trying 0.1000000
essayais was 0.0181818
donner give 0.1111111
conviction belief 0.5000000
conviction conviction 0.6666667
pied me 0.0125000
pied school 0.0909091
cherche searches 1.0000000
court me 0.0125000
placer place 0.3333333
à three-headed 0.3333333
à idea 0.0769231
à reduced 0.5000000
à regretting 0.5000000
à except 0.1428571
à trust 0.1250000
à banana 0.2857143
à headache 0.2500000
à drink 0.2500000
à beginning 0.5000000
à on 0.0731707
à typewriter 0.3333333
à to 0.2171254
à told 0.1176471
à home 0.2500000
à believe 0.0833333
à of 0.0307692
à candy 0.5000000
à studying 0.3333333
à lottery 1.0000000
à last 0.2857143
à faithful 0.5000000
à chatting 0.2500000
à logical 0.3333333
à the 0.0035088
à useless 0.2500000
à ear 0.2500000
à term 0.2500000
à up 0.0400000
à sycophants 0.1428571
à instead 0.1428571
à drift 0.1428571
à concentrate 0.3333333
à started 0.4000000
à malnutrition 0.3333333
à about 0.0810811
à prodigal 0.2500000
à thinking 0.5000000
à against 0.4000000
à how 0.1000000
à sentenced 0.5000000
à drug 1.0000000
à making 0.2666667
à chatterbox 0.3333333
à NULL 0.0319410
à school 0.0909091
à face-to-face 0.1666667
à fifty 0.2500000
à being 0.1818182
à under 0.3333333
à around 0.1428571
à at 0.1956522
à filling 0.5000000
à neighbor 0.5000000
à as 0.0833333
à study 0.1428571
à charged 1.0000000
à unless 0.3333333
à by 0.1428571
constamment knock 0.3333333
constamment on 0.0243902
renoncer renounce 0.5000000
renoncer her 0.1428571
renoncer refused 0.3333333
paie pay 1.0000000
mère mother 1.0000000
remarques Spenser 0.1428571
remarques by 0.0714286
remarques Sherlock 0.3333333
remarques sarcastic 0.5000000
notes grades 0.3333333
notes discordant 0.2500000
dont NULL 0.0024570
dont whose 0.3333333
dont of 0.0076923
dont virtuoso 0.5000000
dont with 0.0270270
week-end weekend 1.0000000
regardé watched 0.5000000
lâche coward 0.5000000
charmant lovely 0.3333333
charmant place 0.3333333
habitent live 0.0769231
habitent in 0.0114943
lit bed 0.4285714
lit NULL 0.0024570
allés London 0.5000000
allés went 0.1111111
courrai &apos;ll 0.0833333
courrai run 1.0000000
facultés colleges 1.0000000
facultés private 1.0000000
disait telling 0.2500000
disait NULL 0.0024570
disait was 0.0181818
disait side 0.3333333
mélange mixture 1.0000000
enfant child 0.3333333
peine NULL 0.0024570
peine pretending 1.0000000
haut high 0.2000000
bonbon piece 1.0000000
bonbon candy 0.5000000
bonbon of 0.0076923
six six 0.5000000
enlevant taking 0.5000000
tous all 0.2727273
tous say 0.0526316
tous every 0.3333333
tous a.m. 0.5000000
tous affects 0.3333333
tous everyone 0.5000000
tous lunch 0.2500000
grotte cave 1.0000000
chambre room 0.5000000
plage beach 1.0000000
devront have 0.0100000
voulez want 0.0909091
voulez to 0.0122324
Willie answered 1.0000000
nos our 0.1428571
nos Nowadays 0.2500000
proches close 0.4000000
proches many 0.0952381
proches do 0.0149254
alors , 0.0044843
alors praising 0.3333333
alors so 0.0689655
alors what 0.0156250
alors then 0.2727273
venant from 0.0312500
venant train 0.1428571
égard always 0.0416667
égard praising 0.3333333
égard him 0.0370370
égard sycophants 0.1428571
vint came 0.1250000
minuit midnight 1.0000000
Johnson Johnson 1.0000000
change changes 0.1666667
pertinente the 0.0035088
somme sum 1.0000000
insensée was 0.0181818
solaire sunscreen 0.5000000
proximité proximity 0.5000000
reviendrai back 0.0666667
reviendrai come 0.1428571
témoignage of 0.0076923
témoignage testimony 0.3333333
« &quot; 0.1556886
servile servile 1.0000000
venus resorted 0.2500000
dix ten 1.0000000
découvrir found 0.1111111
beaucoup lot 0.5000000
beaucoup many 0.1428571
beaucoup very 0.1250000
beaucoup much 0.3636364
beaucoup it 0.0192308
beaucoup a 0.0106383
performance performance 1.0000000
intéressantes interesting 0.2000000
fatigués tired 0.1000000
gare the 0.0035088
gare station 0.6666667
gare train 0.1428571
argent charges 1.0000000
argent money 0.4444444
montagnes mountains 1.0000000
pu done 0.1666667
pu able 0.2000000
Euh Uh 1.0000000
e-mail which 0.0588235
e-mail email 0.1250000
idiot idiotic 1.0000000
- - 1.0000000
- — 0.6666667
mais but 0.8709677
mais Just 0.5000000
entier worldwide 1.0000000
lapin rabbit 0.3333333
lapin white 0.6666667
lapin bunny 1.0000000
matin morning 0.5000000
linge laundry 0.1250000
religieuses their 0.0476190
religieuses as 0.0416667
religieuses beliefs 0.2500000
ascétique , 0.0044843
avion plane 1.0000000
crée creates 0.6666667
progrès progress 1.0000000
poète poet 1.0000000
déconnecter off 0.3333333
voulais want 0.0227273
voulais tell 0.0625000
voulais didn 0.0555556
voulais to 0.0061162
voulais wanted 0.7500000
procureurs Prosecutors 0.5000000
Un A 0.8181818
Un Someday 0.5000000
Un An 0.6666667
Un Poor 0.3333333
Un One 0.4000000
Un Half 0.5000000
peau skin 0.5000000
Dieu God 1.0000000
amis friends 0.6428571
réelle real 0.3333333
contemporaine technology 0.3333333
pendant lives 0.1250000
pendant fought 0.3333333
pendant train 0.1428571
pendant while 0.2727273
pendant during 0.2500000
pendant online 0.2500000
pendant in 0.0229885
autre another 0.6666667
autre tyrant 0.1250000
autre else 0.2500000
autre other 0.2727273
j sow 0.2000000
j I 0.0027100
battre fighting 0.2000000
heureux happy 1.0000000
telle profusion 0.5000000
telle do 0.0149254
telle such 0.1428571
telle thing 0.1000000
occupée making 0.0666667
occupée busy 0.2500000
compte bone 0.3333333
compte account 0.3333333
compte realized 0.3333333
compte realize 0.3333333
compte have 0.0100000
compte notice 0.5000000
compte an 0.0384615
oreille , 0.0044843
oreille ear 0.2500000
voir visit 0.5000000
voir have 0.0100000
voir stagnant 0.5000000
voir death 0.5000000
voir see 0.3333333
importantes things 0.0800000
écouter to 0.0030581
écouter listened 0.5000000
citoyen free 0.5000000
différent different 0.7500000
signifie educated 0.2500000
signifie mean 0.0909091
expliqué at 0.0434783
expliqué explained 0.5000000
santé health 1.0000000
investisseurs inexperienced 1.0000000
prouver prove 0.6000000
prouver it 0.0096154
rapidement quickly 1.0000000
près near 0.6666667
aussi an 0.0384615
aussi I. 0.5000000
aussi contrary 0.2500000
aussi wait 0.2000000
aussi that 0.0119048
aussi also 1.0000000
craignant fearing 1.0000000
Vous miss 0.1000000
Vous Did 0.0769231
Vous You 0.1016949
Vous All 0.3333333
Vous Are 0.0434783
Vous I 0.0027100
XXIe 21st 0.5000000
XXIe century 0.5000000
mémorisation memorization 1.0000000
nombre staggering 1.0000000
Sven Sven 1.0000000
, like 0.0476190
, he 0.0800000
, ; 0.3461538
, conviction 0.3333333
, rich 0.2000000
, Rachel 0.3333333
, So 0.1000000
, math 0.0833333
, Sadly 0.5000000
, meet 0.2857143
, far-fetched 0.2000000
, inch 0.3333333
, . 0.0159705
, shopping 0.2500000
, spiders 0.2500000
, or 0.0909091
, hot 0.1428571
, sick 0.2000000
, NULL 0.0319410
, now 0.0833333
, , 0.8878924
, 18th 0.2000000
, even 0.0909091
études study 0.1428571
études like 0.0238095
lamentable ; 0.0384615
lamentable lame 0.5000000
heure hour 0.6666667
produire produce 1.0000000
découverte discovery 0.3333333
agit comes 0.5000000
ou or 0.8181818
vont go 0.0526316
vont will 0.0227273
chaussures shoes 1.0000000
terre floor 0.5000000
terre potatoes 0.2500000
Se To 0.1250000
Disneyland Disneyland 1.0000000
Quelles What 0.0270270
erreurs mistake 0.3333333
erreurs mistakes 0.5000000
erreurs errors 1.0000000
commencèrent began 0.5000000
contexte context 1.0000000
noms names 0.5000000
noms your 0.0384615
noms are 0.0116279
sentait felt 0.6666667
dissimulait was 0.0181818
trouver find 0.3636364
sculpture sculpture 0.5000000
comme that 0.0119048
comme of 0.0076923
comme kind 0.3333333
comme as 0.3750000
comme like 0.1904762
éduqué educated 0.2500000
propos about 0.0540541
détendu cool 0.3333333
Supporter Bearing 1.0000000
énorme huge 1.0000000
empêcher help 0.5000000
japonais Japanese 0.5000000
entamé undermined 1.0000000
restée stay 0.1538462
appelé called 1.0000000
connait know 0.0344828
lits bed 0.1428571
coût cost 0.6666667
anniversaire &apos;s 0.0151515
anniversaire birthday 0.4285714
ambigu language 0.5000000
restez Don 0.0666667
restez stay 0.0769231
commencé started 0.2000000
commencé begun 0.5000000
commencé even 0.0909091
commencé yet 0.6666667
ronfle snore 0.5000000
ronfle &apos;s 0.0075758
ronfle snoring 0.5000000
après-midi chatting 0.2500000
après-midi whole 0.2000000
après-midi afternoon 0.5000000
possédait owned 1.0000000
possédait &apos;s 0.0075758
on one 0.0434783
on tried 0.2000000
on expecting 0.1428571
on phrased 0.1666667
on say 0.1052632
on you 0.1003344
on we 0.3600000
on believable 0.3333333
on Finns 0.5000000
on NULL 0.0073710
on told 0.1176471
abord First 0.5000000
difficile difficult 0.5714286
répondu answer 0.4285714
perspicace enough 0.1666667
Tenez are 0.0116279
Tenez Here 1.0000000
semé sown 1.0000000
physique doesn 0.0454545
physique &apos;t 0.0062893
physique physics 0.3333333
pas loss 0.1428571
pas step 0.5000000
pas face-to-face 0.1666667
pas arguing 0.3333333
pas late 0.0909091
pas as 0.0416667
pas matter 0.2000000
pas &apos;t 0.9119497
pas ’ 0.3333333
pas not 0.7605634
pas appear 0.5000000
pas wanting 0.3333333
pas no 0.3181818
pas unconvinced 0.3333333
pas prodigal 0.2500000
pas cannot 0.1428571
pas NULL 0.0171990
sûr sure 0.4166667
sûr you 0.0133779
devint naturally 0.5000000
moins unless 0.3333333
moins at 0.0434783
moins least 1.0000000
est-elle is 0.0056818
intérêt personal 0.5000000
intérêt interest 0.3333333
intérêt purpose 0.3333333
impliquées involved 1.0000000
partir a 0.0053191
partir go 0.0526316
partir on 0.0243902
ni nor 1.0000000
ni neither 1.0000000
appeler call 0.2500000
appeler calling 0.5000000
appeler him 0.0370370
imaginé thought 0.1428571
imaginé have 0.0100000
ensemble together 1.0000000
allumer light 0.1666667
rejoins join 1.0000000
sauf unless 0.3333333
sauf except 0.2857143
sauf trust 0.1250000
sauf is 0.0056818
Faire Doing 1.0000000
consacrés dedicated 1.0000000
conviennent to 0.0030581
conviennent please 0.0312500
conviennent us 0.1428571
quoi do 0.0149254
quoi NULL 0.0024570
quoi anything 0.0714286
quoi what 0.1093750
quoi whatever 0.2500000
quoi are 0.0465116
allons go 0.0526316
allons &apos;re 0.0250000
allons going 0.0869565
allons will 0.0227273
calme calm 1.0000000
proviseur principal 1.0000000
coûtera will 0.0227273
coûtera cost 0.3333333
Les Mathematics 0.4285714
Les I 0.0027100
Les Food 0.5000000
Les Foreign 0.5000000
Les Bicycles 0.5000000
Les Mathematicians 0.5000000
Les People 0.4285714
Les Classes 1.0000000
Les Professors 0.5000000
Les Robots 0.5000000
Les Blind 0.5000000
Les Pop 0.5000000
Les Computers 0.5000000
Les Politicians 0.5000000
Les Prime 0.5000000
Les Humans 0.5000000
Les Prosecutors 0.5000000
Les Math 0.3333333
Les Freud 0.5000000
Les Teachers 1.0000000
Les Censorious 0.5000000
Les The 0.1612903
Les Con 0.5000000
Les Spenser 0.1428571
lessive laundry 0.1250000
plafond at 0.0217391
plafond ceiling 1.0000000
rédaction essay 0.6666667
envers feelings 0.1666667
envers for 0.0156250
attendre only 0.0500000
attendre expect 0.2500000
attendre wait 0.6000000
perturber disturb 1.0000000
aveugle blind 1.0000000
inexpérimentés investors 1.0000000
fuir away 0.1250000
fuir running 0.3333333
prononces do 0.0149254
prononces pronounce 0.5000000
sens feel 0.1818182
sens pointless 0.2500000
sens senseless 0.3333333
toutes him 0.0370370
toutes scrutinizes 0.3333333
toutes all 0.0454545
toutes except 0.1428571
toutes every 0.1111111
niveau level 1.0000000
mieux better 0.6666667
mieux best 0.2500000
mieux than 0.0625000
mieux Better 0.3333333
déclaré murderer 0.3333333
déclaré convicted 0.2000000
bébé baby 1.0000000
bée speechless 1.0000000
compliqué complicated 0.3333333
Trop So 0.1000000
Trop Too 1.0000000
faudrait should 0.0588235
faudrait be 0.0250000
conçues designed 0.3333333
opposés opposed 1.0000000
Appelez Call 0.5000000
dépend depends 0.3636364
dépend all 0.0909091
dépend on 0.0731707
Ca all 0.0454545
Ca depends 0.0909091
Ca It 0.0119048
Ca This 0.0454545
araignées spiders 0.2500000
araignées &apos;re 0.0250000
araignées They 0.1666667
prolifique writer 1.0000000
mesure As 1.0000000
regretter regretting 0.5000000
avantage take 0.0625000
avantage advantage 0.5000000
impression like 0.0238095
aujourd&apos; that 0.0119048
aujourd&apos; today 0.3333333
aujourd&apos; up 0.0400000
aujourd&apos; else 0.1250000
qualité quality 1.0000000
racontes about 0.0810811
racontes talking 0.1666667
adversité adversity 0.5000000
viens-tu come 0.1428571
viens-tu aren 0.1428571
viens-tu going 0.0434783
viens-tu visit 0.5000000
viens-tu you 0.0066890
satirique comedy 1.0000000
adulation adulation 1.0000000
clé question 0.1428571
clé key 0.5000000
fil over 0.0666667
le &apos;ll 0.0833333
le dial 0.5000000
le breakfast 0.5000000
le destroy 0.5000000
le sentences 0.1666667
le cleaning 0.5000000
le nevertheless 0.3333333
le they 0.0294118
le voting 0.5000000
le lunch 0.2500000
le known 0.2500000
le decorum 0.2500000
le sycophants 0.1428571
le binary 0.5000000
le surely 0.5000000
le see 0.0833333
le everybody 0.5000000
le mess 0.3333333
le NULL 0.0245700
le Everyone 0.3333333
le scrutinizes 0.3333333
le high 0.2000000
le June 0.5000000
le misunderstood 0.3333333
le laundry 0.1250000
le &apos;m 0.0185185
le demonstrate 0.3333333
le the 0.2000000
le most 0.1000000
le allowed 0.2500000
le scared 0.2500000
le done 0.1666667
le Japanese 0.2500000
le it 0.0673077
le time 0.0740741
le master 0.5000000
le turn 0.5000000
le movement 0.5000000
le Chinese 0.5000000
le price 0.5000000
le understand 0.1000000
le kill 0.2500000
le into 0.2142857
le would 0.0833333
Réfléchissons consider 0.2500000
Réfléchissons Let 0.1250000
Réfléchissons &apos;s 0.0075758
intéressante interesting 0.2000000
mouchoir tissue 1.0000000
communisme Communism 0.5000000
soutirent their 0.0476190
soutirent swindle 1.0000000
soutirent out 0.0833333
nerfs nerves 0.5000000
nerfs my 0.0151515
ainsi has 0.0714286
ainsi it 0.0096154
ainsi been 0.1666667
ainsi way 0.0833333
transforment into 0.0714286
transforment it 0.0096154
transforment turn 0.5000000
ceux those 0.4285714
manges-tu you 0.0033445
manges-tu eat 0.1428571
dort &apos;s 0.0075758
dort sleeping 1.0000000
mêmes same 0.2500000
étude study 0.1428571
musicaux experts 1.0000000
venger get 0.0588235
venger back 0.0666667
venger at 0.0217391
Oui Yes 0.5000000
Où Where 0.4444444
peut-on one 0.0434783
peut-on can 0.0133333
peut-on make 0.0555556
peut-on phone 0.3333333
peut-on a 0.0053191
es are 0.0697674
es sure 0.0833333
es &apos;re 0.4500000
es never 0.0227273
es NULL 0.0024570
dans NULL 0.0049140
dans into 0.0714286
dans on 0.0731707
dans ocean 0.2500000
dans in 0.3333333
dans check 0.1428571
dans over 0.2000000
dans intend 0.2500000
dans soon 0.0714286
dans drift 0.1428571
pensez term 0.1250000
voudrais like 0.0476190
voudrais would 0.0555556
gagnant winner 0.5000000
gagnant the 0.0035088
carte identity 1.0000000
carte card 0.2000000
carte credit 1.0000000
Depuis moment 0.5000000
Depuis the 0.0035088
Depuis From 0.3333333
nouveau new 0.1818182
boire drink 0.5000000
boire a 0.0053191
premier first 0.3333333
sûrement surely 0.5000000
dingue crazy 0.2000000
dingue driving 0.2000000
dingue me 0.0125000
resté stay 0.1538462
Au NULL 0.0024570
Au On 1.0000000
maintenant now 0.6666667
maintenant NULL 0.0049140
vivent live 0.0769231
portait NULL 0.0024570
portait wearing 0.2000000
portait was 0.0181818
minutes minutes 1.0000000
seul only 0.0500000
seul alone 0.2500000
seul defect 0.2000000
Pour For 0.4000000
Pour In 0.2000000
Pour To 0.5000000
simples easiest 0.5000000
Peut-être Maybe 0.3333333
Peut-être it 0.0096154
longtemps long 0.0909091
entendait heard 0.5000000
entendait from 0.0312500
sens-tu do 0.0149254
sens-tu feel 0.0909091
classe NULL 0.0024570
classe class 0.6000000
aimé like 0.0238095
aimé it 0.0096154
aimé NULL 0.0024570
aimé biology 0.3333333
austère austere 0.5000000
Pourriez-vous Could 0.5000000
Parce Because 0.7500000
excuse &apos;m 0.0185185
excuse sorry 0.2500000
gagné won 0.1000000
Prends Take 1.0000000
sourd deaf 1.0000000
30 30 1.0000000
trop NULL 0.0024570
trop redundant 0.3333333
trop too 0.9333333
trop bored 0.5000000
trop much 0.0909091
trop so 0.1034483
trop lot 0.1250000
obligatoire character 1.0000000
pratique practice 0.6666667
pratique practical 0.3333333
as really 0.1250000
as have 0.1000000
as letters 0.2000000
as look 0.1250000
as made 0.0769231
as met 0.2500000
as anything 0.0714286
as &apos;ve 0.0833333
as did 0.0869565
as NULL 0.0024570
as opened 0.3333333
as found 0.1111111
as you 0.0033445
as done 0.1666667
as this 0.0500000
as do 0.0149254
corruption corruption 1.0000000
condamnèrent condemned 1.0000000
prenais ate 0.5000000
venir going 0.0434783
venir to 0.0030581
; ; 0.2692308
jamais never 0.5227273
jamais try 0.2500000
jamais ever 0.4000000
montre shows 0.5000000
jeu game 0.2500000
jeu new 0.0909091
jeu deck 1.0000000
jeu pun 0.3333333
jeu online 0.2500000
voulons expect 0.1250000
Ray Ray 1.0000000
. I. 0.5000000
. ! 0.0412371
. Eichler 0.5000000
. . 0.9570025
trouillard coward 0.5000000
Japon Japan 0.5000000
taciturne individual 1.0000000
longues long 0.0303030
ton your 0.0769231
ton stern 1.0000000
lis-le it 0.0096154
lis-le read 0.2000000
jour Someday 0.5000000
jour someday 0.4444444
jour nevertheless 0.3333333
jour out 0.1666667
jour day 0.5000000
aie don 0.0125000
courtisans sycophants 0.2857143
terroristes terrorists 1.0000000
réfuter refute 1.0000000
réfuter to 0.0030581
pretty pretty 0.5000000
formation formation 1.0000000
politicien politician 0.5000000
Alors Then 0.5000000
voilà is 0.0056818
Il NULL 0.0073710
Il may 0.1538462
Il He 0.8500000
Il Sometimes 0.2500000
Il There 0.5161290
Il I 0.0054201
Il Better 0.3333333
Il mention 0.2500000
Il It 0.1785714
Il To 0.2500000
Il This 0.0454545
Il pants 0.3333333
bientôt soon 0.2142857
Peter Peter 1.0000000
Brown Brown 1.0000000
manquez you 0.0033445
manquez miss 0.1000000
triste sad 0.6666667
saura will 0.0227273
saura know 0.0344828
empoisonnée poisoned 0.5000000
sembler might 0.5000000
meilleure better 0.1666667
meilleure best 0.1250000
meilleure highest 1.0000000
Le The 0.4838710
Le Wine 0.3333333
Le Creationism 0.5000000
Le Rye 0.5000000
Le Communism 0.5000000
accorde up 0.0400000
accorde tuning 1.0000000
laisser a 0.0053191
laisser into 0.0714286
laisser him 0.0370370
laisser letting 1.0000000
laisser drive 1.0000000
ferons-nous we 0.0400000
ferons-nous do 0.0149254
ferons-nous going 0.0434783
ferons-nous are 0.0116279
moindre idea 0.0769231
Dis-leur them 0.0476190
Dis-leur Tell 1.0000000
prudent prudent 1.0000000
États-Unis United 0.6666667
États-Unis States 1.0000000
colocataire roommate 0.3333333
divers various 0.5000000
examen cursory 1.0000000
propres own 0.3333333
Ne Don 0.4666667
Ne Unsure 0.5000000
Ne Haven 0.5000000
Ne Not 1.0000000
en you 0.0100334
en doing 0.2857143
en NULL 0.0221130
en going 0.0434783
en saying 0.0769231
en smile 0.4000000
en especially 0.5000000
en in 0.2183908
en take 0.0625000
en leave 0.2500000
en furious 0.5000000
en by 0.1428571
en &apos;t 0.0062893
en at 0.0652174
en while 0.0909091
en as 0.0833333
en been 0.1666667
en late 0.0909091
en from 0.0312500
en face-to-face 0.1666667
en to 0.0122324
en country 0.2500000
en needed 0.5000000
en resorted 0.2500000
en into 0.1428571
en on 0.0243902
en oaken 0.5000000
en adopt 0.5000000
en care 0.2222222
en looking 0.2500000
en king 0.1250000
en holiday 0.5000000
en the 0.0035088
en elected 0.1666667
en talk 0.1250000
en won 0.1000000
en blame 0.2500000
en did 0.0434783
en game 0.2500000
viagra Viagra 1.0000000
cinquante fifty 0.2500000
cinquante and 0.0178571
volonté will 0.0681818
parents parents 1.0000000
servies served 0.5000000
servies in 0.0114943
concept abstract 1.0000000
Smith Smith 1.0000000
sais knew 0.5000000
sais cannot 0.0714286
sais &apos;t 0.0062893
sais know 0.3103448
dictionnaire dictionary 1.0000000
effacer wishes 0.5000000
effacer to 0.0030581
vagabondent drift 0.1428571
autonomes autonomous 1.0000000
reproduisent don 0.0125000
reproduisent breed 0.3333333
prises taken 1.0000000
achète would 0.0277778
achète buys 0.3333333
achète buy 0.2000000
L ascendancy 0.3333333
L The 0.0161290
L Winter 0.3333333
dirent told 0.0588235
dirent girls 0.5000000
célèbre famous 0.3333333
musique music 0.4000000
manque sleep 0.0769231
stupides stupid 0.2857143
vénèrent venerate 1.0000000
m&apos; lower 0.5000000
m&apos; intrigue 0.3333333
m&apos; &apos;ll 0.1666667
m&apos; almost 0.1250000
m&apos; made 0.1538462
m&apos; helping 0.5000000
m&apos; me 0.2125000
m&apos; letters 0.2000000
m&apos; took 0.3333333
m&apos; Jack 0.2000000
m&apos; abandon 0.5000000
m&apos; caught 1.0000000
m&apos; boat 0.3333333
m&apos; care 0.2222222
m&apos; NULL 0.0024570
m&apos; told 0.0588235
m&apos; listened 0.5000000
m&apos; having 0.2500000
m&apos; found 0.1111111
m&apos; opened 0.3333333
m&apos; sorry 0.2500000
m&apos; help 0.5000000
connaissez know 0.0344828
celles those 0.1428571
marrant fun 0.5000000
marrant be 0.0125000
sont definitions 0.2500000
sont mine 0.3333333
sont Mathematics 0.1428571
sont resorted 0.2500000
sont NULL 0.0024570
sont Math 0.3333333
sont are 0.2558140
sont is 0.0227273
sont vacation 0.3333333
sont fell 0.3333333
sont spiders 0.2500000
disaient said 0.0769231
duquel side 0.3333333
duquel whose 0.3333333
migraine migraines 0.5000000
trois three 0.5000000
trois three-headed 0.3333333
vient from 0.0312500
vient comes 0.5000000
étais &apos;ve 0.0833333
étais must 0.1428571
étais spent 0.1250000
étais nuts 0.5000000
étais was 0.1272727
semaine week 0.6000000
indique indicates 1.0000000
type type 1.0000000
type guy 0.5000000
type fellow 1.0000000
acclamé acclaimed 1.0000000
était pants 0.3333333
était gone 0.3333333
était weren 0.5000000
était was 0.3818182
était unconvinced 0.3333333
était NULL 0.0024570
était wasn 0.4000000
changent change 0.2000000
jaloux jealous 1.0000000
On One 0.6000000
On You 0.0169492
On They 0.1666667
On It 0.0476190
On Being 0.5000000
On past 0.3333333
On We 0.2857143
On bone 0.3333333
On NULL 0.0024570
mort died 0.5000000
mort dealer 1.0000000
médicaux medical 0.5000000
légumes eat 0.1428571
légumes vegetables 0.5000000
délectent delight 0.3333333
délectent in 0.0114943
Grâce Thanks 0.2500000
complètement depends 0.0909091
complètement completely 0.5000000
communs ideals 0.1428571
pourrais-je I 0.0027100
pourrais-je could 0.0714286
porter first 0.3333333
vidéo video 0.5000000
vidéo game 0.2500000
promettre a 0.0053191
promettre promise 0.5000000
promettre make 0.0555556
raconté told 0.1176471
proverbe proverb 1.0000000
emmènera far 0.6666667
emmènera away 0.2500000
réponse answer 0.5714286
implique involve 1.0000000
ménage cleaning 0.5000000
objets give 0.1111111
objets objects 1.0000000
objets items 0.3333333
Qui Silence 1.0000000
Qui Who 0.5555556
l&apos; found 0.1111111
l&apos; episode 0.5000000
l&apos; German 0.5000000
l&apos; aspirin 0.5000000
l&apos; year 0.3333333
l&apos; behavior 0.2500000
l&apos; calling 0.5000000
l&apos; Internet 0.3333333
l&apos; changed 0.1000000
l&apos; Gary 0.5000000
l&apos; ear 0.2500000
l&apos; education 0.5000000
l&apos; birthday 0.2857143
l&apos; money 0.2777778
l&apos; the 0.1157895
l&apos; adversity 0.5000000
l&apos; shoot 0.5000000
l&apos; did 0.0434783
l&apos; learning 0.2000000
l&apos; endorphins 0.3333333
l&apos; still 0.0769231
l&apos; met 0.2500000
l&apos; guessed 0.5000000
l&apos; stupid 0.1428571
l&apos; school 0.2727273
l&apos; NULL 0.0221130
l&apos; forever 0.3333333
l&apos; abortions 0.5000000
l&apos; formal 0.5000000
l&apos; feelings 0.1666667
l&apos; interest 0.3333333
l&apos; eternity 0.5000000
l&apos; church 0.3333333
l&apos; loved 1.0000000
l&apos; love 0.1904762
l&apos; sustainability 0.2000000
l&apos; &apos;s 0.0075758
l&apos; looks 0.2000000
l&apos; explain 0.1818182
l&apos; college 0.5000000
l&apos; uncomfortable 0.5000000
l&apos; either 0.2000000
l&apos; get 0.0588235
l&apos; information 0.5000000
l&apos; outer 1.0000000
l&apos; Back 0.2500000
l&apos; like 0.0476190
l&apos; tried 0.2000000
atteint reached 1.0000000
atteint in 0.0114943
religieux boys 0.1666667
religieux zealots 1.0000000
religieux religious 0.4000000
partageait share 1.0000000
trouvé found 0.1111111
impatiente impatient 1.0000000
porte door 0.6000000
cour yard 0.5000000
Quelle What 0.0540541
moyen way 0.0833333
sombres somber 0.5000000
c it 0.0096154
c this 0.0500000
c that 0.0119048
c far-fetched 0.2000000
fidèle faithful 0.5000000
fidèle one 0.0434783
des egg 0.5000000
des NULL 0.0049140
des fools 0.2500000
des kicking 0.2500000
des some 0.2500000
des definitions 0.2500000
des feelings 0.1666667
des using 0.5000000
des many 0.0476190
des faith 0.5000000
des risks 0.5000000
des universities 0.3333333
des be 0.0125000
des showing 0.5000000
des siblings 0.2500000
des years 0.2222222
des poets 0.5000000
des fights 0.5000000
des politicians 0.3333333
des friends 0.1428571
des involving 0.3333333
des brothers 0.5000000
des selection 0.2500000
des from 0.0625000
des stared 0.3333333
des palms 0.5000000
des pancakes 0.3333333
des various 0.5000000
des ideas 0.2500000
des receptors 0.5000000
des potatoes 0.2500000
des months 0.5000000
des messages 0.3333333
des sunburn 0.3333333
des credulity 0.5000000
des translating 0.5000000
des items 0.3333333
des make 0.0555556
des tired 0.1000000
des things 0.2400000
des religious 0.2000000
des glass 0.5000000
des buy 0.2000000
des changes 0.3333333
des government 0.2500000
des difficulties 0.3333333
des days 0.2500000
des stories 0.5000000
des Most 0.3333333
des part 0.5000000
des people 0.0487805
des flawed 0.2500000
des mistakes 0.1666667
des the 0.0035088
des math 0.2500000
des taxes 0.5000000
des stagnant 0.5000000
des affirmations 0.5000000
des candlelight 0.1875000
des ideals 0.2857143
des of 0.1076923
des discordant 0.2500000
des proximity 0.5000000
moyens ways 1.0000000
ouvert up 0.0400000
ouvert my 0.0151515
ouvert opened 0.3333333
français French 0.5000000
français enough 0.1666667
brièveté brevity 0.5000000
Moi So 0.2000000
Moi sow 0.2000000
Moi candlelight 0.0625000
Moi do 0.0298507
dommage pity 1.0000000
dommage too 0.0333333
dommage a 0.0106383
dommage bad 0.2500000
finies over 0.0666667
finies vacation 0.3333333
reviens &apos;ll 0.0833333
reviens be 0.0500000
reviens will 0.0681818
reviens back 0.2666667
disputer arguing 0.3333333
grande great 0.3750000
grande greatest 0.5000000
considère consider 0.2500000
couloir hallway 1.0000000
évident obvious 0.5000000
plein plenty 1.0000000
plein full 0.3333333
plein ran 0.3333333
là now 0.0833333
là here 0.2000000
là stand 0.2000000
là lies 0.2500000
là there 0.0612245
prof teacher 0.2500000
prof physics 0.3333333
scolarité schooling 0.5000000
seulement only 0.2000000
seulement but 0.0322581
seulement shows 0.5000000
seulement one-way 1.0000000
savent can 0.0133333
savent express 0.5000000
savent do 0.0149254
savent know 0.0344828
étayer substantiate 1.0000000
eux were 0.0588235
eux fighting 0.2000000
eux them 0.1428571
eux house 1.0000000
eux books 0.5000000
plans plans 1.0000000
hui is 0.0056818
hui today 0.5000000
hui Today 0.4000000
rhétoriques rhetorical 1.0000000
rhétoriques techniques 0.3333333
éternité forever 0.3333333
éternité eternity 0.5000000
passages superfluous 1.0000000
passages much 0.0454545
courriels email 0.1250000
afin mosquitoes 1.0000000
déjà already 1.0000000
déjà light 0.1666667
déjà ever 0.4000000
conscient aware 1.0000000
traverser across 1.0000000
arriver get 0.0588235
arriver though 0.1250000
arriver make 0.0555556
arriver happen 0.1666667
arriver it 0.0288462
corps body 1.0000000
Parlez-vous speak 0.1111111
Parlez-vous Do 0.0833333
tomber fall 0.5000000
vu demonstrate 0.3333333
vu saw 0.5000000
essentielle essential 0.3333333
touché touched 1.0000000
pire worst 0.6666667
nombres Prime 0.5000000
nombres numbers 0.3333333
aimerait to 0.0030581
aimerait would 0.0277778
aimerait like 0.0238095
diminution diminution 0.3333333
&quot; &quot; 0.6766467
&quot; means 0.6666667
&quot; harvest 0.3333333
&quot; sow 0.2000000
retenir remember 1.0000000
livres home 0.2500000
mares pools 0.5000000
vos what 0.0156250
vos names 0.5000000
réveillé woke 0.2500000
réveillé , 0.0044843
réveillé up 0.0400000
opposé pitted 1.0000000
opposé against 0.2000000
quoique said 0.0769231
vieille old 0.3333333
épelles-tu spell 0.5000000
épelles-tu do 0.0149254
épelles-tu you 0.0033445
devenu mad 0.3333333
devenu had 0.0526316
devenu gone 0.3333333
défie challenges 0.5000000
paume palms 0.5000000
rêves come 0.1428571
rêves true 0.1250000
rêves dreams 0.4000000
vois see 0.2500000
vois it 0.0096154
multitude multitude 1.0000000
louper fail 1.0000000
louper to 0.0030581
Essayons &apos;s 0.0075758
Essayons try 0.2500000
Essayons Let 0.1250000
pleuvoir rain 1.0000000
mourir die 0.3333333
décrire describe 1.0000000
marient expected 1.0000000
retard late 0.0909091
voyageur traveller 0.5000000
perdrai lose 0.2000000
différences discrepancy 1.0000000
créationnisme Creationism 0.5000000
identité card 0.2000000
identité for 0.0156250
Donnez-lui him 0.0370370
Donnez-lui Give 0.2500000
sommeil sleep 0.1538462
sommeil loss 0.1428571
réduite reduced 0.5000000
comprenez understand 0.1000000
cheveux far-fetched 0.2000000
acte reprehensible 1.0000000
verre houses 0.3333333
Parlez Speak 1.0000000
es-tu did 0.1304348
es-tu you 0.0133779
es-tu are 0.0116279
rébellion NULL 0.0024570
atterrir land 0.5000000
Allez-vous Are 0.0434783
Allez-vous you 0.0033445
agaçante annoying 0.3333333
Aller-retour Round 1.0000000
Aller-retour trip 0.2000000
concentrer concentrate 0.3333333
voyons see 0.0833333
sceptiques skeptical 0.3333333
commence beginning 0.2500000
commence starts 1.0000000
commence begins 1.0000000
commence begin 0.5000000
gingivite gingivitis 0.5000000
agréable pleasing 1.0000000
options I 0.0027100
options options 0.5000000
maison home 0.2500000
ne came 0.2500000
ne would 0.0833333
ne perfect 0.5000000
ne cannot 0.4285714
ne breakthroughs 0.5000000
ne wasn 0.2000000
ne doubt 0.2500000
ne houses 0.3333333
ne technology 0.3333333
ne wouldn 0.3333333
ne useless 0.2500000
ne didn 0.4444444
ne only 0.2000000
ne &apos;m 0.0925926
ne matter 0.2000000
ne past 0.3333333
ne can 0.2400000
ne did 0.0869565
ne won 0.4000000
ne am 0.1600000
ne understands 0.5000000
ne don 0.7875000
ne NULL 0.0196560
ne snoring 0.5000000
ne gives 0.5000000
ne just 0.0400000
ne roommate 0.3333333
ne quandary 0.3333333
ne never 0.1136364
ne leave 0.2500000
ne one 0.0869565
ne know 0.0344828
ne not 0.0985915
ne doesn 0.4545455
ne best 0.2500000
ne aren 0.2857143
détails unnecessary 0.5000000
détails out 0.0833333
manges NULL 0.0024570
manges eat 0.1428571
Choqués Shocked 1.0000000
Hiroshi says 0.0769231
Hiroshi Hiroshi 0.6666667
tu aren 0.1428571
tu do 0.0149254
tu sick 0.2000000
tu freaking 0.5000000
tu you 0.2040134
tu living 0.2000000
point foolish 1.0000000
années 1950 0.5000000
années years 0.2222222
méchant evil 1.0000000
national budget 1.0000000
national in 0.0114943
national poll 0.5000000
stagnantes so 0.0344828
passer spend 0.5000000
passer happen 0.1666667
draguer on 0.0243902
draguer hit 0.5000000
vaut whole 0.2000000
vaut Better 0.3333333
cadeau present 1.0000000
Clinton Clinton 1.0000000
Bien Though 0.5000000
ingénieux crafty 1.0000000
corrige-la then 0.0909091
tondre mow 1.0000000
profusion profusion 0.5000000
profusion at 0.0217391
hommes men 0.5000000
explication explanation 1.0000000
dise telling 0.2500000
dise were 0.0588235
détendre relax 0.5000000
De welcome 0.2000000
De What 0.1351351
De Nowadays 0.2500000
rêver dream 0.2500000
rêver make 0.0555556
rêver me 0.0125000
Jeanne Joan 1.0000000
critiques delight 0.3333333
rend driving 0.4000000
rend realize 0.1666667
rend Man 0.3333333
rend &apos;s 0.0151515
regarder at 0.0217391
regarder look 0.1250000
émotions emotions 1.0000000
renvoya them 0.0476190
renvoya away 0.1250000
’ fools 0.2500000
’ NULL 0.0515971
’ just 0.0400000
’ sow 0.2000000
’ &apos;d 0.1111111
’ orange 0.2500000
’ length 0.3333333
’ child 0.3333333
’ spent 0.2500000
’ brought 0.3333333
’ ascendancy 0.3333333
’ tyrant 0.3750000
’ That 0.1578947
’ gave 0.1666667
’ possible 0.3333333
’ Winter 0.3333333
’ learned 0.1000000
’ reputation 0.3333333
’ night 0.2000000
’ t 0.5000000
’ breaks 0.2500000
’ speaker 0.2500000
’ had 0.0526316
’ techniques 0.3333333
’ far-fetched 0.2000000
’ allowed 0.2500000
’ what 0.0312500
’ chatting 0.2500000
’ money 0.0555556
’ adding 0.3333333
’ expecting 0.2857143
’ candlelight 0.0625000
’ rich 0.2000000
’ tend 0.3333333
’ reprimanded 0.3333333
’ This 0.0909091
Oh Oh 1.0000000
battra beat 1.0000000
bien fine 0.5000000
bien even 0.1818182
bien NULL 0.0073710
bien safe 0.5000000
bien wish 0.2500000
bien though 0.3750000
bien So 0.1000000
bien lonely 0.2500000
bien candlelight 0.1250000
bien well 0.5000000
bien right 0.3333333
bien Well 0.5000000
bien good 0.1666667
Demandez Ask 1.0000000
comprendre it 0.0096154
comprendre understand 0.3000000
comprendre NULL 0.0024570
personne person 0.5714286
personne flawed 0.2500000
personne anyone 0.1111111
personne whom 1.0000000
personne no 0.0909091
personne nobody 0.5000000
ordres monastic 1.0000000
suspect suspect 1.0000000
souhaite wishes 0.5000000
obscures Sherlock 0.3333333
obscures Holmes 0.5000000
trône throne 1.0000000
amusant fun 0.5000000
amusant be 0.0125000
considérer weigh 0.5000000
considérer seeing 0.5000000
naturellement became 1.0000000
prépare make 0.0555556
parole word 0.2500000
yeux at 0.0217391
yeux stared 0.3333333
yeux eyes 0.5000000
Putain Damn 1.0000000
essayez &apos;re 0.0250000
essayez trying 0.1000000
souhaitée desired 1.0000000
Sarah Sarah 1.0000000
écrit written 0.3333333
cassé broken 1.0000000
réplique line 0.5000000
réaliser your 0.0384615
réaliser make 0.0555556
Pape Pope 1.0000000
musulmans Muslims 1.0000000
perte loss 0.1428571
autres other 0.6363636
autres blame 0.2500000
autres else 0.1250000
autres others 0.6666667
question silly 1.0000000
question key 0.5000000
question question 0.5714286
proposition such 0.1428571
proposition unfair 1.0000000
Même Even 1.0000000
mer sea 0.5000000
avec gracefully 0.5000000
avec with 0.5945946
avec austere 0.5000000
avec which 0.1764706
avec to 0.0122324
avec engagement 0.5000000
avec served 0.5000000
avec marry 0.2727273
utilisé elected 0.1666667
utilisé use 0.2500000
décision decision 1.0000000
hockey players 0.3333333
savais knew 0.5000000
savais know 0.0689655
savais didn 0.1111111
espace space 1.0000000
ordinateurs Computers 0.5000000
italien you 0.0066890
italien Italian 1.0000000
répondent nearly 0.5000000
extrêmement plays 0.3333333
marche &apos;s 0.0075758
marche that 0.0119048
marche working 0.5000000
Aller Only 0.5000000
régions areas 0.5000000
abréger abridge 1.0000000
croyances religious 0.2000000
ait play 0.2500000
peu little 0.4000000
peu bit 1.0000000
proposée proposed 1.0000000
écrire by 0.0714286
écrire typewriter 0.3333333
écrire hand 1.0000000
écrire write 0.5000000
demanda asked 0.4000000
chiffres lucky 0.2500000
fiche don 0.0125000
fiche &apos;t 0.0062893
fiche care 0.2222222
relisais rereading 1.0000000
relisais was 0.0181818
sel salt 1.0000000
formules formulas 1.0000000
faisaient did 0.0434783
idéaux ideals 0.4285714
guimauve marshmallow 0.5000000
quelqu&apos; someone 0.4000000
quelqu&apos; Someone 1.0000000
quelqu&apos; NULL 0.0049140
quelqu&apos; somebody 0.5000000
général general 1.0000000
ascendant ascendancy 0.3333333
mets &apos;re 0.0250000
éternuer sneeze 0.3333333
au skills 0.2500000
au at 0.0869565
au the 0.0350877
au bed 0.1428571
au zoo 0.5000000
au must 0.1428571
au dared 0.3333333
au Japan 0.5000000
au change 0.2000000
au linked 0.5000000
au consider 0.2500000
au messages 0.3333333
au to 0.0122324
au NULL 0.0024570
au instead 0.2857143
au 21st 0.5000000
au seriously 0.5000000
au in 0.0574713
au headache 0.1250000
attentionnée nature 1.0000000
chercher up 0.0400000
chercher for 0.0156250
chercher ! 0.0103093
vie NULL 0.0024570
vie Life 0.4444444
vie lives 0.5000000
vie life 0.7272727
vie problems 1.0000000
logiques logical 0.3333333
plaisanterie joking 0.5000000
plaisanterie remarks 0.2500000
planté stand 0.1000000
essai essay 0.3333333
essai elected 0.1666667
visions no 0.0454545
visions real 0.1666667
sommes went 0.2222222
sommes are 0.0232558
sommes We 0.0714286
sommes 18th 0.2000000
reprennent starting 0.5000000
reprennent again 0.3333333
éphémère transient 1.0000000
Pourquoi Why 0.9230769
aime likes 1.0000000
aime like 0.2380952
aime love 0.1904762
naissance birth 1.0000000
lorsqu&apos; discordant 0.2500000
lorsqu&apos; when 0.0800000
nouvelle new 0.1818182
héritier heirless 0.2500000
différents no 0.0454545
différents different 0.2500000
y while 0.1818182
y There 0.4516129
y long 0.1212121
y NULL 0.0049140
y going 0.0869565
y &apos;s 0.1060606
y there 0.3265306
y gonna 0.2000000
y are 0.0930233
y about 0.0540541
y do 0.0298507
y mention 0.2500000
y including 1.0000000
Bonjour morning 0.3333333
Bonjour Good 0.7500000
Bonjour day 0.0833333
offrir him 0.0370370
offrir to 0.0030581
offrir give 0.1111111
Je I 0.4173442
Je Jack 0.2000000
Je Did 0.0769231
n&apos; no 0.2272727
n&apos; haven 0.6666667
n&apos; were 0.0588235
n&apos; never 0.3181818
n&apos; weren 0.5000000
n&apos; happen 0.1666667
n&apos; just 0.0800000
n&apos; question 0.1428571
n&apos; don 0.1250000
n&apos; NULL 0.0245700
n&apos; totally 0.3333333
n&apos; opinion 0.2000000
n&apos; Nothing 0.5000000
n&apos; mention 0.2500000
n&apos; couldn 0.5000000
n&apos; aren 0.2857143
n&apos; shouldn 0.5000000
n&apos; have 0.0400000
n&apos; not 0.0704225
n&apos; doesn 0.1363636
n&apos; Poor 0.3333333
n&apos; then 0.0909091
n&apos; trust 0.1250000
n&apos; is 0.0113636
n&apos; wasn 0.2000000
n&apos; music 0.2000000
n&apos; isn 0.5000000
n&apos; came 0.1250000
n&apos; brain 0.2500000
n&apos; This 0.0909091
n&apos; &apos;re 0.1000000
n&apos; anyone 0.1111111
n&apos; truth 0.1000000
n&apos; can 0.0533333
n&apos; keep 0.1428571
n&apos; didn 0.0555556
foudre lightning 0.5000000
accusé defendant 1.0000000
fiançailles engagement 0.5000000
marché walked 0.5000000
obtint got 0.1428571
correspond corresponds 1.0000000
cours class 0.4000000
cours classes 0.5000000
cours starting 0.5000000
cours lecture 0.3333333
cours are 0.0116279
cours communication 0.1666667
lunettes glasses 1.0000000
célèbres famous 0.3333333
sinistre doctor 0.5000000
sinistre &apos;s 0.0075758
sinistre grim 0.5000000
qu teacher 0.2500000
qu expecting 0.1428571
qu what 0.0312500
qu tyrant 0.2500000
qu NULL 0.0073710
qu that 0.0238095
qu John 0.3333333
qu techniques 0.3333333
possibilité possibility 1.0000000
sème sow 0.2000000
prennent make 0.0555556
a pointless 0.2500000
a audience 0.2500000
a archer 0.3333333
a told 0.0588235
a influenced 0.2500000
a are 0.0930233
a increased 0.5000000
a speaker 0.2500000
a stole 0.5000000
a disappeared 0.5000000
a bought 0.5000000
a is 0.0511364
a bite 0.5000000
a ran 0.3333333
a took 0.3333333
a almost 0.2500000
a flawed 0.2500000
a few 0.3333333
a has 0.7142857
a NULL 0.0196560
a off 0.3333333
a sent 0.2500000
a water 0.3333333
a doesn 0.1818182
a bone 0.3333333
a looks 0.2000000
a &apos;s 0.0833333
a tried 0.2000000
a there 0.0816327
a asked 0.3000000
a mention 0.2500000
a a 0.0106383
a change 0.2000000
experts among 0.5000000
meurt dies 1.0000000
meurt die 0.3333333
furieux mad 0.3333333
sérieusement though 0.1250000
sérieusement have 0.0100000
chapeau black 1.0000000
Holmes remarks 0.2500000
Holmes Holmes 0.5000000
docteur expression 1.0000000
détesté who 0.0344828
détesté hated 0.5000000
changer The 0.0161290
changer NULL 0.0024570
changer change 0.2000000
aspirine aspirin 0.5000000
menée led 0.5000000
menée ascetic 1.0000000
menée life 0.0303030
chaise chair 1.0000000
mange eating 0.2500000
mange eat 0.1428571
destinées plan 1.0000000
dépravation depravity 0.5000000
dépravation of 0.0076923
contre into 0.0714286
contre crashed 0.3333333
contre against 0.2000000
vote nationwide 1.0000000
vote voting 0.5000000
dit-il he 0.0200000
dit-il said 0.0769231
feras do 0.0149254
sol floor 0.5000000
filles both 0.3333333
demandé asked 0.3000000
demandé wondered 0.3333333
: ; 0.0384615
: : 1.0000000
Soviétique Union 1.0000000
Mes My 0.3000000
prête ready 0.2500000
force strength 0.5000000
convives guests 0.5000000
pouvais speak 0.1111111
pouvais could 0.2142857
terminé over 0.0666667
terminé job 0.3333333
terminé &apos;s 0.0075758
bonnes right 0.3333333
croiront will 0.0227273
croiront believe 0.0833333
dignité dignity 1.0000000
retient keeps 0.1666667
Allemands Germans 1.0000000
sous-officier officer 1.0000000
opinion opinion 0.8000000
éducation Education 0.5000000
éducation education 0.5000000
portable laptop 0.5000000
démontrer prove 0.2000000
démontrer to 0.0030581
démontrer demonstrate 0.3333333
talents skills 0.2500000
idée idea 0.7692308
idée which 0.0588235
Warcraft Warcraft 1.0000000
recours resort 0.3333333
recours resorted 0.2500000
Quand When 0.7368421
Quand NULL 0.0024570
symbolique leader 0.2500000
Comme They 0.1666667
jeux video 0.5000000
repassage ironing 1.0000000
repassage at 0.0217391
servir get 0.0588235
servir age 0.5000000
servir yourself 0.2000000
Londres London 0.5000000
journée day 0.3333333
sortes types 1.0000000
numéro dial 0.5000000
lu read 0.2000000
demandais wondering 0.5000000
demandais was 0.0181818
société society 1.0000000
envie want 0.1136364
envie NULL 0.0024570
prêt ready 0.2500000
prêt willing 0.3333333
pourrait could 0.2857143
pourrait might 0.5000000
comprend understands 0.5000000
nouvel new 0.0909091
rester going 0.0434783
rester stay 0.1538462
rester stand 0.1000000
sortie &apos;re 0.0250000
sortie they 0.0294118
sortie released 0.5000000
mot consent 0.5000000
mot word 0.7500000
mot password 0.3333333
mot fridge 0.2000000
flics The 0.0161290
flics cops 0.3333333
retenue constraint 1.0000000
crêpes pancakes 0.3333333
bavard verbose 1.0000000
hommage Man 0.3333333
hommage commemorates 0.5000000
moi-même myself 0.2500000
précis purpose 0.3333333
folle idea 0.0769231
rapide enough 0.1666667
inspiration inspiration 1.0000000
façon way 0.2500000
façon NULL 0.0049140
siècle century 0.5000000
explosif subject 1.0000000
tiens about 0.0270270
tiens care 0.1111111
superficiels writing 0.5000000
lire go 0.0526316
lire reading 0.5000000
oreilles ears 1.0000000
connu known 0.2500000
simple mere 1.0000000
simple simple 0.8333333
simple Only 0.5000000
machine cotton 1.0000000
machine complicated 0.3333333
machine typewriter 0.3333333
sanctionnés censured 1.0000000
poésie filled 0.3333333
signes signs 1.0000000
Arc Arc 0.5000000
précédente statement 1.0000000
ouvrages works 1.0000000
avaler buy 0.2000000
avaler into 0.0714286
belles beautiful 0.1428571
belles form 0.3333333
messages messages 0.3333333
s&apos; apologized 0.3333333
s&apos; pools 0.5000000
s&apos; though 0.1250000
s&apos; if 0.1538462
s&apos; getting 0.2500000
s&apos; express 0.5000000
s&apos; crashed 0.3333333
s&apos; exclaimed 0.5000000
s&apos; , 0.0134529
s&apos; to 0.0091743
s&apos; please 0.1562500
s&apos; breed 0.3333333
s&apos; NULL 0.0049140
s&apos; noises 0.3333333
s&apos; speech 0.2000000
s&apos; happened 0.2000000
s&apos; calmed 1.0000000
s&apos; surprised 0.2000000
s&apos; common 0.5000000
s&apos; hundred 0.5000000
s&apos; teacher 0.2500000
s&apos; built 0.3333333
frappe at 0.0217391
frappe knocking 1.0000000
frappe is 0.0056818
emails email 0.1250000
politique debate 1.0000000
politique politics 0.5000000
mes mine 0.3333333
mes loss 0.1428571
mes study 0.1428571
mes grades 0.3333333
mes for 0.0156250
mes my 0.1212121
disent friends 0.1428571
disent say 0.1052632
Noël Christmas 1.0000000
18 June 0.2500000
18 18th 0.2000000
essayaient trying 0.1000000
essayaient were 0.0588235
loin from 0.0937500
loin far 0.3333333
loin away 0.2500000
loin it 0.0096154
choisir as 0.0416667
choisir quandary 0.3333333
dehors outside 1.0000000
gâchis waste 1.0000000
meurs die 0.3333333
meurs &apos;m 0.0185185
Mike Mike 1.0000000
partent leave 0.2500000
contributeurs contributors 1.0000000
beau beautiful 0.2857143
beau but 0.0322581
beau best 0.1250000
caractère mandatory 1.0000000
continue doesn 0.0454545
continue keep 0.1428571
demain up 0.0800000
demain tomorrow 0.8000000
veulent only 0.0500000
veulent to 0.0030581
veulent want 0.0227273
passage secret 0.6666667
Va Go 1.0000000
avancées scientific 1.0000000
tire out 0.0833333
tire &apos;re 0.0250000
tire getting 0.2500000
retéléphoner again 0.3333333
table oaken 0.5000000
sarcastiques &apos;s 0.0075758
sarcastiques sarcastic 0.5000000
manigances surreptitious 1.0000000
préservatif condom 0.5000000
rendent make 0.1111111
habite live 0.0769231
demanderai won 0.1000000
demanderai ask 0.0909091
addition check 0.1428571
pierres stones 0.5000000
tua killed 0.5000000
juin 18th 0.4000000
Hamlet Hamlet 1.0000000
robots Robots 0.5000000
discours speech 0.2000000
sœurs siblings 0.2500000
monarques monarchs 1.0000000
exiges-tu do 0.0149254
exiges-tu you 0.0033445
exiges-tu want 0.0227273
décisions decisions 1.0000000
détail detail 1.0000000
princesse princess 1.0000000
brasserie brewery 1.0000000
forces strengths 0.5000000
enfin finally 1.0000000
60 60 1.0000000
bouteille bottles 0.3333333
réel real 0.1666667
joueurs hockey 0.5000000
rien &apos;t 0.0188679
rien NULL 0.0049140
rien welcome 0.2000000
rien useless 0.2500000
rien nothing 0.8571429
rien anything 0.2142857
mariés groom 1.0000000
mariés and 0.0178571
arrivons-nous arrive 0.2500000
arrivons-nous we 0.0400000
soif thirsty 1.0000000
fin prom 0.5000000
fin end 0.3333333
fin astute 1.0000000
venu come 0.1428571
venu came 0.1250000
téléphone phone 0.6666667
téléphone telephone 0.5000000
fenêtre window 1.0000000
toi-même yourself 0.2000000
toi-même it 0.0096154
ferais would 0.0555556
pensions thought 0.1428571
perdu wasted 0.2500000
perdu lost 0.8333333
acheté bought 0.5000000
Tom Tom 1.0000000
appétit appetite 1.0000000
cerf deer 1.0000000
fidèles fans 1.0000000
nourriture food 0.3333333
nourriture drink 0.2500000
En Theoretically 0.3333333
En In 0.2000000
En Despite 0.5000000
En When 0.0526316
guerre war 1.0000000
guerre Revolutionary 0.5000000
Lorsque When 0.1052632
auras get 0.0588235
auras a 0.0053191
malnutrition malnutrition 0.3333333
Non No 0.5000000
vertige heights 1.0000000
vertige am 0.0800000
vertige scared 0.2500000
vertige of 0.0153846
John John 0.3333333
bonne solution 0.2500000
bonne good 0.0833333
bonne right 0.3333333
aide helps 0.5000000
formuler phrased 0.1666667
formuler in 0.0114943
Excusez-moi Excuse 1.0000000
amie friend 0.5000000
divulguer telling 0.2500000
divulguer everybody 0.5000000
petit-déjeuner breakfast 0.5000000
perdre lose 0.6000000
bienveillant who 0.0344828
long long 0.0606061
long term 0.2500000
long about 0.0270270
règles rules 1.0000000
règles for 0.0156250
étudiants students 0.3333333
plutôt rather 0.5000000
plutôt , 0.0044843
plutôt pretty 0.2500000
pourquoi take 0.0625000
pourquoi why 0.5000000
normal person 0.1428571
normal normal 1.0000000
verbes learning 0.2000000
verbes verbs 0.5000000
réforme by 0.0714286
réforme reform 0.5000000
abandonner abandon 0.5000000
abandonner to 0.0030581
as-tu did 0.0869565
as-tu you 0.0100334
crédit card 0.2000000
ma my 0.3484848
ma MY 1.0000000
parlez-vous about 0.0540541
parlez-vous talking 0.3333333
parlez-vous you 0.0066890
Désolée Sorry 1.0000000
ont their 0.0952381
ont boys 0.3333333
ont earned 0.5000000
ont an 0.0384615
ont have 0.0400000
ont men 0.2500000
ont authorities 0.3333333
ont million 0.4000000
ont wasted 0.2500000
ont behavior 0.2500000
ont were 0.1764706
ont fought 0.3333333
continuer continuing 1.0000000
continuer strength 0.5000000
continuer keep 0.2857143
continuer on 0.0243902
continuer continue 1.0000000
pauvre Poor 0.3333333
substitut for 0.0156250
substitut substitute 1.0000000
mathématiques Mathematics 0.4285714
lorsqu when 0.0400000
pour lovely 0.3333333
pour for 0.5781250
pour why 0.1666667
pour grades 0.3333333
pour wearing 0.2000000
pour else 0.1250000
pour to 0.0948012
pour defect 0.2000000
pour enough 0.1666667
pour best 0.1250000
pour elected 0.1666667
pour interest 0.3333333
impoli impolite 1.0000000
cinéma movies 1.0000000
ajouter adding 0.3333333
rarement rarely 1.0000000
astrophysicien an 0.0384615
astrophysicien astrophysicist 1.0000000
Veux-tu like 0.0238095
Veux-tu Would 0.5000000
Veux-tu you 0.0033445
derrière behind 1.0000000
rancoeur rancor 1.0000000
Japonais Japanese 0.2500000
vas-tu why 0.1666667
vas-tu are 0.0232558
vas-tu will 0.0227273
vas-tu Did 0.1538462
vas-tu you 0.0133779
données data 1.0000000
exprès intentionally 0.2000000
attiré drawn 0.5000000
écurie lonely 0.2500000
écurie It 0.0119048
Maury Maury 0.3333333
Maury Povich 0.5000000
demandes-tu do 0.0149254
demandes-tu ask 0.0909091
demandes-tu you 0.0033445
amour love 0.2857143
amour Love 0.5000000
langage ambiguous 0.5000000
Faites-moi Let 0.1250000
relégua relegated 0.5000000
archer archer 0.6666667
séjour Though 0.5000000
séjour stay 0.0769231
audience audience 0.2500000
chêne table 0.3333333
saurais really 0.0625000
aucun notice 0.5000000
aucun pointless 0.2500000
interjection interjection 1.0000000
oeil eye 1.0000000
oeil ear 0.2500000
secret path 1.0000000
secret on 0.0243902
secret secret 0.3333333
transmissible disease 1.0000000
entrer at 0.0217391
entrer arrive 0.2500000
entrer Geneva 0.5000000
j&apos; married 0.3333333
j&apos; living 0.2000000
j&apos; I 0.1111111
j&apos; so 0.0344828
bonheur happiness 0.6666667
bonheur awaiting 0.3333333
rêvent dream 0.2500000
âge learn 0.0769231
optimale optimum 0.5000000
optimale length 0.3333333
franc you 0.0033445
franc truth 0.1000000
franc the 0.0035088
1000 1000 1.0000000
Toute Every 0.3333333
pure absolute 1.0000000
flatteries tired 0.1000000
flatteries of 0.0076923
traduisent it 0.0096154
traduisent translate 0.3333333
traduisent into 0.0714286
journaux papers 0.5000000
guilde leader 0.2500000
guilde relegated 0.5000000
abandonne give 0.1111111
abandonne up 0.0400000
prendrait would 0.0555556
prendrait take 0.1250000
va land 0.5000000
va how 0.1000000
va the 0.0035088
va matter 0.2000000
va NULL 0.0024570
va going 0.1739130
va &apos;s 0.0227273
va are 0.0116279
va will 0.1136364
va &apos;re 0.0250000
va is 0.0113636
alimentaires of 0.0076923
facile easier 0.5000000
du testimony 0.3333333
du NULL 0.0024570
du time 0.1111111
du himself 0.5000000
du noise 0.2500000
du card 0.2000000
du effects 0.5000000
du depravity 0.5000000
du analysis 0.3333333
du orange 0.2500000
du sunny 0.5000000
du importance 0.5000000
du schedule 0.2857143
du city 0.5000000
du five 0.3333333
du grim 0.5000000
du sunset 0.2500000
du at 0.0434783
du sleep 0.0769231
du the 0.0701754
du decorum 0.2500000
du of 0.0230769
du Back 0.2500000
du depends 0.3636364
du piano 0.4000000
du diets 0.5000000
du statue 0.5000000
du subjects 0.3333333
doutent doubt 0.5000000
par by 0.5000000
par to 0.0030581
par the 0.0035088
par dentist 0.3333333
par times 0.5000000
par sound 0.5000000
par fell 0.3333333
par a 0.0106383
par for 0.0312500
par 100 0.5000000
par drawn 0.5000000
arrêtent keep 0.1428571
Soyons Let 0.1250000
démocrate democrat 1.0000000
réprouvait severely 1.0000000
belle in 0.0114943
belle city 0.2500000
belle beautiful 0.5714286
avouer admit 0.5000000
inviter invited 1.0000000
facturé essential 0.3333333
manques you 0.0033445
manques miss 0.1000000
besoin need 0.7333333
besoin NULL 0.0024570
besoin want 0.0227273
car because 0.0312500
car essential 0.3333333
récolte harvest 0.3333333
océan ocean 0.2500000
monde world 1.0000000
monde NULL 0.0024570
monde Everyone 0.3333333
frère brother 1.0000000
gèle next 0.3333333
gèle freeze 0.3333333
irais look 0.1250000
irais would 0.0277778
regarde look 0.2500000
regarde is 0.0113636
regarde watching 1.0000000
regarde roommate 0.3333333
regarde , 0.0044843
cécité Blindness 0.5000000
souvenirs memories 1.0000000
souvenirs bad 0.2500000
sidérant toll 1.0000000
probablement probably 1.0000000
sources sources 0.3333333
massage massage 1.0000000
aura will 0.0227273
aura via 0.3333333
fille girl 1.0000000
avez allowed 0.2500000
avez do 0.0149254
avez ’ 0.3333333
avez NULL 0.0024570
avez have 0.0300000
avez t 0.5000000
plausibles face-to-face 0.1666667
écrite written 0.3333333
Demain Tomorrow 1.0000000
enfants leaders 1.0000000
enfants children 0.6250000
flattant him 0.0370370
flattant sycophants 0.1428571
flattant , 0.0044843
flattant praising 0.3333333
vous love 0.0476190
vous tell 0.0625000
vous trust 0.1250000
vous talk 0.1250000
vous NULL 0.0024570
vous meet 0.1428571
vous admit 0.5000000
vous you 0.0802676
vous please 0.1875000
trace trace 0.5000000
soutenait maintained 1.0000000
Mon My 0.4000000
» &quot; 0.1556886
exprimer themselves 1.0000000
exprimer speech 0.4000000
exprimer articulate 0.5000000
reste rest 0.6666667
reste for 0.0156250
reste stay 0.0769231
reste will 0.0227273
ferait be 0.0125000
ferait like 0.0238095
ferait would 0.0277778
ferait &apos;d 0.1111111
preuve believable 0.3333333
sandwiches left 0.1111111
sandwiches there 0.0204082
sandwiches are 0.0116279
demande asking 0.5000000
demande curious 0.2500000
demande NULL 0.0024570
demande for 0.0156250
demande &apos;s 0.0151515
demande wonder 0.2222222
impôts taxes 0.5000000
gentil nice 0.4000000
aille go 0.0526316
levé out 0.0833333
saison favorite 1.0000000
absolument despise 1.0000000
absolument pointless 0.2500000
absolument totally 0.3333333
absolument just 0.0400000
inattendu unexpected 1.0000000
crime crime 1.0000000
essayées tried 0.2000000
essayées been 0.1666667
essayées have 0.0100000
propre own 0.6666667
frères brothers 0.5000000
frères siblings 0.2500000
vérifier check 0.5714286
grand up 0.0400000
grand traveller 0.5000000
grand great 0.2500000
grand big 0.5000000
grand grow 0.5000000
envoyées letters 0.2000000
Grouille up 0.0400000
Grouille Hurry 0.2000000
surprise surprised 0.2000000
surprise surprise 0.7142857
5h in 0.0114943
5h five 0.1666667
Chaque Whenever 0.3333333
Chaque Every 0.6666667
faite built 0.3333333
faite made 0.0769231
signe any 0.1428571
signe sign 1.0000000
finalement people 0.0243902
finalement last 0.1428571
finalement wouldn 0.3333333
finalement be 0.0125000
finalement explained 0.2500000
sac backpack 1.0000000
sac at 0.0217391
avais had 0.0526316
avais swore 0.5000000
avais brought 0.3333333
avais gave 0.1666667
avais was 0.0181818
vaillants valiant 1.0000000
savait quandary 0.3333333
savait a 0.0053191
savait in 0.0114943
savait was 0.0181818
savait as 0.0416667
mal bad 0.2500000
mal a 0.0159574
mal headache 0.1250000
mal misunderstood 0.3333333
mal NULL 0.0024570
mal misinterpreted 0.5000000
regardes at 0.0217391
regardes look 0.1250000
Voudrais-tu you 0.0033445
Voudrais-tu Would 0.5000000
Voudrais-tu like 0.0238095
université college 0.5000000
université university 1.0000000
dénonçant denouncing 1.0000000
ai-je options 0.5000000
ai-je have 0.0100000
ai-je you 0.0100334
ai-je do 0.0149254
épisode 21 0.5000000
épisode episode 0.5000000
devrais should 0.0588235
bon good 0.5833333
bon NULL 0.0024570
Avant Next 1.0000000
nuit NULL 0.0024570
nuit night 0.6000000
accusation blame 0.2500000
révisions studying 0.3333333
tromper err 0.5000000
Joyeux Merry 1.0000000
serve useful 0.3333333
serve has 0.0714286
serve be 0.0125000
serve got 0.1428571
serve for 0.0156250
À At 1.0000000
À Back 0.2500000
Parles-tu Do 0.0833333
Parles-tu speak 0.1111111
ayant having 0.2500000
ayant concise 1.0000000
ayant with 0.0270270
répréhensible deed 0.5000000
déçoit disappoints 0.5000000
copains friends 0.0714286
déteste hate 1.0000000
déteste utterly 1.0000000
las tired 0.1000000
utiliser get 0.0588235
voix voice 1.0000000
écrivent write 0.5000000
simplement just 0.0400000
vrai as 0.0416667
vrai true 0.6250000
vrai real 0.1666667
vrai well 0.1666667
vrai truth 0.1000000
avis mind 0.1666667
avis your 0.0384615
réveillait tomorrow 0.2000000
réveillait woke 0.2500000
annoncèrent girls 0.5000000
prix price 0.5000000
prend NULL 0.0024570
prend requires 0.3333333
prend takes 0.5000000
prend-il take 0.0625000
nerveux nervous 1.0000000
Cette This 0.0454545
venaient ever 0.2000000
moment there 0.0204082
moment then 0.0909091
moment certain 0.5000000
moment point 0.2000000
moment moment 0.5000000
Muiriel birthday 0.2857143
Muiriel Muiriel 0.6000000
mettaient made 0.0769231
parles-tu about 0.0540541
parles-tu talking 0.3333333
parles-tu you 0.0066890
balles bullets 1.0000000
produits chemicals 0.5000000
Arrête it 0.0096154
Arrête Stop 1.0000000
Arrête asking 0.2500000
leur daily 0.5000000
leur their 0.3809524
leur Their 1.0000000
leur outrageous 0.3333333
leur them 0.3333333
leur released 0.5000000
leur proof 0.3333333
réfléchir thinking 0.5000000
réfléchir think 0.0312500
réfléchir it 0.0096154
réfléchir any 0.1428571
réfléchir more 0.0625000
décrivait painted 1.0000000
relations sex 0.2500000
qui person 0.2857143
qui that 0.1071429
qui made 0.0769231
qui matter 0.2000000
qui who 0.8965517
qui stone 0.5000000
qui awaiting 0.3333333
qui anyone 0.2222222
qui play 0.2500000
qui selected 0.5000000
qui keeps 0.3333333
qui explained 0.2500000
qui influenced 0.2500000
qui which 0.1764706
qui NULL 0.0147420
qui taxpayers 0.5000000
qui boat 0.3333333
qui — 0.3333333
qui happens 0.3636364
qui are 0.0116279
qui changes 0.1666667
qui Who 0.1111111
vues thoughts 1.0000000
Beaucoup Many 0.5000000
Man Man 0.3333333
savez know 0.0344828
allais were 0.0588235
allais show 0.3333333
rue street 1.0000000
Si If 0.9130435
fera weather 0.2222222
fera will 0.0227273
dentiste dentist 0.3333333
apprentissage learning 0.2000000
eu &apos;re 0.0250000
eu speaker 0.2500000
eu had 0.1052632
rencontrer to 0.0061162
rencontrer meet 0.2857143
rencontrer You 0.0338983
pingouin penguin 1.0000000
seront selected 0.5000000
stupide stupidest 0.2500000
stupide thing 0.1000000
stupide stupid 0.2857143
possible be 0.0125000
possible possible 0.3333333
scandales scandals 1.0000000
scandales involving 0.3333333
voit &apos;re 0.0250000
voit meeting 0.5000000
donc NULL 0.0024570
donc sea 0.5000000
donc therefore 1.0000000
donc what 0.0156250
donc so 0.1034483
étonner wonder 0.1111111
NULL is 0.0113636
NULL this 0.1000000
NULL good 0.0833333
NULL it 0.0673077
NULL spending 1.0000000
NULL then 0.0909091
NULL are 0.0232558
NULL , 0.0134529
NULL point 0.4000000
NULL to 0.1681957
NULL There 0.0322581
NULL time 0.0740741
NULL lot 0.1250000
NULL machines 1.0000000
NULL of 0.0076923
NULL go 0.0526316
NULL ask 0.0909091
NULL than 0.0625000
NULL anyone 0.1111111
NULL You 0.0338983
NULL use 0.2500000
NULL read 0.2000000
NULL only 0.1000000
NULL what 0.0156250
NULL with 0.0270270
NULL the 0.0105263
NULL money 0.0555556
NULL who 0.0344828
NULL for 0.0156250
NULL will 0.0454545
NULL about 0.0270270
NULL you 0.0468227
NULL and 0.0535714
NULL don 0.0125000
NULL need 0.0666667
NULL much 0.0454545
NULL a 0.0053191
NULL That 0.0526316
NULL was 0.0181818
NULL The 0.0161290
NULL there 0.0204082
NULL over 0.0666667
NULL me 0.0500000
NULL wanted 0.1250000
NULL &apos;s 0.0303030
NULL been 0.1666667
NULL have 0.0300000
NULL things 0.0400000
NULL behavior 0.2500000
NULL here 0.1000000
NULL all 0.0454545
NULL when 0.0400000
NULL changed 0.1000000
NULL think 0.0625000
NULL care 0.1111111
NULL I 0.0135501
NULL on 0.0487805
NULL Muiriel 0.4000000
NULL &apos;re 0.0500000
NULL computer 0.2000000
NULL more 0.0625000
NULL . 0.0049140
NULL find 0.1818182
NULL up 0.0800000
NULL fall 0.5000000
NULL in 0.0114943
NULL single 1.0000000
NULL It 0.0238095
NULL never 0.0227273
NULL take 0.0625000
NULL way 0.0833333
NULL be 0.1125000
NULL one 0.0434783
NULL out 0.0833333
NULL them 0.0476190
NULL get 0.1176471
NULL hard 0.3333333
NULL anything 0.0714286
NULL tell 0.1250000
NULL &apos;ve 0.0833333
NULL Don 0.0666667
NULL &quot; 0.0119760
NULL know 0.0344828
NULL &apos;t 0.0125786
NULL at 0.0217391
NULL her 0.1428571
NULL sent 0.2500000
pourtant nevertheless 0.3333333
pourtant yet 0.3333333
pourtant light 0.1666667
pourtant but 0.0322581
cinglé nuts 0.5000000
consacre spend 0.5000000
ceintures seat 1.0000000
importance importance 0.5000000
plaindre more 0.0625000
plaindre any 0.1428571
plaindre your 0.0384615
plaindre complaining 0.6666667
plaindre of 0.0076923
homo gay 0.3333333
fait NULL 0.0073710
fait has 0.0714286
fait hot 0.1428571
fait do 0.0149254
fait for 0.0156250
fait is 0.0113636
fait done 0.1666667
fait made 0.0769231
fait light 0.1666667
fait almost 0.2500000
fait &apos;s 0.0303030
fait logical 0.3333333
fait pranking 0.2000000
fait Did 0.1538462
fait a 0.0106383
fait did 0.0869565
fait pancakes 0.3333333
fait intentionally 0.2000000
fait three 0.2500000
vais NULL 0.0049140
vais going 0.1304348
vais go 0.0526316
vais out 0.0833333
vais gonna 0.8000000
vais &apos;m 0.1481481
curieux curious 0.5000000
ambivalence ambivalence 1.0000000
air stupid 0.1428571
air innocent 0.2500000
air looks 0.2000000
air of 0.0076923
mangé eaten 0.6666667
insupportable unbearable 1.0000000
place instead 0.1428571
S&apos; If 0.0434783
S&apos; Where 0.1111111
S&apos; Please 0.5000000
Farmers Farmers 1.0000000
amena &apos;s 0.0075758
amena lead 1.0000000
amena deeds 1.0000000
sa renounce 0.5000000
sa his 0.2580645
sa beliefs 0.2500000
sa loud 1.0000000
sa caring 0.5000000
chaque whenever 0.3333333
chaque each 0.3333333
chaque every 0.1111111
poètes poets 0.5000000
phrase phrase 1.0000000
vin Wine 0.3333333
sois be 0.0250000
sois worry 0.5000000
sois antisocial 0.2500000
Remettre Pull 1.0000000
Remettre into 0.0714286
raconta told 0.0588235
raconta me 0.0125000
demandez Don 0.0666667
demandez ask 0.0909091
lieu instead 0.2857143
désolée sorry 0.5000000
renieraient repudiate 1.0000000
